float weights_layer_0_weights[] = {

    -0.062030, -0.042610, -0.080268, 0.019839, 0.032905, 0.045166, -0.095581, 0.002390, 
    -0.012553, -0.029513, -0.074703, -0.077942, 0.036474, 0.042684, 0.081099, -0.008647, 
    -0.082800, -0.041615, -0.048820, 0.059108, -0.022695, -0.093991, 0.009614, 0.003691, 
    -0.017038, 0.040632, -0.010032, -0.030635, -0.025578, 0.072345, -0.047488, -0.054692, 
    -0.008757, -0.011971, -0.077190, 0.082059, 0.028261, -0.082429, -0.098646, -0.082496, 
    0.007282, -0.018046, 0.075236, 0.060117, -0.001831, -0.014685, 0.102862, -0.099021, 
    0.067818, 0.062300, -0.077403, -0.063885, 0.001512, 0.048444, 0.083924, -0.045181, 
    -0.001215, -0.046426, -0.013197, 0.059410, -0.065085, -0.073414, 0.061770, 0.002570, 
    -0.026978, -0.087004, -0.021433, 0.006480, 0.034349, -0.083269, 0.012375, -0.050170, 
    -0.102177, -0.062682, 0.096075, -0.036736, -0.063889, -0.087545, -0.002721, -0.042291, 
    -0.009287, 0.020612, -0.076935, 0.079469, -0.047060, 0.058493, 0.039989, 0.065637, 
    -0.003422, -0.007095, 0.039874, 0.039635, 0.030503, 0.025390, -0.083518, -0.065338, 
    0.023691, -0.012718, -0.035803, -0.066955, 0.004803, 0.031767, 0.064991, -0.049187, 
    -0.110091, -0.088386, -0.002818, -0.052177, -0.030897, 0.034110, 0.049992, -0.036420, 
    0.048674, -0.033654, -0.068198, 0.055967, -0.055587, -0.029034, 0.061306, 0.013082, 
    -0.007012, -0.006045, -0.062172, 0.066517, 0.053150, -0.034544, -0.037800, 0.009062, 
    0.057073, -0.076751, -0.078760, 0.033636, 0.079070, 0.053695, 0.042015, 0.032759, 
    -0.003001, -0.054993, 0.002779, -0.044960, -0.058810, -0.035268, 0.001725, 0.034742, 
    0.002573, -0.007214, -0.067651, 0.011251, -0.030559, 0.029631, -0.055297, -0.056508, 
    -0.085104, -0.008403, 0.028916, 0.007439, -0.079217, -0.052074, 0.059484, -0.069505, 
    0.032789, -0.059221, -0.087547, 0.045333, 0.012217, -0.050016, -0.102963, -0.005319, 
    -0.061162, 0.020179, -0.048580, 0.042488, -0.029255, -0.055323, 0.007785, -0.078336, 
    -0.090610, -0.003794, 0.027123, -0.048011, -0.052459, -0.092653, 0.021925, 0.023972, 
    -0.093425, -0.094302, -0.007073, -0.008604, 0.022937, -0.031070, 0.055834, 0.044364, 
    -0.079361, 0.019273, 0.025961, 0.064297, -0.037929, -0.093080, -0.088308, 0.010606, 
    -0.094452, -0.069422, 0.066624, 0.037770, -0.009572, 0.025733, 0.112440, -0.025026, 
    0.021978, 0.044619, -0.084529, -0.077785, -0.059632, -0.040746, -0.062248, 0.052420, 
    0.015846, -0.059578, -0.011427, 0.020155, 0.035899, -0.016074, -0.021197, 0.039287, 
    0.058959, -0.025823, -0.052947, 0.097694, 0.045826, 0.036766, -0.057395, 0.066598, 
    0.028245, -0.074039, -0.044001, -0.083812, 0.041040, -0.003190, -0.025586, 0.056182, 
    0.001517, 0.027178, -0.010479, -0.023421, 0.002522, 0.025717, 0.050973, 0.014235, 
    -0.021462, -0.017794, -0.013050, -0.088062, 0.025531, -0.091587, -0.024676, 0.034722, 
    0.023828, -0.012989, -0.065597, 0.064174, -0.061428, -0.021176, 0.044413, -0.027978, 
    -0.101726, 0.073111, 0.028657, -0.049291, -0.012277, -0.072347, 0.018735, -0.046124, 
    -0.081752, 0.072493, 0.001860, -0.035902, -0.023527, -0.018344, -0.059839, -0.028070, 
    0.000830, -0.088251, -0.008784, -0.037676, -0.006360, -0.012458, -0.079208, -0.085655, 
    -0.087146, 0.047662, -0.045070, 0.082645, -0.027337, 0.054813, -0.075028, -0.021992, 
    -0.052516, 0.043753, 0.004394, 0.010791, 0.039927, -0.088739, 0.020701, -0.035698, 
    -0.088219, -0.087627, -0.066496, -0.044677, 0.072417, -0.003279, -0.001117, 0.069454, 
    -0.080308, -0.101219, 0.023980, -0.058347, -0.089944, -0.032001, -0.012630, -0.064146, 
    -0.050154, 0.055576, -0.030243, 0.008506, -0.039747, 0.003823, 0.024498, 0.043446, 
    -0.005532, 0.069227, 0.075520, -0.012153, -0.031077, -0.074494, 0.010417, 0.032231, 
    -0.035295, -0.002017, 0.010446, -0.024443, 0.047464, 0.034248, -0.071193, -0.060631, 
    -0.054196, 0.007780, -0.007175, -0.026301, -0.093254, 0.007951, -0.002352, 0.050088, 
    -0.059327, 0.071902, 0.014513, 0.079346, 0.026450, -0.037845, -0.069774, -0.059276, 
    -0.119464, 0.075418, -0.064096, 0.064492, 0.032492, -0.007929, 0.041657, 0.033644, 
    -0.065349, 0.036378, -0.027403, -0.035842, -0.044188, 0.025559, -0.050526, -0.021779, 
    -0.077315, -0.009890, 0.021125, 0.074176, -0.093182, -0.065935, -0.027696, -0.035873, 
    -0.058876, 0.064724, -0.076411, -0.002390, -0.044788, -0.013193, -0.020043, -0.049365, 
    0.008382, -0.077790, 0.063938, 0.062903, -0.083585, 0.015935, 0.061342, 0.066090, 
    0.042953, 0.052689, 0.054829, -0.074589, 0.082822, -0.035311, 0.031390, 0.050840, 
    0.059979, 0.065615, -0.087640, 0.062668, -0.050017, -0.020954, -0.024559, -0.008561, 
    0.024399, 0.010787, -0.000299, 0.011077, -0.092919, 0.050035, 0.027786, -0.053354, 
    -0.082905, 0.026063, -0.084804, 0.028233, -0.035246, -0.060272, 0.020349, 0.066739, 
    0.024347, -0.061852, -0.058541, 0.036085, 0.040921, -0.023419, 0.012491, 0.022327, 
    -0.047685, -0.066872, 0.014828, 0.016961, 0.026136, 0.022515, -0.023586, 0.001617, 
    -0.005025, -0.045342, -0.042538, -0.038162, 0.065535, -0.016271, -0.061436, 0.017319, 
    -0.007306, 0.040811, -0.081713, -0.033483, -0.008714, 0.026757, 0.030717, 0.040123, 
    -0.031580, 0.044796, 0.057491, 0.052179, 0.036206, 0.048398, -0.055286, -0.069812, 
    0.017683, 0.039367, 0.025549, 0.061810, -0.010641, 0.028781, -0.040381, 0.038885, 
    0.036541, -0.095790, -0.029835, 0.030328, 0.068508, 0.041307, -0.078130, 0.063045, 
    0.027679, -0.060405, -0.044903, -0.036073, 0.052578, -0.080316, -0.013036, 0.062715, 
    0.024199, 0.038815, -0.068135, 0.083994, 0.018572, -0.048828, 0.081370, 0.033201, 
    -0.082836, 0.032272, -0.041448, 0.065987, -0.014960, -0.079188, -0.006490, -0.036304, 
    -0.075959, 0.028210, 0.039570, 0.055693, 0.017503, -0.022161, 0.028807, 0.057414, 
    -0.087640, -0.061111, 0.023655, 0.098197, 0.000295, 0.073105, -0.040877, -0.006232, 
    -0.002104, 0.073594, -0.022433, -0.035172, -0.029326, 0.037019, 0.043886, -0.079792, 
    -0.036946, 0.051467, 0.055890, 0.002136, -0.018034, 0.018067, 0.073361, -0.054969, 
    -0.059106, 0.055261, 0.049673, -0.083471, -0.008591, -0.021504, -0.024170, -0.078964, 
    -0.082476, 0.070431, -0.018837, -0.064906, 0.050543, 0.010179, 0.076571, -0.001908, 
    0.034397, 0.086080, 0.002943, 0.027447, 0.008217, -0.000502, 0.022569, 0.029903, 
    -0.066185, -0.096392, -0.012999, -0.014589, 0.033348, -0.057583, 0.051792, -0.090233, 
    0.062223, 0.047997, 0.027695, -0.096426, 0.051260, -0.052969, 0.010299, 0.053659, 
    0.049365, -0.033632, 0.073741, -0.020098, -0.083268, 0.055217, 0.050726, -0.015762, 
    0.046160, 0.026161, 0.059389, -0.038488, -0.046469, -0.021414, -0.005572, 0.059229, 
    0.033889, -0.066119, 0.007486, -0.035589, 0.000664, -0.078864, -0.028814, 0.042563, 
    0.115688, 0.068443, 0.034545, -0.040088, 0.087084, -0.050201, 0.049722, -0.062782, 
    -0.099886, 0.068143, 0.063782, 0.025829, -0.021920, 0.042761, 0.026605, -0.031404, 
    -0.032482, -0.024395, 0.036888, 0.027802, -0.001605, -0.090947, -0.074679, -0.007836, 
    -0.016065, 0.009575, -0.015942, -0.024825, 0.030263, -0.103526, -0.037188, 0.065981, 
    -0.035506, 0.070444, 0.030573, -0.064002, 0.099919, -0.051074, 0.024977, -0.065805, 
    -0.109291, 0.097837, -0.015883, 0.037744, 0.022553, 0.026399, 0.077041, -0.023830, 
    0.071457, 0.027784, -0.079354, 0.053101, 0.013718, 0.022563, -0.087106, 0.005651, 
    -0.090035, 0.026092, 0.060159, 0.089979, -0.050618, -0.015507, 0.010769, 0.028075, 
    -0.083682, -0.002390, -0.042999, 0.093030, 0.061429, 0.040142, 0.018128, 0.055963, 
    -0.061499, -0.061380, 0.083270, -0.016136, 0.050218, 0.054320, 0.017334, -0.055811, 
    0.060048, 0.089799, 0.067521, 0.043080, -0.085084, -0.005140, 0.031698, -0.032972, 
    0.049734, 0.043310, -0.092728, 0.030382, -0.028005, -0.089981, -0.058876, 0.043888, 
    -0.070990, -0.070211, -0.009143, -0.037336, 0.039803, 0.027044, -0.061862, -0.006215, 
    -0.023523, 0.013708, -0.027736, 0.053957, -0.028617, 0.080426, -0.049861, 0.026890, 
    -0.085904, 0.013448, 0.071669, 0.060035, 0.012540, -0.042224, -0.089018, 0.042866, 
    -0.060562, -0.056282, -0.068430, -0.069729, -0.022239, -0.105728, -0.078908, 0.062345, 
    -0.002905, -0.083444, -0.057915, -0.005235, 0.019112, 0.051065, 0.003507, -0.061181, 
    -0.117855, 0.062748, 0.008614, -0.070728, -0.049188, 0.047751, -0.003102, -0.019732, 
    -0.006497, 0.082752, 0.035626, 0.093453, -0.002497, -0.092042, -0.080429, -0.030073, 
    -0.040245, -0.071921, -0.062136, -0.030074, 0.018541, -0.059006, -0.035642, 0.069595, 
    -0.045222, 0.018776, -0.032707, 0.049135, 0.000909, 0.056257, 0.051423, -0.005614, 
    0.054484, 0.050613, -0.025174, -0.041410, 0.034944, 0.026243, 0.008321, -0.040233, 
    -0.042801, 0.052522, 0.013860, 0.089630, -0.043976, -0.049804, -0.047245, 0.067881, 
    -0.036788, 0.035526, -0.051536, -0.005390, -0.092371, -0.043610, 0.036062, 0.004045, 
    -0.006082, 0.039866, 0.066441, 0.093127, 0.013023, 0.065748, -0.088107, 0.016479, 
    -0.081075, -0.033856, -0.035461, -0.072003, 0.037470, -0.083415, 0.063623, 0.054734, 
    -0.047831, -0.009825, -0.042307, 0.060634, 0.022838, -0.051859, -0.029030, 0.067799, 
    0.070688, -0.015770, -0.060428, -0.070199, -0.010110, 0.044047, 0.027157, 0.022259, 
    -0.003268, 0.071366, 0.001718, 0.067778, -0.033335, 0.010104, 0.049683, -0.007870, 
    -0.024498, -0.020878, -0.002407, -0.049775, 0.064231, 0.041133, 0.084795, -0.003531, 
    -0.068433, 0.031558, 0.038674, -0.002717, 0.045934, -0.027557, -0.041919, -0.072512, 
    0.032621, -0.078520, -0.015908, -0.078766, -0.089162, -0.059308, 0.023397, -0.017172, 
    0.045874, -0.085686, -0.068166, -0.033956, -0.110040, 0.050536, -0.072277, -0.064060, 
    0.036080, -0.066022, 0.041369, 0.053091, -0.010853, -0.056362, -0.056864, 0.049728, 
    0.003002, -0.012895, 0.034353, 0.029075, -0.025298, -0.081940, 0.009122, 0.075369, 
    0.017865, -0.014702, -0.082180, -0.097275, -0.041542, 0.042645, -0.007348, 0.062309, 
    0.036002, -0.008229, -0.047485, -0.081168, -0.011731, -0.045512, 0.055817, -0.039366, 
    -0.079845, 0.074324, 0.043055, -0.032630, 0.043947, 0.009092, -0.057072, -0.003179, 
    -0.074618, 0.058402, 0.065270, 0.045596, 0.064601, 0.012096, 0.022230, 0.051703, 
    -0.076744, 0.056998, 0.030414, -0.086792, 0.048825, -0.081244, 0.025601, 0.034514, 
    -0.008095, -0.025790, -0.038573, -0.110553, 0.027964, -0.089050, 0.001258, -0.070880, 
    0.017595, -0.033606, 0.068752, -0.068730, -0.071443, 0.039359, -0.021659, -0.042262, 
    0.010849, -0.041304, 0.054553, 0.095030, 0.071205, 0.060415, -0.003864, 0.090926, 
    0.049328, 0.026830, 0.007570, -0.071686, -0.054596, 0.004673, -0.091338, -0.010281, 
    -0.003276, 0.028113, 0.022287, 0.016121, -0.019116, -0.071071, 0.068883, 0.059304, 
    -0.033019, 0.039716, -0.014369, 0.069539, 0.000567, 0.034451, -0.072893, -0.013220, 
    0.010850, 0.030506, -0.053064, 0.071949, 0.011056, 0.044890, 0.056829, -0.016555, 
    0.024615, 0.050621, 0.027275, -0.025155, 0.005199, 0.069562, 0.021440, -0.062754, 
    -0.098226, 0.053865, 0.028623, 0.013875, -0.024126, -0.051132, 0.055027, 0.014945, 
    0.032166, -0.061692, 0.038622, 0.068527, 0.012635, -0.078629, 0.068874, -0.035206, 
    -0.077029, -0.027591, 0.004480, -0.035751, -0.092465, 0.003154, -0.009936, -0.091221, 
    0.041912, -0.015481, -0.020398, -0.018924, 0.059402, 0.014460, -0.074642, -0.085407, 
    -0.035271, -0.034947, -0.006071, 0.051992, 0.053975, 0.043551, -0.004552, 0.003913, 
    -0.092381, -0.054399, -0.071184, 0.001072, 0.014482, 0.047743, 0.030528, -0.084496, 
    0.035002, 0.050258, -0.018760, -0.064690, -0.029268, -0.056519, 0.079613, 0.015683, 
    0.019274, -0.057862, 0.014394, 0.075097, 0.009826, 0.064404, 0.056209, -0.090962, 
    -0.033459, -0.000900, 0.069561, 0.062244, -0.048114, 0.020321, 0.048317, 0.048434, 
    0.058490, 0.053860, 0.073800, 0.055434, -0.067232, 0.076790, -0.039723, -0.048446, 
    0.015987, -0.070724, -0.002988, -0.007707, 0.035699, -0.024765, -0.032212, 0.021065, 
    -0.089829, -0.090437, -0.073992, 0.065691, -0.025405, -0.103427, -0.029297, 0.049312, 
    0.010194, -0.050397, 0.036376, 0.037179, -0.048414, -0.030842, -0.033311, -0.008351, 
    0.069397, -0.030123, 0.002061, -0.037670, 0.007794, 0.051450, -0.088432, -0.000005, 
    -0.088628, 0.016629, -0.079772, -0.067114, -0.018860, 0.039693, -0.019697, 0.058887, 
    0.038191, 0.015610, -0.059194, -0.064971, -0.016044, -0.036174, -0.063807, 0.036513, 
    -0.014235, -0.045352, 0.043773, -0.001565, 0.028827, 0.037072, -0.035344, -0.063621, 
    0.053611, -0.021348, 0.013005, 0.073027, -0.059774, 0.064581, -0.041670, 0.027743, 
    -0.054509, -0.034944, -0.079330, -0.086359, 0.036695, 0.014153, 0.019192, -0.046853, 
    0.001013, -0.084062, 0.023043, -0.009714, 0.022174, -0.003070, 0.072984, -0.033892, 
    -0.003759, -0.040059, 0.034877, -0.016434, 0.078458, 0.062852, -0.069899, -0.088903, 
    0.019953, 0.047088, 0.068761, 0.037807, -0.039544, 0.027166, -0.033445, 0.025071, 
    -0.077483, -0.013860, -0.072295, 0.066545, 0.040239, 0.056243, -0.048094, -0.007304, 
    0.000080, -0.086418, 0.057002, -0.020283, -0.051062, -0.055654, 0.024905, 0.000454, 
    0.058188, -0.007778, 0.018500, -0.013436, 0.097656, -0.040065, 0.004823, -0.086910, 
    -0.050514, -0.014467, 0.028185, 0.082577, -0.000671, -0.045552, 0.048089, -0.089208, 
    -0.030943, -0.061352, -0.025291, -0.019094, -0.078495, -0.032798, 0.011665, -0.076620, 
    -0.030600, -0.056503, 0.019600, -0.011613, -0.093103, 0.036521, 0.051220, 0.030352, 
    0.069081, -0.065767, -0.047479, 0.061729, 0.011462, -0.062925, -0.048903, 0.039188, 
    -0.020062, -0.059251, -0.004406, -0.009030, -0.058391, 0.082058, -0.101577, -0.084481, 
    0.049659, -0.032046, 0.051605, -0.060627, 0.052931, 0.063028, 0.048031, -0.023430, 
    -0.002189, -0.053634, 0.044444, 0.057028, -0.084665, -0.072915, 0.001121, -0.026657, 
    0.079630, -0.035728, 0.004458, -0.020852, -0.011812, -0.075133, 0.073004, -0.026312, 
    0.055578, -0.057440, 0.034971, -0.074274, -0.038916, 0.042395, -0.037174, -0.062346, 
    -0.086309, 0.020206, -0.012151, -0.011834, 0.028206, -0.015090, -0.065139, 0.087260, 
    -0.047752, -0.089155, -0.045504, -0.012409, -0.084696, -0.085934, -0.001832, -0.016212, 
    -0.066588, -0.023508, -0.033074, 0.004641, 0.032271, 0.067079, -0.040719, -0.012229, 
    -0.072930, -0.029281, -0.092178, -0.024702, -0.073944, 0.070833, -0.018619, 0.071810, 
    0.068445, 0.005518, -0.012581, -0.047490, -0.057612, 0.028198, 0.055448, -0.028909, 
    0.047502, 0.012861, -0.089731, 0.026646, 0.035830, 0.029573, 0.022249, 0.073244, 
    0.051409, 0.041661, 0.019609, -0.044773, 0.000616, 0.058300, -0.035650, -0.065180, 
    -0.064874, -0.024663, -0.041219, 0.019428, 0.053730, 0.031116, -0.006398, 0.060474, 
    0.044795, 0.120563, -0.047110, 0.016992, 0.064057, -0.059269, -0.005572, 0.021957, 
    -0.010136, -0.029825, -0.060022, 0.000208, -0.038244, 0.051567, 0.008849, -0.017275, 
    0.059036, 0.062839, 0.073141, -0.050912, -0.107826, 0.014236, 0.078045, 0.011655, 
    -0.007143, -0.063084, -0.012458, 0.031957, 0.002560, 0.053503, -0.032325, 0.079535, 
    0.060898, 0.083944, 0.026255, -0.000337, -0.008159, -0.011359, -0.065755, 0.093817, 
    0.068167, 0.041058, 0.040560, -0.042084, 0.069310, -0.056225, -0.016000, -0.011949, 
    -0.044729, -0.060738, 0.059548, 0.027358, -0.090733, 0.013525, -0.045296, -0.062557, 
    0.061462, -0.015905, -0.028180, -0.042023, -0.076741, -0.001898, -0.036444, 0.024125, 
    -0.056535, -0.012561, -0.070254, 0.006273, -0.028084, -0.072047, 0.066242, 0.048335, 
    -0.082652, 0.009024, 0.020372, -0.080863, -0.056526, 0.026769, 0.058103, 0.001255, 
    0.095185, -0.083111, 0.016460, -0.040978, 0.022084, -0.024358, -0.083773, 0.015476, 
    -0.031125, -0.042102, -0.056446, 0.008393, 0.074144, -0.089391, 0.062481, 0.012390, 
    -0.046138, 0.032763, -0.000785, -0.003181, 0.018736, 0.001347, -0.090753, -0.013028, 
    0.052903, 0.074333, 0.035841, 0.042347, 0.059296, 0.036461, -0.014987, 0.017320, 
    -0.083336, -0.075674, 0.003505, 0.030309, -0.020487, -0.071502, -0.094512, -0.020509, 
    0.058361, -0.083259, 0.057211, -0.011665, 0.013384, 0.047100, -0.108842, 0.042863, 
    0.065851, -0.045742, 0.013699, 0.008683, -0.067556, 0.064749, -0.014872, 0.065062, 
    0.006385, 0.022607, 0.043825, -0.047048, 0.014933, 0.021605, -0.019297, -0.036008, 
    -0.049587, 0.012979, -0.012097, 0.002384, 0.060127, 0.029818, -0.035794, 0.015959, 
    0.055660, 0.076734, -0.027753, 0.051939, 0.057279, 0.045880, -0.039758, -0.032445, 
    0.026527, -0.044635, 0.050378, -0.088151, -0.051854, -0.040752, 0.029289, -0.081270, 
    0.078571, 0.053032, -0.013072, 0.050897, 0.049633, 0.053923, 0.027309, 0.048006, 
    -0.113811, 0.051018, -0.020989, -0.080143, -0.018073, -0.050064, -0.091690, -0.053061, 
    0.005725, 0.064552, -0.031278, 0.119005, -0.051825, -0.002310, -0.103373, 0.029404, 
    0.052871, -0.042715, 0.035140, -0.013581, 0.043269, 0.050448, -0.069195, 0.045238, 
    -0.028581, 0.029393, 0.048840, -0.017183, 0.043609, 0.010730, -0.056578, 0.045858, 
    0.034229, 0.037428, 0.061926, -0.088447, -0.030491, -0.067043, -0.006705, -0.050843, 
    -0.043809, 0.012491, -0.034036, -0.033802, -0.045592, 0.001927, -0.053255, 0.051796, 
    0.009921, -0.137869, -0.088885, 0.056539, 0.012667, -0.040823, -0.075577, -0.079238, 
    -0.045851, -0.038548, 0.043077, -0.054208, -0.074468, 0.057176, 0.020859, -0.006179, 
    0.007651, -0.015363, -0.010339, -0.003936, -0.034587, -0.079399, 0.005751, 0.035158, 
    0.036600, 0.002377, 0.052193, 0.048216, 0.023989, 0.018841, -0.031379, -0.051946, 
    -0.080261, -0.022674, -0.071750, -0.091019, 0.004223, 0.032306, -0.081908, -0.091096, 
    -0.031708, -0.088654, -0.048544, -0.066470, 0.036231, 0.067794, -0.025620, -0.075745, 
    0.070184, -0.006053, 0.064286, 0.015633, 0.012678, -0.078599, -0.087756, 0.071805, 
    0.078434, 0.047081, -0.045967, 0.058103, -0.053787, 0.022404, -0.132966, -0.008441, 
    0.050833, -0.087666, -0.004147, -0.114186, -0.056466, -0.092982, 0.008772, 0.061010, 
    -0.012031, 0.050095, 0.026576, 0.049437, 0.001022, 0.029411, 0.055054, -0.095374, 
    -0.029993, 0.064389, -0.096577, -0.024719, 0.068330, 0.006652, 0.049648, -0.009280, 
    -0.005713, -0.035619, -0.009505, 0.077268, -0.035215, 0.019349, -0.066018, -0.030977, 
    0.039320, -0.147964, -0.017979, 0.030614, 0.034663, -0.092366, -0.079528, 0.005210, 
    -0.004678, 0.034447, -0.022823, -0.046397, 0.050354, 0.086722, 0.004759, 0.025962, 
    -0.055519, 0.021993, 0.046973, -0.107779, 0.054845, -0.027939, 0.082466, 0.000079, 
    -0.068143, -0.007450, 0.036069, 0.030850, -0.005032, 0.021778, -0.010007, -0.103870, 
    -0.031581, -0.113344, -0.071172, -0.070914, -0.058941, 0.072032, 0.052034, -0.089048, 
    0.064863, -0.084320, -0.068144, 0.026299, 0.028747, 0.054291, -0.078407, -0.077670, 
    -0.033841, -0.008902, -0.003148, -0.112284, -0.055485, -0.051672, -0.082702, -0.014902, 
    0.035891, 0.010325, -0.014950, -0.049266, 0.014963, -0.018901, -0.109422, -0.104988, 
    -0.028373, -0.018300, -0.033451, -0.088462, -0.085128, 0.062360, 0.024350, 0.053467, 
    -0.013273, -0.018139, -0.015496, 0.080355, -0.029043, 0.107805, -0.025108, -0.079455, 
    0.007213, 0.071601, -0.002510, 0.028177, -0.000234, 0.045930, -0.033400, 0.004258, 
    0.031646, 0.036703, -0.075534, -0.065425, -0.088596, -0.036730, -0.080510, 0.017404, 
    0.006781, -0.086113, 0.032253, 0.015429, -0.057309, -0.046469, 0.004249, 0.021954, 
    -0.067093, 0.035281, -0.016368, -0.073183, 0.037874, 0.059339, -0.067956, 0.062350, 
    0.031159, -0.004199, -0.028430, -0.046691, 0.022687, -0.019950, 0.006546, 0.054932, 
    0.019101, 0.009671, -0.033451, -0.096082, 0.063035, 0.020738, 0.009419, 0.063589, 
    0.025762, -0.037725, 0.029638, 0.044250, -0.073652, 0.063591, 0.016581, -0.058657, 
    -0.066780, -0.065791, -0.080546, 0.078287, -0.084166, -0.033139, 0.035865, -0.050057, 
    0.033726, -0.065125, -0.022438, -0.101476, -0.007127, -0.027817, -0.080158, -0.061534, 
    -0.032801, 0.058217, -0.096467, -0.087594, -0.004828, 0.005668, 0.046358, 0.029388, 
    0.069909, -0.021781, -0.015940, 0.024590, -0.009899, -0.031378, 0.005284, -0.075892, 
    0.011088, 0.054058, 0.012141, -0.007654, 0.014740, 0.048158, 0.041126, -0.056255, 
    0.010851, 0.035185, -0.080962, 0.069781, -0.092658, 0.046697, 0.026179, 0.046692, 
    -0.065883, -0.104279, -0.058805, -0.099790, 0.020021, -0.052118, 0.040246, 0.010456, 
    -0.012930, 0.013292, -0.033765, -0.045608, -0.035903, 0.037802, 0.011898, -0.078907, 
    0.004688, -0.035320, 0.056799, -0.000320, -0.007985, -0.021377, -0.089884, -0.011612, 
    0.021808, -0.068130, -0.041771, 0.013649, -0.071308, 0.051784, 0.074947, -0.077872, 
    0.015386, -0.040892, -0.009177, 0.027705, -0.003086, 0.046686, 0.019038, 0.046965, 
    -0.092507, -0.014168, -0.033848, -0.098410, 0.019878, -0.030793, -0.049972, 0.036317, 
    0.056522, 0.008064, -0.054893, -0.087431, 0.007660, 0.006554, 0.004708, 0.014784, 
    -0.026602, 0.018558, -0.057230, -0.022597, 0.059497, 0.033146, -0.052731, 0.041340, 
    0.077797, 0.057404, -0.069152, -0.077350, 0.065655, 0.013203, 0.089357, 0.006357, 
    0.070666, 0.101323, 0.072267, -0.044616, -0.008733, -0.050918, 0.060703, -0.036448, 
    0.022568, 0.028774, 0.044563, 0.101056, -0.048082, 0.011306, -0.040942, -0.028397, 
    -0.039378, -0.069080, 0.011709, 0.027046, -0.040602, 0.030888, -0.063011, -0.072610, 
    -0.102986, -0.041024, -0.035449, 0.087144, -0.053866, -0.078822, -0.058807, 0.040420, 
    0.009218, -0.039709, 0.058841, 0.071729, 0.003751, 0.063932, -0.040575, -0.044645, 
    -0.081757, -0.083396, -0.066064, 0.053581, -0.032304, 0.048382, -0.034945, 0.029399, 
    -0.093345, -0.086443, -0.037069, -0.040996, -0.061465, -0.038795, -0.001579, 0.046871, 
    -0.072805, -0.066706, -0.044633, 0.089042, -0.085361, 0.051144, -0.051310, -0.035281, 
    -0.040207, 0.006675, -0.031170, 0.004814, 0.039947, -0.059694, 0.011711, -0.012021, 
    0.023128, 0.020920, -0.083196, -0.006745, 0.034476, 0.067583, -0.013120, -0.093546, 
    -0.059345, 0.031714, -0.007386, 0.050747, 0.040702, -0.069866, 0.069881, -0.079867, 
    0.049029, 0.049743, -0.018963, 0.075725, -0.014209, 0.046685, -0.092389, 0.040271, 
    -0.043181, -0.042524, 0.036818, -0.006533, 0.061288, 0.068292, 0.034380, 0.012463, 
    0.035005, 0.067640, 0.060938, -0.074716, -0.041923, 0.025546, 0.023191, 0.059965, 
    0.041941, -0.005625, -0.049389, -0.011947, 0.014618, 0.031408, -0.012001, -0.063754, 
    -0.049568, -0.019916, 0.060832, 0.030475, -0.005916, -0.045422, -0.164063, 0.001662, 
    0.028128, 0.018644, -0.082192, 0.035003, 0.046255, -0.016926, -0.013537, -0.043479, 
    0.014766, 0.028803, 0.029707, -0.060578, -0.087515, -0.066042, -0.045812, -0.074694, 
    0.003789, 0.003142, 0.013739, -0.036578, -0.016553, -0.010314, -0.020122, 0.000523, 
    -0.006380, 0.027250, 0.045194, 0.007665, 0.028384, -0.088247, -0.133388, 0.063746, 
    -0.049444, -0.045778, 0.021083, 0.047781, -0.079620, 0.019793, -0.067826, -0.024838, 
    0.009102, -0.081361, 0.068980, -0.010235, 0.017947, 0.061347, 0.053518, 0.003328, 
    -0.044000, -0.052125, 0.051636, -0.083849, 0.027496, -0.076913, -0.028573, -0.073973, 
    -0.043198, -0.061547, 0.000049, 0.019478, -0.068825, -0.096549, -0.135415, -0.056597, 
    0.050956, 0.093929, 0.065488, -0.034854, -0.019622, 0.019858, -0.032686, -0.015901, 
    -0.080761, 0.037110, 0.039659, 0.036551, 0.029127, 0.078841, -0.055735, 0.010476, 
    0.031876, -0.070758, -0.017677, -0.030811, -0.078632, 0.017641, -0.086821, -0.068156, 
    -0.072620, -0.005577, -0.038235, 0.042247, -0.021539, 0.040616, -0.084089, -0.055822, 
    0.068059, 0.000407, -0.084725, 0.082963, -0.070580, -0.078437, -0.029618, -0.054502, 
    -0.006626, -0.043509, -0.036917, 0.026681, -0.039279, 0.079416, -0.042573, -0.076192, 
    0.011257, -0.048350, -0.067419, -0.030132, 0.094683, -0.092130, -0.053482, -0.057895, 
    -0.016093, 0.109723, -0.041233, 0.030959, 0.073001, 0.034830, 0.044104, 0.064313, 
    -0.033354, -0.007788, 0.065181, -0.029437, 0.022956, -0.063734, -0.101953, 0.009925, 
    0.041999, 0.007344, 0.058239, 0.064581, -0.071379, 0.048415, 0.059691, 0.041123, 
    0.017549, -0.040734, -0.081716, -0.078952, -0.013807, -0.035416, 0.007245, -0.015140, 
    -0.000899, 0.113044, -0.083217, -0.017912, 0.067105, -0.054691, -0.091804, 0.006209, 
    -0.026569, 0.001715, 0.023615, 0.089140, -0.051512, 0.034996, -0.031076, 0.034603, 
    -0.088103, -0.045372, -0.029170, 0.028511, 0.007302, 0.034765, -0.089624, 0.028301, 
    -0.070278, -0.082283, 0.003726, -0.072764, -0.031560, 0.020702, 0.045117, -0.023211, 
    -0.001471, 0.049043, -0.069946, -0.077977, -0.061637, -0.009292, 0.001679, 0.047473, 
    0.026560, -0.056620, 0.047125, 0.057690, -0.070024, -0.070515, -0.053842, 0.015496, 
    0.043895, -0.015082, -0.087743, -0.008160, -0.003489, 0.080647, 0.062161, -0.002401, 
    -0.058188, 0.040991, -0.046782, 0.016453, -0.015588, -0.049265, 0.034303, 0.014744, 
    -0.073849, -0.021140, -0.001397, -0.035473, -0.015189, 0.055223, -0.017302, 0.033954, 
    -0.047505, -0.057326, -0.028215, 0.043433, 0.057094, -0.052915, 0.033877, -0.000012, 
    -0.009876, 0.072359, -0.086908, -0.031186, -0.062566, 0.062232, 0.006260, 0.048103, 
    -0.080991, 0.029403, -0.088879, 0.058098, 0.024433, -0.081832, -0.067001, -0.025742, 
    0.052808, 0.117144, 0.000337, -0.045409, 0.032279, -0.018337, 0.030338, -0.069530, 
    0.004247, -0.055542, -0.081571, -0.007757, 0.021760, 0.014281, -0.047142, 0.026640, 
    0.024045, 0.052257, -0.059851, -0.031814, 0.008959, 0.018607, 0.031264, -0.045537, 
    0.013915, 0.031645, 0.033092, 0.026703, -0.054942, -0.071328, -0.038072, -0.035293, 
    -0.022630, 0.017212, -0.050577, 0.049857, -0.081982, -0.038428, 0.048350, 0.076373, 
    0.000432, 0.110149, 0.030743, -0.093728, -0.083978, -0.034550, -0.104522, 0.016231, 
    0.000235, -0.016265, -0.091031, -0.094642, -0.033404, -0.005309, -0.081056, -0.058830, 
    -0.108348, 0.070212, 0.000900, 0.014296, -0.075882, -0.081760, -0.039636, -0.055252, 
    0.001461, -0.065553, 0.035005, -0.075502, -0.047137, -0.026189, 0.076161, -0.032000, 
    0.042632, 0.091923, 0.044251, -0.074148, 0.047217, 0.065923, -0.103867, -0.001742, 
    -0.012550, 0.067680, -0.060811, -0.027454, -0.076251, 0.014466, -0.056564, -0.031358, 
    -0.053146, -0.009338, -0.096419, -0.053534, -0.075027, 0.050827, -0.026884, -0.083896, 
    0.076654, -0.018198, -0.027435, -0.087334, 0.023532, -0.077106, -0.000111, -0.021841, 
    -0.032159, 0.043108, 0.002209, 0.048110, -0.019724, -0.024842, -0.012765, -0.079054, 
    0.038750, 0.085880, 0.063957, 0.019038, -0.034932, -0.060026, -0.046775, -0.041798, 
};
