float weights_layer_4_biases[] = {

    -0.040256, 0.100667, 0.098772, 0.165373, -0.103365, -0.037311, -0.129146, 0.239889, 
    0.294528, 0.031078, 0.398733, -0.089835, -0.190246, 0.298641, -0.177153, -0.016047, 
    0.134934, 0.263387, -0.047421, -0.025119, -0.144885, 0.308741, -0.156995, 0.403898, 
    -0.018477, -0.098426, -0.248775, -0.136236, -0.068529, -0.193569, -0.000969, -0.023407, 
    0.107296, -0.228963, -0.060491, -0.027824, -0.035284, 0.075261, -0.294846, -0.241960, 
    0.371492, -0.070811, 0.071882, 0.009846, -0.063343, 0.036001, 0.106598, 0.469433, 
    0.543332, 0.019922, -0.012194, 0.190372, 0.186244, 0.367795, 0.257744, -0.168194, 
    0.021088, 0.004763, 0.165706, 0.149074, 0.318389, 0.529178, -0.080622, -0.012087, 
    -0.025126, -0.004734, 0.382292, 0.352446, 0.328040, -0.032873, 0.402426, -0.285942, 
    0.177668, -0.227295, -0.239417, -0.067972, -0.005171, 0.184567, 0.052809, -0.168884, 
    0.231971, -0.050886, -0.029162, 0.062997, -0.039522, 0.024450, 0.200671, 0.031022, 
    0.260694, -0.285555, 0.214290, 0.230004, 0.340945, 0.166458, -0.144260, -0.013699, 
    -0.293219, -0.182870, -0.080095, 0.021758, -0.027935, -0.080663, -0.133786, -0.239826, 
    -0.142623, 0.053121, 0.212373, 0.342745, -0.130403, -0.122749, -0.184351, -0.056904, 
    0.107675, -0.009977, 0.334049, 0.156449, -0.100233, 0.119843, -0.158480, -0.024671, 
    0.081240, 0.149443, 0.329139, -0.030363, -0.142273, 0.014077, 0.165943, -0.019471, 
};
