float weights_layer_5_biases[] = {

    -0.021059, 0.252550, -0.009569, 0.125407, 0.198972, -0.024516, 0.071366, 0.063150, 
    -0.013029, 0.010424, -0.009673, -0.061370, 0.293802, 0.141303, -0.006827, -0.020776, 
    -0.009830, 0.237947, -0.013060, 0.172002, 0.085892, -0.011099, -0.046300, 0.123338, 
    0.009677, -0.012258, -0.074386, -0.012388, -0.006160, 0.141692, -0.001274, -0.013737, 
    -0.027281, 0.050853, 0.020734, -0.019738, -0.021409, -0.003174, -0.013268, -0.012644, 
    -0.011489, -0.009754, -0.029534, -0.023392, -0.009488, 0.030969, -0.011516, 0.075244, 
    0.362460, -0.016892, 0.019737, 0.027310, -0.040225, -0.006845, -0.014656, -0.009894, 
    -0.007589, -0.022240, -0.016470, -0.033005, -0.036329, -0.006689, -0.028204, -0.026900, 
    -0.008913, -0.070695, -0.009208, 0.040820, -0.003960, 0.177896, 0.096629, 0.139606, 
    -0.021538, -0.010002, 0.024372, -0.009302, -0.014860, -0.024780, 0.070121, -0.009028, 
    -0.014959, 0.237881, -0.059298, -0.018415, -0.003321, -0.007090, 0.381035, -0.008936, 
    -0.005448, -0.018754, 0.027663, -0.014793, 0.021024, 0.120431, -0.041417, -0.045726, 
    0.005439, 0.071247, -0.050808, 0.094098, -0.035411, -0.016196, -0.017049, -0.024529, 
    -0.009883, 0.132589, -0.021303, -0.028392, -0.010596, -0.011837, 0.100863, -0.009439, 
    -0.017540, 0.148778, -0.059396, 0.112467, -0.059755, -0.027123, -0.049808, -0.009951, 
    0.013777, -0.035748, -0.006669, -0.017754, -0.028243, 0.125307, -0.016061, -0.024937, 
    0.120089, 0.130500, -0.012253, -0.013128, -0.014180, -0.009308, -0.008875, 0.154614, 
    -0.033754, -0.090130, -0.023696, -0.013972, 0.225448, 0.156580, -0.018455, -0.021593, 
    -0.042627, 0.005940, -0.009212, -0.009348, -0.012286, 0.122590, 0.075422, -0.021281, 
    -0.069703, -0.010415, 0.167679, 0.139990, 0.084406, -0.009895, -0.011917, -0.142834, 
    0.146776, -0.009689, 0.187634, 0.036479, -0.009242, -0.013931, -0.093203, -0.027004, 
    -0.028413, -0.015509, -0.043941, -0.026230, -0.069141, -0.011680, -0.010392, 0.426169, 
    -0.010978, 0.018798, -0.052782, -0.009043, 0.168809, -0.032917, -0.034135, 0.104296, 
    0.060378, -0.010479, -0.008085, 0.216424, -0.009832, -0.042329, -0.148321, 0.034739, 
    0.299148, -0.008060, -0.018287, 0.006795, 0.047686, -0.022972, -0.006893, -0.011539, 
    -0.016140, -0.106891, -0.019492, 0.071712, -0.014281, 0.013190, 0.071925, -0.023001, 
    -0.027863, -0.019193, -0.006317, 0.024426, -0.008771, -0.010241, -0.031786, 0.070690, 
    -0.012264, 0.108497, -0.024854, 0.101723, 0.084635, -0.019212, -0.026699, 0.013319, 
    0.075090, -0.013826, 0.135141, 0.155261, -0.017379, -0.042333, -0.010116, -0.064810, 
    -0.018981, -0.008675, 0.054683, -0.015819, -0.016490, 0.035725, -0.005893, 0.228816, 
    -0.012888, 0.105483, -0.022064, 0.177737, 0.213331, -0.012410, 0.197441, -0.023516, 
    -0.132339, -0.056488, -0.014652, -0.007421, -0.035481, -0.042271, -0.029961, -0.048765, 
};
