float weights_layer_11_weights[] = {

    -0.004843, 0.013209, -0.087826, -0.047880, 0.033948, -0.097522, -0.065817, 0.022866, 
    -0.056165, -0.140983, 0.048226, -0.089190, 0.019369, -0.031052, -0.165512, -0.020925, 
    0.005473, -0.144427, -0.041524, 0.014221, -0.161816, -0.004609, -0.020845, 0.006008, 
    0.032370, -0.010983, -0.000135, 0.125853, -0.148981, 0.055588, -0.029978, 0.030353, 
    -0.142413, 0.074264, -0.160530, -0.047566, -0.056934, -0.038931, -0.013122, 0.078221, 
    -0.053216, 0.012105, -0.063580, -0.000523, -0.074383, -0.013156, -0.031345, 0.050273, 
    -0.080014, 0.016672, 0.051243, 0.074993, 0.023741, 0.080001, -0.029550, -0.067791, 
    -0.001828, -0.024193, 0.089910, 0.030065, 0.019580, -0.002070, 0.050622, 0.017128, 
    -0.037356, 0.024640, 0.013354, -0.020952, -0.016544, -0.099309, 0.082609, 0.067318, 
    -0.082365, -0.054855, 0.050554, -0.043169, 0.009139, -0.092054, -0.020029, 0.064586, 
    -0.053865, 0.044692, -0.059717, -0.006401, -0.043793, -0.002980, 0.029241, -0.038807, 
    0.039918, 0.017269, 0.059978, 0.047693, -0.126000, 0.014253, -0.015684, -0.004541, 
    0.017323, -0.075562, 0.088851, -0.071586, 0.108272, 0.063190, 0.106800, 0.093967, 
    -0.097881, 0.086317, -0.151987, 0.094537, 0.109282, 0.118237, -0.120927, -0.000982, 
    0.122824, -0.095855, -0.026906, -0.065981, -0.047178, -0.002833, 0.157376, -0.110804, 
    0.029630, 0.011701, 0.020127, -0.070741, -0.049850, 0.045606, -0.027145, -0.097891, 
    0.003970, -0.089800, 0.028926, 0.096158, 0.085879, -0.030161, -0.037635, 0.011508, 
    -0.051152, -0.022284, 0.046249, 0.023042, 0.086874, 0.103611, 0.104396, -0.187388, 
    0.061305, -0.015379, -0.060140, -0.107808, -0.065413, 0.002754, -0.067303, -0.120838, 
    0.024314, -0.101630, -0.113915, -0.045233, -0.010412, -0.053236, -0.099408, 0.001946, 
    -0.157065, 0.095343, 0.140548, -0.060212, 0.087827, -0.016578, 0.018508, -0.142962, 
    -0.128445, 0.110091, 0.112051, 0.092658, -0.056231, 0.036320, 0.051895, 0.114142, 
    0.046377, 0.019174, -0.079264, 0.048751, 0.096305, 0.104089, 0.092690, 0.019494, 
    -0.131755, 0.047514, -0.022018, 0.086712, 0.099093, -0.094248, -0.091080, -0.025783, 
    -0.026163, -0.083307, -0.032286, 0.032283, -0.103983, -0.062949, 0.032654, -0.116158, 
    0.010975, -0.025864, -0.109364, 0.070877, 0.094190, 0.050336, -0.125836, 0.098583, 
    -0.006701, 0.099979, -0.006680, 0.007593, -0.121027, 0.097206, 0.126769, -0.022376, 
    -0.062044, -0.104434, 0.042259, -0.055584, 0.038341, 0.136035, 0.075397, 0.088109, 
    -0.028470, -0.087236, -0.012234, -0.081992, -0.100133, 0.101107, -0.057842, -0.081638, 
    -0.022314, 0.006644, -0.159986, 0.108479, -0.059510, 0.037543, 0.103163, -0.016479, 
    0.111198, -0.100188, -0.068409, -0.068003, 0.016233, 0.057166, -0.056886, 0.050232, 
    0.020966, 0.023291, 0.003531, 0.125422, -0.101084, -0.049073, 0.005071, -0.005785, 
    0.052139, 0.027862, -0.130249, -0.034311, 0.062535, 0.014057, -0.091699, 0.083168, 
    0.024683, -0.029934, 0.057839, -0.169211, -0.139026, 0.058556, -0.085978, 0.075432, 
    -0.096663, -0.121805, -0.143648, -0.067481, 0.013756, -0.077176, -0.055293, 0.100415, 
    -0.089883, -0.005084, 0.085985, 0.071041, 0.041755, -0.209722, -0.052822, 0.134350, 
    0.112801, 0.097692, -0.142181, 0.085637, 0.089996, 0.092250, 0.001089, -0.070344, 
    -0.035401, -0.082494, -0.011489, -0.187150, -0.034759, 0.127317, 0.022534, 0.074224, 
    -0.050535, 0.039580, -0.058376, -0.197489, 0.007039, 0.113655, -0.076931, -0.122719, 
    -0.027292, 0.039495, 0.064607, 0.074481, 0.113606, -0.020339, -0.084477, -0.030346, 
    -0.072104, 0.003825, -0.072073, -0.011338, -0.004955, -0.034377, -0.027721, 0.049198, 
    -0.119979, 0.005840, -0.027924, 0.050130, 0.068033, -0.052170, 0.024611, -0.139257, 
    0.072817, -0.020566, -0.057204, -0.016244, 0.096619, -0.049994, -0.188687, -0.184502, 
    -0.121232, 0.084197, 0.062463, -0.056680, -0.079211, -0.024840, 0.077278, -0.092835, 
    0.090193, 0.083602, -0.101102, 0.111633, -0.000519, -0.002283, -0.016169, 0.005811, 
    -0.096742, -0.084451, -0.091121, 0.120323, -0.042330, 0.081639, -0.003264, 0.045194, 
    -0.052254, 0.076317, 0.067295, 0.101710, -0.001506, -0.016548, 0.069002, 0.027172, 
    -0.079739, -0.043040, -0.088298, 0.046785, -0.076804, -0.081540, 0.048046, -0.092367, 
    -0.101895, -0.041090, -0.094020, -0.035038, -0.045612, -0.018324, 0.080116, 0.076895, 
    0.026731, 0.003032, 0.022149, 0.095969, 0.036409, -0.086657, -0.094128, 0.030019, 
    -0.017130, 0.095217, 0.076766, -0.079499, -0.029330, -0.036733, -0.022793, -0.075429, 
    -0.035859, 0.000398, -0.064195, -0.080746, -0.072138, 0.092630, 0.008765, 0.028930, 
    0.073485, 0.028889, 0.020119, 0.137177, -0.019961, -0.005153, 0.088773, 0.110112, 
    -0.065260, 0.058681, -0.105323, -0.103786, 0.001742, -0.105892, 0.038521, 0.073545, 
    -0.065363, 0.128708, 0.016489, 0.093130, 0.144354, -0.038761, -0.040132, 0.017788, 
    0.025017, -0.069759, 0.044490, 0.018253, -0.060102, 0.007652, 0.110520, -0.039862, 
    -0.046336, 0.089278, -0.078842, 0.064787, -0.028228, -0.031501, 0.055388, -0.110171, 
    0.030331, 0.036947, -0.092009, -0.076545, -0.127014, -0.082221, 0.109765, -0.011133, 
    0.050155, 0.121866, 0.030249, -0.104800, -0.098903, 0.017330, -0.092735, -0.038322, 
    0.008433, -0.121930, 0.025665, 0.067810, -0.057063, 0.040416, -0.092760, -0.049702, 
    0.065147, -0.024661, -0.012477, 0.054553, 0.053462, -0.036432, -0.056954, 0.074705, 
    -0.070502, 0.057184, 0.046508, -0.093546, -0.051394, 0.075964, -0.051185, 0.059356, 
    -0.003470, 0.091706, -0.086888, -0.077853, 0.013256, 0.025670, -0.059495, -0.042685, 
    0.042583, 0.017774, 0.050087, 0.018048, 0.008896, 0.039387, 0.058627, -0.082852, 
    -0.094008, -0.063953, 0.034619, -0.033324, 0.064629, -0.088848, -0.026594, 0.039961, 
    0.090098, 0.008770, -0.048609, 0.015987, -0.083819, 0.079223, -0.053656, 0.088868, 
    0.032789, 0.078618, -0.037657, -0.017353, 0.022004, 0.107969, -0.104669, -0.007883, 
    0.052754, 0.010446, -0.034937, -0.024252, -0.063642, -0.097314, -0.100715, -0.106065, 
    -0.024759, 0.031877, -0.008854, 0.009766, -0.038909, -0.045116, -0.039625, -0.017093, 
    -0.080201, -0.059753, 0.050448, 0.006575, 0.005444, 0.047695, 0.029624, -0.064040, 
    0.015694, 0.028489, 0.092189, 0.030443, 0.002102, -0.056623, 0.013327, -0.020294, 
    0.120242, 0.067648, 0.057287, -0.030566, 0.033998, -0.083143, 0.052734, 0.012186, 
    0.011880, -0.032584, -0.060638, -0.108087, -0.070954, 0.057298, 0.071408, -0.144688, 
    -0.009443, 0.039398, -0.078958, -0.025977, -0.086077, -0.087515, -0.080233, 0.033960, 
    0.022231, 0.045552, 0.071856, 0.020774, 0.029670, 0.023846, -0.009682, 0.019619, 
    0.069697, -0.071456, -0.029765, 0.087828, -0.028225, 0.058373, 0.054828, -0.078372, 
    -0.130667, -0.017855, -0.076722, 0.010548, -0.090808, -0.035213, 0.039917, 0.015321, 
    0.063328, 0.069881, 0.036119, -0.008238, 0.106969, -0.063563, -0.014652, -0.069113, 
    0.018223, 0.051478, 0.087290, -0.128223, -0.024432, -0.021296, 0.021042, 0.067063, 
    -0.044471, 0.071803, -0.042273, 0.046838, 0.103105, 0.048187, 0.016608, -0.104663, 
    -0.025288, 0.091005, -0.068584, -0.052911, 0.059504, -0.042176, 0.042981, -0.013572, 
    -0.127616, -0.096560, -0.009881, -0.025370, 0.032132, 0.056373, -0.089496, -0.074080, 
    -0.096993, -0.065963, 0.004202, -0.077898, -0.170951, 0.037729, 0.008103, -0.096524, 
    -0.047655, -0.127067, 0.015855, -0.024550, -0.092098, 0.123466, 0.035013, 0.104633, 
    -0.048608, -0.039626, -0.047453, -0.066013, -0.000273, -0.057963, -0.182875, -0.243134, 
    -0.213560, -0.192674, -0.071356, -0.101634, -0.141106, -0.283311, -0.251800, -0.410668, 
    0.005781, -0.002622, -0.044329, -0.025676, -0.126935, -0.004399, 0.186206, 0.123524, 
    0.058750, -0.130401, 0.015035, -0.119934, 0.151456, 0.065958, 0.055366, -0.016494, 
    -0.051529, -0.115234, 0.100450, -0.063793, -0.058206, 0.009715, -0.171260, -0.087874, 
    -0.024690, -0.092080, 0.113102, -0.007465, -0.070817, 0.083345, 0.035763, 0.068077, 
    0.121995, -0.037020, -0.201058, -0.038445, -0.031064, -0.007321, 0.115042, -0.130372, 
    -0.059941, -0.025497, 0.007665, 0.062112, -0.142831, 0.043817, 0.094202, -0.017710, 
    0.001274, -0.194817, -0.167947, -0.027789, -0.031209, -0.126317, 0.088170, -0.091733, 
    -0.028436, -0.168010, -0.086535, -0.136553, -0.123107, -0.012094, 0.033323, 0.059094, 
    0.084912, -0.024751, 0.040749, 0.079712, -0.188368, -0.041341, 0.113987, 0.033303, 
    0.025054, -0.071738, 0.053956, -0.045067, -0.083377, -0.099067, -0.024275, -0.033494, 
    -0.093481, -0.035008, -0.121659, -0.142264, -0.115607, -0.071822, 0.115072, 0.047507, 
    -0.022920, -0.113855, 0.062089, -0.024312, 0.004701, 0.079679, 0.094345, 0.021226, 
    0.023622, 0.138196, 0.000535, 0.013776, 0.064390, -0.067223, 0.039573, -0.014655, 
    0.075169, 0.005522, 0.088433, 0.004425, 0.011528, 0.108193, -0.095306, 0.028364, 
    0.050721, 0.113619, 0.110218, 0.095017, 0.072794, 0.020402, -0.009909, -0.072971, 
    -0.070388, 0.073952, -0.055932, 0.017395, 0.092925, -0.047332, 0.102534, -0.075582, 
    0.002172, -0.032125, 0.036611, -0.045343, -0.015446, 0.071149, -0.028353, 0.091315, 
    -0.123729, -0.047453, 0.048125, -0.035837, -0.135994, 0.089012, -0.082565, 0.038782, 
    -0.038798, -0.008906, -0.073639, 0.034401, -0.226157, 0.012061, -0.095223, -0.128308, 
    0.063080, -0.013380, -0.033559, 0.007007, -0.135844, -0.104146, 0.090683, -0.040027, 
    0.040712, 0.024603, -0.050619, -0.015754, 0.084491, 0.003743, -0.097851, 0.044285, 
    -0.091942, 0.040395, -0.061052, 0.110618, 0.116968, 0.079497, 0.004887, 0.046381, 
    -0.063680, 0.087193, -0.028126, 0.029912, 0.075881, -0.070212, 0.015604, -0.022027, 
    -0.053924, 0.010828, -0.108814, -0.083245, 0.077596, 0.023888, -0.055342, 0.006362, 
    -0.082082, 0.018220, -0.136830, 0.010835, -0.129002, -0.026617, -0.139542, -0.006104, 
    0.052386, 0.099822, -0.019940, 0.009772, -0.041364, -0.087551, -0.058793, 0.058474, 
    -0.181524, 0.045145, -0.106872, -0.082006, 0.082122, -0.058234, -0.062081, -0.088700, 
    -0.115946, -0.107985, 0.075784, -0.171788, 0.074253, 0.001594, 0.059867, -0.019803, 
    -0.106853, 0.081885, -0.043433, -0.045811, -0.026994, -0.187675, -0.133868, 0.071100, 
    -0.158788, -0.049994, 0.084965, -0.088994, -0.114547, -0.157494, -0.062211, -0.095852, 
    -0.252876, -0.224592, -0.044294, -0.064035, -0.032582, -0.057781, -0.110485, 0.007942, 
    0.000217, -0.069317, -0.075293, -0.057549, -0.019963, 0.081782, 0.102266, -0.063665, 
    -0.110074, -0.057944, -0.048392, -0.067750, -0.004881, 0.000132, -0.037377, -0.024582, 
    0.034714, -0.067430, -0.030529, 0.082172, -0.101663, 0.018357, 0.097504, -0.060655, 
    0.028416, -0.017725, -0.052791, -0.083860, 0.065611, -0.056238, 0.006283, 0.060548, 
    0.076104, -0.093178, -0.059954, -0.008267, 0.060150, 0.056436, 0.078011, -0.049416, 
    -0.081354, 0.081364, 0.089788, -0.067797, -0.103479, -0.081366, 0.032996, -0.012501, 
    -0.052467, -0.004674, 0.040977, 0.073355, 0.109429, -0.064935, -0.087554, -0.001107, 
    -0.109913, 0.018666, 0.063975, -0.193204, -0.069339, -0.184306, -0.089098, 0.074888, 
    0.101505, 0.081076, -0.085144, 0.031630, 0.043518, -0.143962, 0.001310, 0.068138, 
    0.040897, 0.017721, 0.079633, -0.004494, 0.022973, -0.006229, -0.001683, 0.063395, 
    0.093337, -0.033336, -0.036672, 0.110458, 0.009638, -0.126643, 0.030330, -0.106404, 
    0.052302, -0.088546, -0.068747, -0.035259, 0.001364, -0.094282, -0.161546, 0.033400, 
    -0.026786, -0.053260, -0.013389, 0.108284, -0.099842, -0.022393, -0.112431, 0.002073, 
    -0.126239, -0.003191, -0.094278, 0.014954, 0.043132, 0.114218, 0.007373, 0.024645, 
    -0.109610, -0.076783, -0.018627, -0.067778, -0.013785, 0.040158, -0.052386, -0.074813, 
    -0.112948, -0.130266, -0.045619, -0.093493, 0.095440, 0.070789, -0.010987, -0.035170, 
    0.158571, 0.035783, 0.085400, 0.007720, -0.060830, -0.015474, 0.063542, 0.070953, 
    -0.027875, -0.036142, -0.065518, -0.055240, 0.095240, -0.048150, -0.079554, 0.044100, 
    0.103332, 0.059466, 0.053032, 0.056586, -0.020224, 0.102264, 0.057175, 0.073922, 
    -0.030212, -0.059664, 0.100334, 0.034366, -0.081159, -0.084557, 0.011682, 0.083155, 
    -0.103113, 0.045485, 0.073732, -0.042059, 0.024176, -0.066378, -0.002504, 0.084190, 
    0.084859, -0.061073, 0.016000, -0.060191, 0.090776, -0.104343, -0.066815, 0.052853, 
    -0.006873, -0.020795, -0.077216, 0.049480, -0.096850, -0.106471, 0.028949, 0.105691, 
    -0.089627, -0.073758, -0.050856, 0.021959, 0.032838, -0.072994, 0.023107, 0.074682, 
    -0.049426, -0.092058, 0.048143, 0.092388, -0.021471, -0.001982, -0.017795, 0.048498, 
    0.062921, -0.030579, -0.131393, 0.059400, -0.004553, 0.096150, 0.078344, 0.043587, 
    -0.093849, -0.111970, 0.111450, 0.042226, -0.101503, 0.045628, -0.098303, 0.049717, 
    -0.007513, 0.063571, -0.003207, 0.036258, 0.099307, -0.080322, -0.109366, -0.018634, 
    -0.023733, -0.017490, 0.024329, -0.006645, -0.023184, 0.006152, -0.013590, -0.115164, 
    -0.119043, -0.030836, 0.048036, 0.102940, -0.124650, 0.057588, -0.050788, 0.075875, 
    0.052006, -0.073384, 0.041276, 0.049999, -0.066934, -0.027847, 0.073625, -0.072725, 
    -0.017956, 0.034113, -0.143070, 0.036596, -0.053810, -0.101568, -0.088109, -0.092231, 
    -0.066210, -0.059144, 0.076355, -0.008888, 0.074714, 0.067531, 0.123528, 0.069818, 
    0.039992, 0.094562, 0.017330, 0.092396, -0.068267, -0.042704, 0.048762, 0.017390, 
    0.052498, 0.070193, -0.104406, 0.090330, 0.073370, -0.075558, -0.032861, 0.006686, 
    -0.020831, 0.040450, -0.050669, -0.034599, 0.082737, -0.049273, -0.109140, 0.002369, 
    -0.049546, -0.003786, -0.069129, -0.096043, -0.019240, -0.104459, 0.059147, -0.060816, 
    -0.055152, 0.006003, 0.114584, -0.046796, -0.017833, 0.060789, 0.053673, 0.000788, 
    -0.043618, 0.063830, -0.064685, 0.104243, 0.064635, 0.022607, -0.143433, -0.027511, 
    0.035533, -0.022150, -0.072232, -0.081694, -0.060263, -0.114022, 0.076891, 0.054184, 
    0.035184, 0.025640, 0.009701, -0.088465, -0.058085, -0.070462, 0.061859, 0.038652, 
    0.135816, 0.037823, -0.073940, -0.047451, -0.062540, -0.050164, -0.033563, -0.046758, 
    0.003513, -0.092443, -0.105743, -0.099310, 0.050193, -0.103784, -0.095217, 0.069729, 
    -0.041900, 0.007160, 0.014598, 0.049855, -0.029386, -0.058136, -0.042810, 0.065062, 
    0.020715, -0.023542, 0.150427, 0.030487, -0.070082, 0.021813, -0.070953, -0.014293, 
    -0.026791, -0.004040, 0.028833, -0.008237, -0.043392, 0.033711, -0.050192, -0.166633, 
    0.054045, 0.080751, -0.027494, 0.170174, 0.100529, 0.073686, 0.006467, 0.077365, 
    0.109157, 0.093718, -0.128894, -0.037917, 0.119478, -0.100685, 0.043220, 0.000831, 
    0.024137, 0.080688, -0.097900, 0.035584, 0.042096, 0.037832, -0.140057, -0.006415, 
    0.051482, -0.044056, -0.078311, -0.066753, -0.014134, 0.003761, 0.089602, -0.030512, 
    -0.069467, 0.027729, 0.067258, -0.095869, -0.004295, -0.048413, -0.048534, 0.003484, 
    0.047397, 0.045710, 0.083376, 0.041028, 0.030918, 0.043826, -0.024145, 0.015580, 
    -0.039630, 0.079668, -0.090368, -0.028028, 0.025151, 0.063561, 0.083698, -0.072084, 
    0.051922, -0.075891, 0.024647, 0.007042, -0.049604, -0.098154, -0.074496, 0.143535, 
    -0.018617, 0.073260, 0.025095, 0.066283, 0.033768, 0.049064, -0.069254, 0.012785, 
    0.034885, -0.024052, 0.045959, -0.077864, -0.038688, -0.091878, 0.111584, 0.053758, 
    0.124396, -0.107945, -0.076724, 0.071186, -0.106369, 0.014919, -0.158056, -0.084983, 
    -0.120743, 0.016148, -0.092860, -0.003691, -0.047106, -0.064754, -0.104428, -0.045648, 
    0.039617, 0.008934, -0.021553, -0.035083, 0.061582, 0.030276, -0.005018, 0.083667, 
    -0.081289, -0.106908, -0.012145, 0.001068, -0.044993, -0.092252, -0.068278, -0.060153, 
    -0.039247, 0.010226, -0.116832, 0.012409, 0.007557, -0.092271, -0.059736, 0.000571, 
    0.050954, -0.072159, 0.058689, -0.015736, -0.068122, -0.047168, 0.015792, -0.054932, 
    0.058392, 0.061149, 0.066314, 0.015637, 0.109643, -0.032681, -0.021363, -0.086261, 
    0.010675, 0.095314, 0.014292, 0.042994, -0.072471, 0.095706, -0.047216, 0.008880, 
    0.012336, -0.014710, 0.033963, -0.107352, -0.013505, 0.010312, -0.041620, 0.102215, 
    0.076798, 0.030049, 0.006583, 0.031411, 0.064923, 0.088154, 0.077800, 0.035357, 
    0.016096, -0.044129, 0.122324, -0.046849, 0.097269, -0.055483, -0.040067, -0.040387, 
    -0.121618, -0.089771, 0.083015, 0.065907, 0.011860, -0.007571, 0.016399, -0.015818, 
    0.048764, -0.042184, -0.099997, -0.081835, -0.090515, 0.005946, 0.034817, 0.046154, 
    0.020281, 0.091399, -0.105255, 0.094163, -0.089484, -0.028948, 0.116048, -0.091750, 
    -0.114181, 0.042012, -0.154754, 0.065679, 0.038396, -0.138083, -0.092759, -0.087231, 
    -0.152569, -0.060989, -0.005972, -0.090360, 0.007449, -0.040452, 0.124897, -0.151396, 
    -0.166024, -0.137197, -0.103722, 0.002834, 0.031114, 0.060227, -0.126208, 0.028579, 
    -0.022571, -0.067507, 0.016339, 0.111433, -0.062353, -0.031695, 0.014116, 0.007757, 
    -0.078282, 0.020904, -0.074344, 0.103047, -0.040630, -0.063791, 0.024346, 0.063656, 
    -0.084648, -0.206259, -0.034984, 0.123495, 0.067130, -0.002531, 0.141145, -0.021451, 
    0.024503, 0.082246, -0.094657, -0.085652, -0.017447, -0.006696, -0.081483, -0.022779, 
    0.085637, -0.087418, 0.031698, 0.017147, -0.003891, 0.030426, 0.023004, 0.080768, 
    -0.066712, -0.031358, 0.107359, -0.020631, -0.040185, -0.070922, -0.045047, 0.023633, 
    -0.085664, -0.064992, 0.015496, 0.047223, -0.096855, 0.093582, -0.012306, -0.075358, 
    -0.045957, 0.055482, 0.026424, 0.048921, -0.007867, -0.034180, 0.043366, 0.019468, 
    0.011729, -0.020476, 0.031822, 0.089168, -0.021858, -0.073234, 0.065631, 0.079583, 
    -0.069099, 0.022521, 0.027283, 0.027225, 0.083223, 0.019977, 0.075765, 0.035818, 
    0.076509, 0.016404, 0.097580, -0.050347, 0.108823, 0.024070, 0.099788, -0.032627, 
    -0.027836, 0.062263, 0.088505, -0.032529, -0.008799, 0.076207, -0.007210, 0.076579, 
    -0.045813, -0.057820, 0.015314, -0.045188, -0.012516, -0.014392, 0.088627, -0.031902, 
    0.072005, -0.012152, 0.034762, 0.070503, -0.029239, -0.045202, 0.011325, -0.003460, 
    -0.108350, 0.075005, 0.033682, -0.073812, -0.132506, -0.032879, -0.144656, -0.086736, 
    -0.119385, -0.155151, -0.072804, 0.069256, 0.175818, -0.006636, 0.076676, -0.058454, 
    -0.030366, -0.117982, -0.082490, 0.037053, 0.008010, -0.085641, -0.119827, -0.029160, 
    -0.010009, -0.003729, -0.133717, -0.075682, 0.031426, -0.124710, 0.016438, 0.088988, 
    -0.071268, 0.070479, -0.040745, -0.160036, -0.172607, -0.115765, -0.092773, -0.170925, 
    0.002258, -0.325088, -0.005675, -0.064591, 0.055080, -0.002057, -0.003938, -0.054139, 
    -0.113011, -0.060800, -0.060028, 0.068056, -0.032658, 0.045463, -0.083985, -0.147369, 
    0.068614, -0.072673, -0.194529, -0.070760, -0.131744, -0.199176, -0.077013, -0.053377, 
    -0.012256, 0.049659, 0.052185, -0.013181, -0.015722, -0.050354, -0.064127, -0.118383, 
    0.099749, 0.031104, 0.033813, -0.072756, 0.081208, -0.067629, -0.117098, -0.135589, 
    0.034138, -0.116643, 0.113155, 0.049160, -0.111392, -0.038298, -0.040759, 0.045366, 
    0.045397, 0.043923, -0.075918, 0.051084, 0.084731, 0.051304, -0.065883, -0.051487, 
    -0.002610, 0.072368, 0.043150, 0.087165, 0.005838, -0.073880, 0.040988, -0.058282, 
    0.008434, -0.069999, -0.078063, -0.021322, -0.038729, 0.022270, -0.008776, 0.041333, 
    0.091580, -0.084111, 0.057170, -0.099901, -0.009212, -0.024567, 0.154032, 0.025406, 
    -0.004196, 0.011525, 0.077329, -0.079107, 0.072464, 0.086801, -0.023385, -0.049736, 
    -0.000200, 0.019619, -0.050111, -0.136866, 0.010222, -0.040318, 0.039701, 0.034892, 
    -0.040431, -0.001147, 0.080700, 0.021949, 0.066939, -0.012367, -0.036999, -0.018059, 
    -0.088132, 0.069194, 0.047938, 0.081808, -0.039277, 0.021182, 0.015204, -0.062277, 
    0.001599, 0.044940, 0.024903, -0.039864, 0.034883, -0.054292, 0.018318, -0.071451, 
    -0.106891, 0.044275, -0.031183, 0.085138, 0.086745, -0.075621, 0.072694, 0.010235, 
    0.085578, -0.034184, -0.077272, 0.059003, 0.079412, 0.047878, 0.011025, 0.032607, 
    0.078739, 0.005614, 0.039210, -0.052389, -0.057771, 0.094432, 0.106242, 0.084356, 
    0.049689, 0.022162, 0.075523, 0.053467, 0.014936, 0.089297, -0.008621, 0.010766, 
    -0.011610, 0.055667, 0.021941, 0.038849, -0.050627, -0.032961, -0.086737, 0.070709, 
    -0.091165, 0.048915, -0.061126, 0.070810, -0.003926, 0.015885, 0.041954, -0.067455, 
    0.046320, 0.011501, -0.090517, 0.059584, -0.001776, 0.064811, -0.068158, -0.077692, 
    0.035402, 0.046952, 0.070518, 0.072324, 0.033315, 0.012268, 0.033201, 0.100698, 
    0.037830, 0.050051, 0.075398, -0.159231, 0.073694, -0.051431, -0.098391, -0.112038, 
    -0.083991, 0.047992, -0.086441, -0.068883, -0.126799, 0.024139, -0.030035, -0.117516, 
    -0.031656, -0.047810, 0.000805, -0.096332, 0.002935, -0.041725, -0.103721, -0.071042, 
    0.010490, 0.061680, -0.123581, -0.018707, -0.057981, -0.045579, -0.003811, 0.096891, 
    0.004761, 0.101684, 0.109844, 0.102990, 0.072018, -0.048461, -0.062489, 0.039191, 
    0.100622, 0.085554, -0.047123, -0.075721, -0.060722, 0.081715, 0.085979, 0.090384, 
    0.042996, 0.037784, -0.041935, -0.017532, -0.072885, -0.058658, -0.042848, -0.005935, 
    -0.060771, 0.069947, -0.030389, -0.022993, -0.036249, -0.027087, -0.069467, -0.087200, 
    -0.024055, -0.057044, 0.074838, -0.008159, -0.037118, 0.077181, -0.046578, -0.038285, 
    -0.062320, -0.006675, -0.020626, -0.028014, 0.017160, -0.080895, 0.068283, -0.073424, 
    0.077915, 0.090711, -0.035177, 0.088997, 0.064401, 0.087769, 0.027712, -0.060602, 
    0.029042, -0.064558, -0.001210, -0.010381, 0.064415, -0.084038, -0.027013, -0.123055, 
    0.086683, -0.066651, 0.027240, -0.208200, 0.002789, -0.093742, -0.053685, 0.122221, 
    0.080196, 0.091468, 0.028195, 0.041953, -0.018312, -0.010653, -0.119548, 0.031805, 
    -0.072478, -0.032810, -0.060950, 0.096300, 0.016389, -0.063268, 0.035172, -0.069856, 
    -0.118533, -0.128734, -0.083546, -0.073953, -0.092702, 0.048343, 0.007423, -0.018402, 
    -0.007479, -0.051683, 0.019859, -0.093122, 0.008302, -0.001715, -0.033305, -0.046887, 
    0.054204, 0.043877, -0.113635, 0.063404, -0.046310, -0.038729, -0.065878, -0.044732, 
    0.066289, -0.025369, -0.053035, 0.020219, 0.040913, -0.030679, 0.075031, -0.088762, 
    0.024953, -0.055051, 0.018746, -0.033219, -0.019918, -0.045752, -0.084505, 0.086553, 
    -0.007550, 0.004636, 0.091662, -0.048908, 0.072021, 0.045354, -0.085751, 0.052393, 
    0.029358, 0.064453, 0.093220, -0.108289, -0.019073, -0.093019, -0.065966, 0.087986, 
    -0.021625, -0.071900, -0.009517, -0.095225, 0.100211, 0.068367, 0.096500, 0.089993, 
    0.034347, 0.082445, -0.057176, 0.102402, -0.055641, -0.039944, 0.063888, -0.096889, 
    -0.057686, -0.014845, -0.026187, 0.039318, -0.048072, 0.076181, -0.098653, -0.078659, 
    0.063093, 0.041859, 0.053332, 0.072136, -0.078386, -0.106601, 0.058910, 0.051299, 
    -0.012310, 0.048913, 0.078087, 0.071150, -0.048792, -0.057561, -0.104751, -0.011053, 
    -0.053923, -0.001530, -0.068532, -0.090570, -0.100269, -0.003344, -0.085804, -0.027788, 
    -0.037645, -0.086845, -0.035622, 0.081335, 0.036058, 0.092966, 0.066014, 0.059096, 
    0.022329, -0.064097, 0.018758, -0.069442, 0.027756, 0.056741, 0.047263, 0.079788, 
    -0.090038, -0.034130, -0.028529, -0.122396, -0.159988, 0.004072, -0.010100, 0.030623, 
    -0.029548, 0.063328, -0.099519, 0.007400, -0.063528, -0.004578, -0.110724, 0.053510, 
    -0.066870, -0.148374, 0.091124, -0.020021, 0.099760, 0.036846, -0.054843, -0.008972, 
    -0.027689, 0.001628, 0.049307, -0.029675, -0.062741, 0.096801, 0.038307, -0.020934, 
    -0.000626, -0.039473, 0.107609, 0.009263, -0.069516, 0.117430, 0.005637, 0.031696, 
    0.048014, 0.018541, -0.005592, -0.167776, -0.072434, -0.090690, -0.101886, -0.025573, 
    0.025273, -0.145284, -0.013499, 0.114560, -0.089155, -0.091062, -0.024640, -0.086583, 
    -0.133370, 0.111257, -0.084369, -0.039040, -0.046007, 0.035377, 0.022613, -0.051428, 
    -0.093992, 0.026467, -0.027123, -0.108444, -0.134737, -0.087913, 0.000178, 0.007483, 
    -0.142833, -0.224066, 0.009470, 0.062437, 0.088429, -0.075323, -0.001936, -0.086168, 
    -0.007442, -0.005606, -0.057409, -0.008255, -0.050068, 0.021888, 0.142791, -0.090767, 
    -0.116149, -0.033476, 0.007265, -0.015338, 0.028524, -0.195098, -0.062645, -0.148832, 
    -0.123363, 0.005803, 0.074073, 0.057784, -0.001253, 0.095044, 0.051349, 0.055067, 
    0.011837, -0.022657, 0.032004, -0.065987, 0.085213, -0.014052, 0.002472, -0.009507, 
    0.101940, -0.074359, -0.022978, -0.081064, 0.036985, 0.057979, -0.100591, -0.013122, 
    0.086681, 0.079083, 0.098197, -0.103389, -0.071554, -0.061069, -0.037380, 0.059680, 
    0.047831, 0.058963, -0.086207, 0.014427, -0.097007, 0.040136, 0.049597, -0.019696, 
    0.028446, -0.058656, 0.079476, 0.037405, -0.046539, -0.035923, -0.052884, 0.066581, 
    -0.120912, -0.046130, -0.144147, 0.002556, 0.096360, 0.062776, 0.010462, -0.075102, 
    -0.011037, 0.015247, -0.029559, -0.011886, -0.043747, 0.097352, -0.008230, 0.074331, 
    0.077427, -0.035460, 0.151412, 0.018285, -0.038665, -0.060885, -0.075062, -0.205438, 
    0.066637, 0.072180, 0.079290, -0.061336, 0.007418, -0.081499, 0.025168, 0.028784, 
    0.100170, -0.069845, 0.068260, -0.111608, -0.182565, -0.164951, -0.165177, 0.011987, 
    0.067407, 0.061346, 0.049184, 0.099311, 0.055523, 0.028592, 0.078645, 0.013286, 
    0.073379, -0.049896, -0.177044, 0.110277, 0.102184, -0.005992, 0.089071, -0.038745, 
    0.038045, -0.146482, -0.062135, -0.012871, 0.011275, -0.021548, -0.222137, -0.102057, 
    -0.127572, 0.030081, -0.243090, -0.058261, -0.070680, -0.090705, 0.051337, 0.122353, 
    -0.002634, -0.211912, -0.041614, -0.089286, 0.010277, 0.033741, -0.050406, -0.085670, 
    0.077043, -0.057923, -0.117714, -0.048226, 0.092062, 0.051698, 0.144460, 0.026962, 
    0.095038, -0.064205, 0.017964, -0.095932, -0.004402, 0.025540, -0.018484, -0.045782, 
    -0.054275, -0.067891, -0.000408, 0.064419, -0.023518, 0.116432, 0.071009, 0.034572, 
    -0.047715, -0.060267, -0.187603, -0.060460, -0.043517, 0.023907, -0.150604, -0.133363, 
    -0.016455, 0.042401, -0.119505, -0.020216, -0.065938, 0.072844, -0.041007, -0.013943, 
    -0.080886, -0.054229, 0.004612, 0.131381, 0.123119, 0.017681, 0.081824, 0.025994, 
    -0.027226, -0.067915, -0.023635, 0.081338, 0.028105, 0.017550, 0.093168, 0.040999, 
    -0.044382, -0.085100, -0.077220, -0.030381, -0.058665, -0.005714, -0.074535, 0.017287, 
    0.016141, -0.086378, -0.073664, -0.055237, 0.034374, -0.063617, -0.035447, -0.020301, 
    -0.092396, -0.073490, 0.005574, -0.064078, -0.088659, 0.084507, -0.083596, 0.072811, 
    -0.008721, 0.134298, -0.088667, 0.046780, -0.056684, 0.035935, 0.005321, 0.112268, 
    -0.085118, -0.042490, -0.086741, -0.036225, -0.063407, -0.003585, -0.156342, -0.062044, 
    -0.164322, 0.090370, 0.096941, 0.028349, -0.121807, -0.001370, 0.074957, 0.021057, 
    0.062442, 0.155455, 0.105079, 0.071840, 0.102453, 0.006417, 0.100285, 0.128218, 
    -0.047663, -0.071884, 0.019469, 0.041228, -0.120496, 0.060282, -0.064627, 0.049312, 
    -0.038826, -0.012391, -0.031996, -0.144700, 0.052346, 0.075947, 0.053414, -0.048933, 
    -0.126781, 0.035119, -0.015432, -0.023989, 0.030663, -0.064812, 0.023826, -0.075233, 
    0.024629, -0.158624, -0.095655, 0.020674, -0.123203, -0.000673, -0.057824, 0.089049, 
    0.134874, -0.041563, -0.061333, -0.090147, -0.139626, 0.065179, 0.095631, 0.001872, 
    -0.167330, -0.047464, -0.000410, 0.062863, 0.114611, 0.122291, -0.022368, 0.009322, 
    0.028548, -0.045464, 0.002757, -0.095789, -0.195054, -0.099081, 0.028664, -0.242910, 
    0.021253, -0.054375, -0.024994, -0.166852, -0.032022, -0.138281, 0.059423, -0.019589, 
    0.009475, 0.005538, -0.080354, -0.032928, 0.032105, -0.046331, -0.007501, 0.083930, 
    0.029577, -0.041848, -0.037918, 0.034389, 0.101377, 0.005667, -0.035180, 0.026983, 
    -0.060179, 0.032038, -0.070326, 0.054179, -0.008465, -0.027271, -0.053636, -0.001690, 
    0.049003, 0.063229, -0.019656, 0.046516, -0.091344, -0.068498, 0.017291, 0.073583, 
    -0.036896, -0.040568, 0.122476, -0.074545, 0.026501, -0.045558, 0.004022, -0.063429, 
    -0.020545, 0.083636, 0.065297, 0.055188, 0.078130, 0.031399, -0.043552, -0.074815, 
    -0.029676, 0.014243, -0.052551, -0.043185, 0.094278, 0.032588, -0.067833, 0.104759, 
    -0.110834, 0.056181, 0.074499, -0.070470, -0.010025, -0.047978, 0.039685, -0.047349, 
    -0.033657, -0.043935, 0.023496, 0.061227, 0.042022, -0.207006, -0.064138, 0.072462, 
    0.034902, -0.035537, -0.039788, 0.129686, 0.009942, -0.051867, -0.069577, 0.075989, 
    0.008268, -0.082619, 0.021739, -0.086048, 0.047480, -0.000557, -0.047251, -0.058919, 
    -0.064701, -0.049769, 0.028469, 0.010808, -0.047462, -0.088952, -0.019217, 0.038379, 
    0.076355, -0.081312, 0.068583, -0.062014, 0.085906, -0.002399, 0.056929, -0.099683, 
    0.074946, -0.079595, -0.118814, -0.007650, 0.048407, -0.063737, 0.019649, -0.042708, 
    -0.049290, -0.061989, 0.076959, 0.045652, -0.001420, 0.092586, 0.039149, 0.101271, 
    0.001977, 0.100246, 0.104986, 0.071895, 0.058906, 0.071951, 0.083569, -0.118793, 
    -0.016027, 0.001862, -0.088313, -0.084781, -0.032310, 0.012920, 0.047667, -0.073775, 
    -0.175217, -0.088130, -0.117151, -0.094836, 0.090087, 0.022719, 0.002795, -0.011780, 
    -0.143273, -0.106658, -0.174280, -0.168272, -0.034708, -0.166756, -0.170268, -0.197193, 
    -0.107826, 0.010804, 0.045854, -0.047238, -0.107606, -0.039052, -0.091834, 0.003834, 
    -0.039883, -0.136641, 0.159711, 0.033902, -0.138448, 0.012526, -0.066569, -0.085229, 
    -0.111825, -0.168036, 0.013950, 0.083404, -0.055491, -0.032706, -0.038368, -0.104654, 
    -0.091894, -0.028379, -0.046540, 0.033663, -0.145321, 0.115477, -0.067498, 0.024576, 
    0.038977, -0.123402, -0.047377, 0.122522, -0.088653, 0.052198, -0.115532, 0.012625, 
    0.092492, -0.057422, 0.009433, 0.073853, -0.096682, -0.026719, -0.073507, 0.005036, 
    0.054628, 0.102410, -0.057661, -0.019858, -0.139538, -0.053611, 0.069883, 0.033573, 
    -0.096367, -0.003738, 0.014568, -0.054101, 0.014613, -0.022334, -0.061382, -0.008224, 
    0.075050, -0.035490, -0.026236, 0.058330, -0.001067, 0.068984, -0.049810, -0.181437, 
    0.002585, 0.083220, -0.076765, -0.000963, 0.051165, -0.083254, 0.007621, 0.073854, 
    -0.010227, -0.067634, -0.050207, -0.126860, -0.024976, 0.091720, 0.020817, 0.027903, 
    0.038944, 0.114119, 0.121333, 0.034622, -0.062998, 0.127250, 0.054026, 0.094610, 
    0.143263, -0.100467, -0.053079, -0.063951, -0.079636, 0.031626, -0.121745, -0.162549, 
    0.061326, 0.060255, 0.083335, 0.052600, -0.110068, -0.061561, -0.101979, 0.038315, 
    0.100593, -0.058894, 0.013896, -0.016852, 0.036254, 0.089129, -0.023407, 0.055387, 
    -0.070501, -0.051770, 0.054612, 0.029117, -0.049630, -0.092439, -0.026764, 0.080402, 
    0.031306, -0.040233, 0.097146, -0.086232, 0.064826, -0.024442, -0.000872, -0.063200, 
    0.009391, 0.018895, 0.113426, 0.034907, -0.148114, -0.005236, 0.122960, -0.074977, 
    -0.106201, 0.045451, -0.033418, -0.007409, -0.046679, 0.025931, -0.016272, 0.010934, 
    0.096485, -0.008984, 0.047098, 0.020452, 0.036276, 0.069146, -0.066200, -0.041686, 
    -0.083284, 0.036768, -0.038854, 0.042811, 0.034808, -0.032492, 0.005094, -0.061438, 
    -0.094839, 0.069367, -0.100903, 0.015672, -0.101285, -0.048688, 0.064666, -0.052715, 
    0.065274, 0.002943, -0.022301, 0.039203, -0.053875, -0.057711, -0.027757, 0.075499, 
    -0.011339, 0.055936, 0.093930, 0.073103, 0.077240, -0.079206, -0.006173, -0.040248, 
    -0.079114, -0.008477, 0.081281, -0.028311, -0.066925, 0.038463, 0.072750, -0.091397, 
    -0.105415, -0.029301, -0.093072, 0.086432, 0.059959, 0.119456, 0.015529, -0.078134, 
    -0.066553, 0.059145, -0.011821, -0.054020, -0.058010, 0.015553, 0.019295, -0.017255, 
    0.067265, -0.043001, -0.030138, 0.066861, 0.089132, -0.101158, -0.018853, 0.111958, 
    0.090162, 0.046851, -0.092319, 0.016606, 0.005604, -0.011892, -0.034939, 0.048012, 
    -0.056419, 0.016928, 0.129446, 0.080648, 0.023672, -0.073205, -0.070725, 0.030683, 
    -0.031150, 0.065596, 0.018876, 0.057117, 0.049191, 0.033804, 0.047250, 0.034214, 
    -0.067162, -0.020799, 0.029091, -0.068335, 0.047290, 0.055325, 0.049508, 0.009850, 
    -0.070348, 0.085699, 0.051283, -0.000259, -0.062801, 0.080333, 0.091402, 0.001454, 
    0.032036, 0.074182, 0.018153, -0.054620, 0.100009, -0.075995, 0.013856, -0.003615, 
    -0.106872, -0.012922, -0.014445, 0.052601, -0.037509, 0.011491, -0.061126, 0.047653, 
    0.104540, 0.009636, 0.063283, -0.068011, 0.010038, -0.109497, 0.085569, -0.068649, 
    0.065858, 0.030481, -0.060373, -0.105760, -0.080794, -0.013312, 0.037925, -0.153944, 
    -0.094266, 0.096420, 0.011586, -0.078550, -0.038832, -0.032051, -0.035769, -0.036448, 
    0.002988, -0.083504, -0.071086, 0.015456, -0.147622, 0.035283, -0.187156, 0.026244, 
    -0.008540, -0.130042, 0.130244, 0.046119, -0.015946, -0.066573, -0.067228, 0.008591, 
    0.065250, 0.071988, 0.079430, -0.070876, 0.094508, 0.008641, 0.075532, -0.064691, 
    0.029776, -0.099345, 0.044228, 0.026518, -0.078149, -0.072659, 0.038619, 0.104287, 
    -0.086519, -0.076045, 0.062280, 0.033924, -0.109593, 0.030964, -0.049455, -0.048024, 
    -0.058445, 0.013291, -0.085834, -0.026074, 0.029349, 0.068819, -0.089242, -0.064893, 
    -0.022722, -0.033368, -0.068874, -0.145586, 0.078607, -0.073665, 0.064466, 0.094953, 
    -0.027005, 0.043477, -0.040105, -0.030792, 0.025768, 0.088063, -0.109045, 0.040036, 
    0.146995, 0.055346, -0.066334, -0.124818, 0.043988, -0.074180, -0.009094, -0.019549, 
    -0.063426, 0.056490, -0.066736, -0.179782, -0.070003, -0.196723, -0.012550, 0.083054, 
    -0.043323, 0.056773, -0.139789, -0.070787, -0.095998, -0.046569, -0.003525, 0.035656, 
    -0.082602, 0.071046, 0.082571, -0.014525, 0.070927, -0.015166, -0.140554, -0.120844, 
    -0.037797, 0.077958, 0.052460, -0.118813, 0.058025, -0.019866, 0.001913, 0.046859, 
    -0.026756, 0.072033, 0.110869, 0.015379, 0.139937, -0.029898, -0.137925, -0.028718, 
    -0.051949, -0.010171, 0.043348, -0.190323, 0.104559, -0.046326, 0.006367, -0.071284, 
    -0.017164, 0.013458, -0.093476, 0.050061, -0.034954, -0.035909, -0.058997, -0.024571, 
    -0.017500, 0.002557, -0.006778, -0.012137, -0.001511, -0.057644, 0.040210, -0.115181, 
    -0.113213, -0.150717, -0.018133, 0.026899, 0.014351, 0.012104, 0.022748, 0.163640, 
    -0.122118, -0.056302, -0.043565, -0.010789, -0.133838, 0.059671, -0.156252, 0.008136, 
    -0.020891, -0.001124, 0.086987, -0.049617, -0.090529, -0.091612, -0.087316, -0.032969, 
    0.044465, 0.002290, 0.102519, 0.015073, 0.098572, 0.069743, -0.022064, 0.059500, 
    0.074380, -0.050952, 0.085261, 0.009120, 0.019469, 0.053617, -0.084564, 0.100181, 
    -0.240144, -0.021181, -0.205290, 0.066672, -0.119344, 0.100851, -0.078755, -0.031604, 
    0.095114, -0.124906, -0.213459, 0.045410, 0.103801, 0.066249, -0.082541, -0.064750, 
    0.078447, 0.024780, -0.024612, -0.052930, 0.039646, 0.002175, -0.093509, 0.015570, 
    -0.004266, -0.088692, 0.048311, -0.058304, -0.047285, -0.005780, -0.073094, 0.072694, 
    -0.027654, 0.001233, 0.080905, -0.102455, -0.034087, 0.026506, 0.063459, 0.097709, 
    0.075986, 0.014528, -0.100170, -0.025598, 0.041356, 0.085596, -0.087567, -0.010447, 
    0.003446, -0.003520, -0.034340, 0.031837, -0.034300, -0.092420, 0.103791, 0.024155, 
    -0.029499, -0.055612, -0.083269, -0.070987, 0.010877, 0.060763, 0.111366, 0.127938, 
    0.015567, -0.013795, 0.036687, -0.016574, -0.049162, -0.088620, -0.009982, 0.091970, 
    0.009103, -0.107406, 0.094487, -0.052190, -0.063533, 0.017883, -0.114792, -0.097675, 
    -0.068628, -0.112107, 0.100783, -0.126740, -0.126959, 0.022797, -0.077398, 0.041841, 
    0.011811, 0.086940, 0.002642, 0.069375, -0.094578, -0.072330, -0.037848, -0.012932, 
    -0.024951, 0.035387, -0.046549, 0.101049, -0.060801, 0.098911, -0.033361, -0.005399, 
    -0.010311, 0.054814, 0.037035, -0.039154, -0.043430, 0.096994, 0.054615, 0.052015, 
    -0.058961, 0.073148, -0.059979, 0.047757, 0.057561, 0.011992, -0.026328, -0.030343, 
    0.054579, -0.054338, -0.018612, -0.051220, -0.130415, 0.075588, 0.075015, -0.102474, 
    0.083105, -0.099450, 0.036319, 0.078956, 0.079077, -0.028840, -0.026639, -0.054469, 
    -0.027118, 0.068386, -0.074429, -0.071905, 0.012657, -0.054563, -0.062150, -0.010892, 
    -0.026003, 0.125883, -0.090346, 0.020935, -0.050748, 0.009521, -0.006349, -0.029051, 
    -0.069638, -0.088596, -0.054450, -0.074549, -0.055409, -0.088582, -0.035656, -0.037424, 
    -0.031617, -0.093433, 0.035454, 0.051841, -0.088312, -0.006422, -0.022470, -0.067154, 
    0.041905, 0.034207, -0.067676, -0.003482, -0.154728, -0.067075, -0.036673, 0.096703, 
    -0.067815, -0.122083, 0.065761, 0.011793, 0.067666, -0.039798, -0.043624, -0.022757, 
    -0.078804, -0.096730, 0.045719, -0.045588, -0.088673, -0.015391, 0.039634, -0.087360, 
    0.023125, -0.057865, -0.002257, -0.046994, 0.004452, -0.085655, 0.026554, 0.016393, 
    -0.004567, 0.065419, -0.087634, -0.053689, -0.069732, -0.075738, 0.033614, -0.003363, 
    0.011614, -0.043434, -0.105123, 0.076622, 0.030079, 0.045098, -0.056551, -0.010378, 
    -0.094941, -0.025807, -0.052787, -0.062003, -0.000029, -0.084493, 0.037304, 0.049866, 
    0.122872, 0.080222, -0.077383, 0.028933, 0.034193, -0.045182, -0.048855, 0.019186, 
    0.021149, -0.014128, 0.018701, -0.064753, 0.000463, -0.071992, -0.112225, 0.044738, 
    -0.041665, 0.062137, -0.133765, 0.076558, 0.014510, 0.035492, 0.025731, -0.102836, 
    -0.099796, -0.078584, 0.059627, -0.072785, -0.057592, 0.093570, 0.130678, -0.001227, 
    0.022494, -0.055659, 0.025932, -0.088724, 0.033666, -0.067384, 0.027803, 0.009766, 
    -0.013489, -0.076586, -0.110681, 0.070034, -0.078769, -0.035156, 0.001245, -0.090541, 
    0.055287, -0.133191, 0.022737, 0.058568, 0.026877, 0.049892, -0.004487, 0.063665, 
    0.027181, -0.020236, -0.180804, -0.230206, -0.023754, 0.112728, -0.026692, -0.087965, 
    -0.077797, 0.067344, -0.102456, -0.010742, 0.030519, -0.057620, -0.134474, -0.070932, 
    0.038397, -0.058687, -0.076700, -0.006706, 0.070371, -0.042556, -0.081269, -0.065535, 
    -0.074463, -0.107106, -0.088102, 0.036565, 0.040110, -0.059855, 0.080638, 0.028662, 
    -0.079211, -0.052250, -0.009677, 0.067375, 0.013944, -0.076581, -0.119326, -0.093716, 
    0.119191, -0.050351, -0.105424, -0.002447, -0.074122, 0.081427, -0.199328, -0.125591, 
    -0.121219, -0.028605, -0.025499, -0.084720, -0.086269, 0.021419, -0.052142, -0.111008, 
    -0.056593, -0.111595, -0.004295, 0.090393, -0.104976, -0.097733, 0.076192, -0.064340, 
    0.080535, -0.012608, -0.140230, 0.096187, -0.173908, 0.084641, 0.032498, 0.005561, 
    -0.040841, -0.012430, -0.011404, 0.000961, 0.035320, -0.039504, 0.016239, -0.086570, 
    -0.090670, 0.035769, -0.031814, -0.011993, 0.019860, 0.152380, 0.055255, -0.141462, 
    0.018973, -0.048750, -0.120378, -0.111425, -0.100743, 0.012163, -0.019486, -0.019593, 
    0.067367, 0.023389, 0.054194, 0.034224, 0.022903, -0.039053, -0.063124, 0.040384, 
    0.037404, 0.079832, 0.047202, -0.009818, -0.115164, -0.054693, -0.069781, -0.126498, 
    -0.186250, 0.064681, 0.035210, 0.016758, -0.085608, -0.047058, -0.089103, -0.044104, 
    0.019212, 0.069100, -0.018679, -0.021213, 0.055773, 0.006002, -0.013153, -0.053066, 
    -0.096444, -0.032834, 0.024616, -0.006104, 0.008747, -0.000755, 0.018693, -0.034125, 
    -0.079533, -0.094236, 0.053453, 0.008588, 0.090892, -0.038732, -0.079462, -0.010097, 
    -0.092757, 0.028137, -0.020297, -0.052678, -0.069202, -0.085148, -0.065990, 0.095201, 
    -0.040877, 0.017602, 0.008229, -0.021761, 0.025649, 0.051836, -0.020208, 0.095031, 
    0.092394, -0.045984, -0.022569, 0.023720, -0.031442, -0.081355, 0.099191, 0.079316, 
    -0.011262, -0.084132, -0.006535, -0.001661, 0.070436, 0.015436, -0.008847, 0.033821, 
    0.035663, -0.018248, -0.093893, 0.048301, -0.119463, 0.081935, 0.087062, -0.094122, 
    -0.013363, 0.013279, -0.016688, -0.065424, -0.000509, -0.053627, 0.084422, -0.050303, 
    -0.076296, 0.065398, 0.064401, 0.061607, -0.002475, 0.059379, 0.020746, 0.011207, 
    0.095644, 0.058982, -0.010817, -0.042836, 0.003537, -0.084429, 0.074665, -0.035856, 
    -0.129607, -0.105614, -0.088349, -0.041845, -0.131926, -0.087008, -0.078097, 0.097022, 
    0.034298, -0.095205, -0.032432, 0.013997, 0.056100, -0.013661, 0.064403, -0.086346, 
    -0.053724, 0.024363, -0.069421, 0.098074, -0.009932, 0.027231, -0.136370, 0.108753, 
    0.036903, -0.058512, -0.013322, -0.010833, -0.110065, 0.089434, -0.155793, -0.008099, 
    -0.095148, 0.050581, -0.118545, 0.063316, -0.086573, -0.056075, 0.040121, 0.040664, 
    -0.014813, -0.008730, 0.048073, -0.103420, -0.110255, -0.100475, -0.089049, -0.079880, 
    -0.133632, 0.061313, -0.032236, 0.032951, -0.015652, -0.066127, -0.055800, -0.138134, 
    -0.079732, 0.072695, -0.071914, -0.095264, 0.094962, 0.111768, -0.019671, 0.039928, 
    -0.010615, 0.067332, 0.070734, -0.055821, -0.012248, -0.073601, 0.109743, 0.031459, 
    0.077302, -0.061248, -0.045214, -0.144827, 0.061235, 0.077499, 0.114255, 0.046852, 
    -0.148987, 0.054241, -0.039614, 0.053717, 0.069415, -0.054601, -0.025726, 0.020591, 
    -0.027443, -0.116035, -0.059630, 0.070333, 0.012078, -0.103249, 0.027199, -0.059430, 
    0.064247, 0.084614, 0.016283, 0.109986, 0.011159, -0.059457, -0.113568, 0.005394, 
    -0.060609, -0.082381, 0.049582, 0.055790, 0.117969, -0.031905, 0.017576, 0.042285, 
    0.089146, 0.003620, -0.048042, 0.058848, -0.037498, 0.010899, -0.088202, -0.067236, 
    0.005700, 0.088776, 0.018100, -0.007927, -0.029235, 0.003192, -0.063660, 0.029025, 
    -0.029065, 0.090736, -0.018510, 0.095088, 0.035604, -0.105834, -0.013000, -0.037294, 
    0.007690, 0.057516, 0.059702, 0.079784, -0.053722, -0.092084, 0.016045, 0.013425, 
    0.024967, 0.052291, -0.032580, 0.099911, -0.069667, -0.061586, 0.044226, -0.031916, 
    0.113114, -0.100698, -0.120825, 0.026799, -0.085904, -0.070798, 0.001713, 0.048935, 
    0.016247, -0.066141, -0.074290, 0.009971, 0.074432, 0.074724, -0.048729, -0.050130, 
    -0.013475, -0.003816, -0.048511, -0.010009, 0.037079, 0.080094, 0.086625, -0.076806, 
    -0.116304, 0.009126, -0.015663, 0.064735, -0.059232, 0.089982, 0.035884, 0.095603, 
    -0.013552, -0.089656, -0.001764, 0.064185, 0.000524, -0.029540, -0.064173, -0.134387, 
    -0.005058, 0.044238, -0.074182, 0.024426, -0.059578, -0.073258, -0.016452, -0.057106, 
    -0.063445, 0.094618, -0.028755, 0.013835, 0.032310, 0.034111, 0.061362, 0.033438, 
    0.079332, -0.080213, -0.004174, 0.146565, 0.066719, 0.016175, -0.120080, 0.104544, 
    -0.039470, -0.142651, -0.043358, 0.071163, 0.031419, -0.101575, -0.130788, 0.017750, 
    0.092435, 0.111929, 0.040212, -0.061782, 0.063191, -0.079220, -0.008726, 0.016688, 
    0.023220, -0.118183, -0.088507, 0.121106, 0.092631, 0.040428, -0.027598, -0.137623, 
    -0.100634, -0.062207, 0.072198, -0.087071, -0.056052, 0.003553, -0.069078, 0.010988, 
    -0.054048, -0.095995, -0.004916, -0.120975, -0.118928, -0.045592, 0.087966, 0.088025, 
    -0.014407, -0.055910, 0.036322, -0.038213, -0.087797, 0.071293, 0.029024, -0.052693, 
    0.005045, -0.025166, 0.160988, -0.078425, 0.051935, 0.031757, -0.055203, -0.029053, 
    0.080185, 0.058748, 0.004111, -0.113785, 0.050217, -0.102512, -0.042067, 0.071677, 
    -0.003121, -0.045808, -0.002188, 0.037004, -0.026892, -0.000507, 0.011744, -0.070136, 
    -0.121927, 0.039632, -0.075836, 0.051779, -0.088560, -0.013837, 0.088757, -0.000626, 
    0.109534, -0.107288, -0.016979, 0.014845, -0.083602, -0.153923, 0.010433, 0.171411, 
    0.122073, 0.029947, -0.047264, 0.099381, -0.017902, 0.068414, 0.071949, -0.107411, 
    0.040941, -0.015055, -0.019037, -0.034904, -0.158605, 0.031229, -0.044802, -0.172579, 
    -0.047789, -0.101066, -0.077652, -0.152089, -0.088311, -0.030684, 0.030389, 0.022902, 
    0.033187, -0.063978, 0.087164, -0.028244, -0.114538, -0.190184, -0.016201, 0.001527, 
    -0.071682, -0.093045, 0.007531, -0.030589, 0.017987, -0.000914, -0.036273, 0.022984, 
    -0.104697, -0.082343, -0.154820, 0.023588, -0.015117, 0.091892, 0.004260, -0.056303, 
    -0.087630, 0.051053, -0.016779, 0.047095, -0.042358, 0.058551, -0.001492, -0.008259, 
    0.124780, -0.042793, -0.116205, 0.011091, 0.002314, 0.020946, -0.045438, -0.081672, 
    -0.043400, -0.094712, -0.078146, 0.066395, -0.060460, -0.111907, 0.019311, 0.133908, 
    0.024234, -0.053373, -0.061547, 0.093055, 0.018323, 0.092724, 0.070891, -0.003227, 
    0.073927, 0.064791, 0.071758, 0.035890, 0.021821, -0.163675, -0.070768, 0.007909, 
    -0.089689, 0.064608, 0.068370, 0.009157, -0.023792, 0.026279, 0.050075, -0.004759, 
    -0.064834, -0.008040, -0.051360, -0.022159, 0.058280, -0.160035, -0.048076, 0.081007, 
    -0.004563, 0.059136, -0.076948, 0.021139, 0.070690, 0.082568, 0.046303, 0.006721, 
    -0.010266, -0.109264, -0.092945, -0.094992, 0.044859, 0.040355, -0.043488, 0.035400, 
    0.014383, -0.197017, -0.119574, 0.113110, -0.104144, 0.024142, 0.072654, 0.089952, 
    0.089283, 0.036663, -0.076587, -0.089816, 0.112847, -0.008030, -0.097211, 0.035453, 
    -0.047980, 0.069685, 0.108457, 0.022430, 0.004348, -0.086680, -0.024502, -0.044795, 
    -0.097638, 0.020282, -0.047374, 0.030220, -0.029316, -0.111760, -0.011368, 0.024286, 
    0.024102, 0.042271, -0.010290, -0.077619, -0.139003, -0.091813, -0.097498, -0.075777, 
    0.004157, -0.039751, -0.039206, -0.074284, 0.005507, -0.045243, -0.128081, 0.034673, 
    -0.019889, -0.039966, 0.057552, -0.094729, -0.048389, 0.085722, 0.034602, 0.122269, 
    0.056777, 0.152834, 0.020612, -0.068650, 0.067186, 0.066932, -0.039867, 0.069102, 
    0.098834, -0.018821, 0.119561, -0.084860, 0.029245, -0.131071, -0.076425, -0.109106, 
    -0.104268, -0.119778, -0.000428, -0.089838, 0.157740, -0.001443, -0.122152, -0.033333, 
    -0.011180, -0.107445, 0.079059, 0.015824, -0.086317, 0.017017, -0.072033, 0.082341, 
    -0.014546, -0.021250, 0.049994, 0.066271, -0.005183, 0.016223, 0.048369, -0.051889, 
    -0.094312, -0.094432, 0.019369, -0.025654, -0.091752, 0.014605, 0.010493, -0.034524, 
    0.095124, -0.028338, 0.080483, 0.060735, -0.126819, 0.001100, 0.065115, -0.052397, 
    -0.006319, 0.056979, -0.109627, 0.056773, -0.100436, -0.028982, -0.053052, -0.093818, 
    0.063421, -0.027261, -0.044222, -0.058322, 0.100994, -0.105216, -0.034474, -0.023775, 
    0.016099, 0.005572, 0.007874, -0.109172, -0.136627, -0.104560, -0.059225, -0.114149, 
    -0.022962, -0.179570, -0.154007, -0.047071, 0.041762, -0.002287, -0.068458, 0.054696, 
    -0.117844, 0.065024, -0.045773, 0.071839, -0.011030, -0.093740, -0.090183, 0.131294, 
    0.047473, 0.022020, -0.003277, -0.102460, -0.020046, 0.056391, -0.136810, 0.132313, 
    0.086683, 0.058464, -0.026358, -0.128396, 0.057006, 0.031236, 0.093390, 0.076107, 
    -0.035030, -0.042063, -0.091768, -0.022437, -0.045624, 0.023857, -0.019274, -0.047943, 
    0.066429, 0.004144, -0.121673, 0.000669, -0.133480, 0.027806, -0.038246, 0.027141, 
    0.049405, -0.014043, 0.002863, -0.068133, -0.085800, -0.063804, -0.041816, 0.065151, 
    -0.008381, -0.050029, 0.073658, 0.012406, 0.058319, 0.066888, -0.068461, -0.027009, 
    -0.030212, -0.003530, 0.069028, 0.000236, -0.000446, 0.052139, -0.115680, -0.079024, 
    0.015279, 0.044877, 0.087181, 0.041245, 0.069471, 0.053205, -0.059033, -0.087978, 
    -0.054491, -0.095905, -0.028283, -0.052225, -0.070831, -0.029035, -0.041176, -0.031487, 
    -0.073735, 0.044394, -0.030889, 0.024190, -0.016908, 0.049889, 0.043788, 0.098773, 
    0.064429, -0.116784, 0.006607, 0.003886, -0.090170, 0.105952, -0.012294, 0.088902, 
    0.093193, 0.107080, -0.017991, 0.127628, -0.093710, 0.017029, -0.020620, -0.068282, 
    -0.049281, 0.082118, 0.007350, -0.017939, -0.062180, 0.052244, -0.124731, 0.014785, 
    -0.095876, -0.012606, 0.008252, 0.000491, -0.045490, 0.063348, 0.065652, -0.040998, 
    -0.082821, 0.093107, 0.099043, 0.116475, -0.049283, -0.093578, -0.049520, 0.076359, 
    0.061224, 0.079384, -0.045619, 0.044811, -0.000879, -0.048774, -0.002926, 0.000126, 
    0.003608, -0.003502, 0.048461, -0.033626, 0.079507, -0.003483, -0.055646, -0.021249, 
    0.020501, -0.055199, 0.051941, -0.070117, -0.095543, -0.061077, 0.122681, 0.121738, 
    0.118339, 0.058966, 0.086490, -0.042147, -0.010489, -0.046739, -0.084417, -0.024702, 
    0.043984, -0.041311, -0.067082, -0.050935, -0.098178, -0.065134, 0.075385, -0.022469, 
    -0.016795, -0.028049, -0.080883, 0.068799, -0.015008, 0.043660, -0.008666, 0.047687, 
    -0.036512, -0.056072, -0.049513, -0.063442, -0.064548, -0.057638, 0.003238, -0.074258, 
    -0.053044, -0.109003, 0.042837, 0.046026, -0.053197, 0.057041, 0.088250, 0.036896, 
    0.024897, -0.077972, -0.014300, 0.024361, 0.020263, 0.024941, 0.049522, 0.039035, 
    -0.033493, 0.085453, 0.013100, 0.059281, 0.051690, 0.098453, -0.046079, 0.046199, 
    0.009959, -0.085834, -0.028265, 0.076731, 0.092545, -0.081342, 0.023951, -0.005131, 
    -0.047666, 0.019046, -0.068393, -0.063109, -0.004201, -0.033849, -0.021665, -0.077021, 
    -0.088019, 0.080367, 0.087891, -0.031838, 0.073178, 0.046330, 0.049010, -0.076547, 
    0.105349, -0.014234, -0.028311, -0.045223, 0.021959, -0.007330, -0.073485, -0.019313, 
    0.075884, -0.027151, -0.097694, -0.077179, 0.001155, -0.068117, 0.084146, -0.073390, 
    0.011154, 0.035021, -0.030101, -0.113067, 0.058776, 0.024932, 0.044801, 0.036623, 
    -0.053032, 0.014106, -0.069814, -0.115599, -0.005582, 0.139673, 0.015830, 0.031742, 
    0.072204, -0.009277, -0.028214, -0.030537, -0.055815, -0.003820, -0.033439, 0.030733, 
    -0.018983, -0.098805, -0.061752, -0.173731, 0.009115, 0.021090, 0.115963, -0.169445, 
    0.118176, -0.135905, 0.063404, -0.071757, -0.103803, -0.078538, -0.103849, 0.111405, 
    0.005768, -0.080865, -0.067467, 0.062306, -0.079816, -0.059396, 0.013799, -0.085538, 
    0.145100, -0.050049, 0.174082, 0.015710, -0.027601, -0.070612, -0.013296, 0.032138, 
    -0.012780, -0.033547, 0.065031, -0.097994, -0.047872, -0.051774, -0.006345, 0.115413, 
    0.041521, -0.084743, 0.085082, -0.015517, -0.156230, -0.118884, -0.010408, -0.054430, 
    -0.027216, 0.019694, -0.086555, -0.119003, -0.007234, -0.101983, 0.144763, -0.064566, 
    -0.100328, -0.039524, -0.036279, 0.006674, -0.027620, -0.039708, 0.081856, -0.108613, 
    -0.067428, 0.115391, -0.123728, -0.051772, -0.087120, -0.076175, 0.009103, 0.000202, 
    0.057553, 0.100071, -0.080006, 0.048408, 0.008616, -0.087488, 0.059460, -0.089241, 
    0.081172, -0.116463, 0.103968, 0.030071, -0.023802, 0.066878, 0.051864, -0.101170, 
    -0.082866, 0.029037, -0.004940, -0.036376, 0.014726, 0.035027, -0.028391, 0.065256, 
    0.051435, 0.095782, 0.038474, -0.024747, 0.048566, -0.074573, 0.077645, -0.019433, 
    0.099065, -0.021003, -0.054181, -0.056070, 0.099027, 0.006644, -0.081773, -0.039413, 
    -0.095296, 0.084831, -0.055132, 0.051231, 0.042534, -0.035129, 0.069419, 0.003449, 
    0.008557, -0.036618, 0.043844, 0.069577, 0.004310, 0.051756, 0.031678, -0.004037, 
    0.063033, 0.046042, 0.087310, 0.056719, -0.073137, -0.038525, -0.020969, -0.025898, 
    -0.047827, 0.066479, 0.036497, 0.012598, -0.059068, -0.040896, -0.092686, 0.044334, 
    -0.026308, 0.002287, -0.004319, 0.056584, 0.059915, 0.084259, 0.087793, 0.036708, 
    0.067417, 0.070722, -0.108058, -0.027958, 0.010563, -0.027353, -0.089094, -0.066595, 
    -0.039060, 0.060130, 0.034751, -0.017373, 0.010409, -0.059686, -0.022263, -0.044147, 
    -0.012254, -0.101243, 0.019818, -0.027596, -0.071722, -0.060466, 0.002439, -0.060374, 
    0.033823, -0.009302, 0.016366, -0.082391, -0.048751, 0.068644, -0.066394, 0.049576, 
    -0.056326, -0.028171, -0.001945, -0.076281, -0.001404, 0.076796, 0.066337, -0.127666, 
    -0.012830, 0.071986, -0.176650, 0.000840, -0.082257, -0.004685, 0.006402, -0.072576, 
    -0.123614, 0.045883, 0.022676, -0.051842, -0.009731, -0.019636, 0.038003, 0.004378, 
    -0.014690, 0.110981, 0.001487, -0.045961, -0.006798, -0.025752, 0.117427, -0.043663, 
    -0.011567, 0.042688, -0.086596, 0.157415, -0.045874, -0.050266, -0.074358, 0.042036, 
    -0.052295, 0.069566, -0.055583, -0.099028, -0.017755, -0.032600, -0.042069, -0.064937, 
    -0.015432, 0.008547, -0.049977, 0.003806, 0.035789, -0.074777, 0.026110, -0.055246, 
    0.074983, 0.075557, 0.080613, -0.087092, -0.106581, -0.153973, -0.128641, 0.051577, 
    0.121718, -0.120178, 0.012699, 0.108510, 0.039966, -0.039132, 0.062007, 0.033695, 
    -0.057377, -0.101215, 0.072194, -0.009504, 0.080018, 0.001855, 0.031316, -0.003853, 
    -0.058379, -0.138104, 0.028126, -0.006520, 0.091619, -0.067007, 0.022441, 0.098213, 
    0.085462, 0.041475, -0.058992, -0.007632, 0.079147, 0.003722, 0.106548, 0.056270, 
    -0.095953, 0.006752, -0.065662, -0.085559, 0.058846, -0.071311, 0.058320, 0.005813, 
    0.029876, -0.044663, -0.059620, -0.043612, 0.059177, -0.061967, -0.078541, -0.087647, 
    0.094079, -0.079059, -0.061712, 0.055117, 0.022045, -0.072939, 0.045591, -0.004397, 
    0.084821, 0.007757, 0.025543, -0.047260, -0.081769, 0.043899, 0.079285, -0.059946, 
    -0.057619, 0.070150, 0.066721, -0.010422, -0.052004, 0.028094, 0.028837, 0.083807, 
    0.072538, -0.043444, -0.062401, 0.108763, -0.045703, 0.031117, -0.089052, -0.056137, 
    0.000661, 0.072958, 0.083883, 0.018766, 0.053368, -0.085849, -0.036617, 0.149052, 
    -0.074232, -0.036843, -0.091539, -0.020623, -0.082899, -0.167257, 0.035992, 0.073038, 
    -0.023641, -0.014878, 0.018030, 0.007088, -0.056364, 0.052808, 0.059039, 0.052070, 
    0.052933, -0.104046, -0.061398, -0.025062, -0.029460, -0.082580, 0.051720, -0.105246, 
    -0.016887, 0.060626, -0.031636, -0.083190, 0.029485, -0.087734, -0.053409, -0.013161, 
    -0.017677, 0.104863, 0.080348, -0.078894, 0.023360, 0.056048, -0.071130, -0.022354, 
    0.064787, 0.023161, -0.049217, -0.063194, 0.090621, -0.105138, 0.023773, 0.046709, 
    -0.070362, -0.040418, 0.020954, 0.021202, 0.099986, 0.016647, 0.050991, 0.064746, 
    0.096774, 0.048044, -0.020451, -0.039531, -0.081948, -0.086913, 0.011295, 0.089113, 
    -0.080658, 0.105813, 0.001727, 0.016705, 0.029978, 0.041603, -0.016856, 0.038385, 
    -0.080315, -0.025911, -0.105425, -0.076874, 0.071749, 0.020880, -0.084815, 0.060197, 
    0.077747, -0.038169, -0.133479, -0.115129, 0.023532, -0.019232, -0.070606, -0.078386, 
    -0.037470, -0.069589, -0.016226, 0.018059, 0.008567, 0.088730, -0.050110, 0.059535, 
    0.036355, -0.060660, 0.042642, -0.039789, 0.002812, -0.003664, -0.118178, -0.061176, 
    0.076932, -0.014855, 0.027860, -0.068349, -0.037677, 0.027182, 0.041152, -0.055377, 
    0.017676, 0.118180, -0.042935, 0.059701, -0.042247, -0.052172, 0.019980, -0.070560, 
    0.120432, -0.066116, -0.068891, -0.039833, 0.111524, 0.077802, -0.125049, -0.032835, 
    0.109409, -0.033556, -0.020033, -0.082570, -0.037508, -0.017185, -0.080831, -0.052338, 
    0.057872, -0.086301, 0.030283, -0.031938, 0.017651, 0.016448, -0.147553, 0.014746, 
    -0.078912, -0.102627, 0.016727, -0.012523, 0.028603, -0.106524, -0.004298, -0.074765, 
    -0.010829, -0.055883, -0.028077, 0.074130, -0.024835, -0.012806, 0.076818, 0.076520, 
    -0.019933, 0.000319, 0.050997, -0.011013, 0.065738, 0.049759, -0.028442, -0.014506, 
    0.083833, 0.114364, 0.035498, -0.066370, 0.128321, -0.142228, 0.037718, -0.131017, 
    -0.060979, -0.115540, 0.042108, 0.084778, 0.017463, 0.081474, -0.047252, 0.049980, 
    -0.007922, 0.064372, -0.082340, 0.066194, 0.018038, -0.099071, -0.030991, -0.019204, 
    -0.140325, 0.030026, 0.123193, -0.146979, -0.105845, -0.122664, -0.046381, -0.126464, 
    0.028536, 0.006190, -0.050135, 0.005627, -0.098444, -0.024061, 0.076413, 0.088981, 
    0.132225, 0.042162, -0.001365, -0.026283, -0.037645, -0.126071, -0.133475, 0.021305, 
    -0.031703, 0.071105, -0.174080, -0.088817, 0.017143, 0.031811, 0.143951, 0.118013, 
    0.120647, -0.152437, -0.005100, 0.040698, -0.072780, 0.063426, 0.056118, 0.041946, 
    -0.066935, -0.027176, -0.133252, -0.052146, 0.034966, 0.010343, 0.075990, -0.028672, 
    -0.056078, -0.074550, 0.037511, 0.074731, 0.004584, -0.093587, -0.052097, -0.039908, 
    -0.075967, -0.092884, -0.040685, 0.054548, -0.034418, -0.090364, 0.013059, 0.037876, 
    0.096782, 0.032697, -0.016155, 0.071284, -0.108471, -0.088625, -0.091804, -0.032759, 
    -0.029274, 0.002799, -0.089633, 0.027179, -0.064826, -0.091265, 0.057330, -0.057684, 
    -0.017517, -0.059421, 0.054780, -0.014801, -0.057559, -0.091027, 0.082044, 0.045498, 
    -0.030346, -0.082935, -0.063869, -0.039346, -0.027069, 0.045604, 0.085986, 0.035819, 
    -0.013515, 0.026410, 0.013512, 0.019479, 0.058381, 0.082875, -0.030438, -0.075519, 
    0.018147, 0.090963, -0.048948, -0.095470, 0.046996, -0.001542, 0.074956, 0.064146, 
    -0.053674, -0.084859, 0.070343, 0.022711, 0.104598, 0.084831, -0.052786, 0.031671, 
    -0.041189, 0.009793, -0.016805, -0.072834, -0.025235, 0.076495, -0.018586, -0.100303, 
    0.075157, -0.111743, -0.179752, 0.058930, 0.012951, -0.111942, 0.076691, -0.049101, 
    -0.147813, -0.068894, 0.051053, -0.163550, 0.060625, 0.065520, -0.033132, -0.118657, 
    0.078977, 0.152371, 0.045349, -0.174440, -0.212067, -0.098991, -0.104304, -0.139588, 
    -0.015245, 0.072389, -0.024117, 0.029941, 0.102286, -0.117545, -0.058181, -0.004308, 
    -0.020381, -0.028880, -0.112362, 0.076849, 0.055085, -0.084856, 0.045196, -0.020592, 
    -0.049289, -0.132554, -0.021482, -0.053394, 0.028462, 0.068412, 0.102255, -0.043810, 
    -0.006961, -0.078056, -0.065908, -0.102458, 0.086772, -0.036315, -0.181046, -0.131307, 
    -0.041948, -0.062310, -0.058704, -0.024473, -0.021454, 0.001497, -0.098559, -0.047259, 
    -0.111212, -0.167820, -0.057010, 0.057189, 0.059929, -0.050943, 0.111456, 0.023435, 
    -0.053498, 0.028206, 0.004653, 0.021990, 0.094586, 0.026175, -0.104065, -0.017726, 
    0.036938, -0.135868, 0.027576, 0.008587, -0.003404, 0.080333, -0.057109, -0.009650, 
    -0.018941, 0.061891, -0.118775, -0.079392, -0.045752, 0.010045, 0.002802, 0.073818, 
    -0.024638, -0.038515, 0.037751, -0.075992, -0.107719, 0.030962, 0.013160, -0.068983, 
    -0.005050, 0.084876, -0.056105, -0.055111, 0.086656, 0.061843, 0.068256, -0.053838, 
    -0.018945, -0.023987, 0.076660, 0.000566, -0.012083, 0.030957, 0.111481, 0.073885, 
    0.009550, -0.017758, 0.051722, 0.052195, -0.099796, -0.011605, -0.004978, 0.061994, 
    -0.105157, 0.054577, -0.043627, -0.018819, -0.082086, -0.038540, 0.046449, 0.056273, 
    0.015885, 0.067417, 0.100588, -0.056639, 0.113489, 0.034585, 0.078773, 0.056757, 
    -0.036411, -0.135940, 0.121407, 0.043034, 0.047063, -0.123758, -0.086294, 0.024237, 
    -0.030781, -0.160182, -0.031416, -0.039040, -0.057271, -0.092839, -0.167502, 0.078674, 
    -0.045136, -0.048798, -0.149727, -0.124761, 0.078285, 0.013998, 0.096718, -0.066051, 
    0.080951, 0.088733, 0.146887, 0.009659, 0.079266, -0.009708, -0.015841, 0.028415, 
    -0.079802, -0.287475, -0.101900, -0.055770, -0.013357, 0.052921, -0.100310, 0.033225, 
    0.066102, 0.027199, -0.108757, 0.011166, 0.081026, -0.020706, 0.126662, -0.065661, 
    -0.061553, -0.449094, -0.050798, -0.081420, 0.018464, -0.139328, 0.108419, -0.143744, 
    -0.067257, -0.083705, -0.101251, -0.171964, -0.119920, -0.135706, -0.013684, -0.107433, 
    -0.095452, -0.089800, -0.027736, -0.039705, -0.038335, -0.274036, -0.057478, 0.064704, 
    0.027503, -0.051015, -0.182022, 0.013380, 0.018054, 0.102239, 0.077941, 0.047413, 
    0.003923, -0.053107, 0.107427, 0.047657, 0.007750, 0.003723, 0.097262, 0.084820, 
    0.056786, 0.031750, -0.032320, -0.067647, 0.036179, 0.048747, 0.097434, 0.043214, 
    0.096852, -0.026953, 0.090817, 0.056260, 0.070952, -0.063320, 0.057568, -0.025295, 
    -0.094324, 0.071537, 0.023398, 0.093464, -0.090009, -0.023447, -0.092808, 0.045677, 
    0.022367, -0.056076, 0.074194, -0.025700, -0.102717, 0.025530, 0.037193, -0.001599, 
    0.037407, 0.054052, 0.027990, -0.137735, 0.080782, 0.037580, 0.075558, -0.054198, 
    -0.059144, 0.071760, 0.104821, 0.040887, -0.027246, -0.048244, -0.135119, -0.118646, 
    0.108830, 0.114172, -0.089149, 0.120327, 0.009839, -0.100145, 0.036511, 0.051789, 
    0.078079, -0.000683, -0.007635, 0.052395, 0.068392, 0.053838, 0.072317, -0.141948, 
    -0.167691, -0.103821, -0.024515, -0.005395, 0.020530, -0.037458, -0.140192, -0.009992, 
    -0.058927, 0.042201, -0.027879, 0.090202, -0.099644, -0.028493, -0.041390, -0.010702, 
    -0.057369, 0.077600, -0.083113, 0.044555, 0.019271, 0.021734, 0.007333, 0.053198, 
    -0.012069, -0.026356, 0.005258, -0.098417, 0.022217, -0.059587, -0.038681, -0.046533, 
    0.083189, -0.055340, -0.081692, -0.032775, 0.084265, -0.025523, -0.096369, 0.088454, 
    0.047061, -0.031142, 0.109661, -0.007174, 0.075913, -0.003001, 0.087800, -0.001633, 
    0.004318, 0.057232, 0.071824, 0.111798, -0.086059, -0.179055, -0.046319, -0.030270, 
    0.001439, 0.052824, -0.029703, -0.058923, 0.093361, -0.029494, 0.044900, -0.006831, 
    -0.036521, 0.020652, -0.034966, -0.082875, -0.028730, -0.020550, -0.088963, 0.033152, 
    -0.024583, 0.046484, -0.102072, -0.026137, -0.064632, 0.000858, -0.089557, 0.082482, 
    -0.110639, 0.017496, 0.022245, -0.020354, 0.018925, -0.165871, -0.147708, 0.035988, 
    -0.090229, -0.055160, -0.039943, 0.053259, -0.012799, -0.111187, -0.113597, -0.081925, 
    0.000453, 0.023563, 0.013413, -0.090484, 0.021301, 0.009493, -0.033627, -0.150262, 
    -0.109144, -0.136854, 0.040115, 0.078454, -0.060060, -0.096441, -0.118582, -0.072763, 
    -0.055774, 0.053174, 0.028013, 0.048378, 0.106016, -0.098911, 0.008944, 0.042798, 
    -0.060496, -0.045111, -0.082727, 0.049088, -0.115351, 0.037296, 0.083842, 0.079399, 
    -0.105573, 0.046348, 0.124913, -0.074025, -0.121224, -0.118020, 0.026822, -0.081466, 
    -0.037227, 0.051713, -0.074883, 0.067872, 0.007301, 0.094552, 0.125166, 0.063506, 
    0.073155, -0.078212, -0.050697, 0.030851, 0.050180, -0.029069, -0.098361, -0.095984, 
    0.054206, -0.053639, 0.040444, 0.059907, 0.018545, -0.030947, -0.024790, -0.006923, 
    0.002078, -0.051653, -0.106995, -0.106033, 0.027321, -0.086428, -0.043092, -0.012301, 
    0.012468, 0.012483, 0.098234, -0.144679, 0.000901, 0.066896, 0.007540, -0.055580, 
    -0.088721, 0.067171, -0.061713, 0.074213, -0.070756, -0.120630, 0.067913, -0.056067, 
    -0.067786, 0.057837, -0.021103, 0.018859, -0.058229, -0.006636, -0.012007, -0.059036, 
    -0.058389, 0.042970, 0.081311, -0.028667, -0.055298, 0.001099, -0.061134, -0.166438, 
    0.072652, -0.016539, -0.116417, 0.009575, 0.063899, 0.052099, 0.022929, -0.097115, 
    -0.061005, -0.079432, -0.141222, 0.009899, -0.024118, 0.057867, 0.070776, -0.062008, 
    -0.092931, -0.059319, -0.033235, 0.050327, 0.024100, -0.023326, -0.039294, -0.156272, 
    -0.049012, -0.082695, -0.078478, 0.021708, 0.060636, -0.011488, 0.071618, 0.099875, 
    -0.048851, -0.061612, -0.067408, 0.090685, -0.031388, -0.022126, -0.023767, 0.025149, 
    -0.051801, 0.031791, 0.013357, 0.036753, 0.093260, 0.038917, 0.035035, 0.081397, 
    0.071006, 0.069728, 0.063839, -0.096689, 0.039370, 0.102262, -0.047889, -0.037254, 
    -0.049060, -0.072945, -0.066851, 0.079783, 0.065226, -0.010773, -0.090251, 0.113520, 
    0.055700, -0.039325, -0.030106, -0.106825, 0.068438, -0.030788, -0.025260, 0.105210, 
    -0.077943, 0.006820, -0.061484, -0.027187, 0.052251, -0.006900, -0.136083, 0.074753, 
    0.004871, -0.107765, -0.056937, 0.061064, 0.036832, 0.007928, 0.046645, -0.025499, 
    0.094560, 0.063820, -0.079162, 0.103214, 0.017866, 0.013656, 0.091126, -0.054265, 
    0.111607, 0.005895, 0.039581, 0.024437, 0.036792, -0.026968, 0.066599, -0.057608, 
    -0.079896, -0.167978, 0.079842, -0.073875, -0.056011, 0.073950, -0.108192, 0.046204, 
    -0.060670, -0.019269, 0.027769, -0.135024, 0.021932, 0.101739, -0.032917, -0.110679, 
    -0.006449, 0.099821, -0.089408, -0.118256, -0.122320, -0.034840, -0.145270, -0.016740, 
    -0.103424, 0.036877, -0.040495, 0.104289, 0.061333, 0.096406, -0.016113, -0.040228, 
    0.037110, -0.065834, -0.116601, 0.060501, 0.067292, 0.023123, 0.103709, -0.077943, 
    -0.063256, 0.014484, -0.017147, -0.010900, -0.030509, 0.094118, -0.110142, 0.004622, 
    -0.055989, -0.044473, -0.019259, 0.041887, 0.077226, -0.026199, 0.011204, -0.106969, 
    -0.109747, -0.044231, 0.046579, 0.103579, -0.019182, -0.012864, 0.074450, -0.058765, 
    -0.044230, 0.050187, -0.062434, -0.048602, 0.089614, -0.064810, -0.060035, -0.258783, 
    0.066760, -0.013145, 0.050785, 0.076603, 0.070680, -0.060579, -0.062284, -0.039094, 
    0.097702, 0.039979, -0.011045, -0.059028, -0.001700, -0.071107, -0.033221, 0.006232, 
    -0.028589, 0.060820, -0.031398, 0.010363, -0.033776, -0.099947, -0.075355, -0.022564, 
    -0.033749, -0.159477, -0.091792, -0.160394, 0.060592, -0.146416, 0.042782, -0.089002, 
    -0.061534, -0.043012, 0.036342, -0.048626, -0.062458, -0.040410, 0.072744, 0.085414, 
    -0.057537, 0.161887, -0.034517, -0.065839, 0.023203, 0.098383, 0.095612, 0.088741, 
    0.095194, -0.199022, -0.117895, -0.040668, 0.018318, -0.102911, 0.106639, -0.145699, 
    -0.110177, -0.263327, -0.087367, -0.070343, -0.282252, -0.061584, -0.020857, -0.160189, 
    0.057015, 0.018236, 0.023812, -0.021154, -0.010839, 0.055391, -0.063917, -0.104213, 
    0.061708, -0.090980, -0.039173, 0.036051, 0.060173, -0.014476, -0.048840, -0.037257, 
    -0.027137, -0.041099, 0.037027, -0.008247, 0.100076, -0.008320, -0.005331, 0.054234, 
    0.017663, -0.023947, 0.066915, 0.006495, 0.096974, -0.059009, 0.017814, -0.054035, 
    0.019152, 0.078709, 0.094990, 0.061901, 0.114964, 0.003718, -0.007643, -0.047696, 
    -0.055202, 0.006799, 0.061498, 0.077610, 0.022379, -0.010008, -0.086203, 0.015089, 
    -0.042737, 0.021576, -0.063443, 0.045511, 0.011568, 0.017365, 0.087159, -0.015968, 
    0.041153, -0.080204, 0.010059, 0.010129, 0.010662, 0.091261, -0.023432, 0.027648, 
    -0.098730, 0.049631, 0.051765, 0.075636, 0.076574, -0.084506, 0.104484, 0.100550, 
    0.060700, -0.083544, 0.026642, 0.032734, -0.056533, -0.041690, 0.020838, -0.041689, 
    0.091082, 0.092292, -0.053593, -0.019240, -0.032473, 0.041223, -0.053719, -0.079424, 
    -0.012969, -0.088893, -0.038367, -0.025756, 0.054231, -0.058185, 0.046785, 0.016605, 
    -0.113621, -0.024348, -0.043172, -0.006656, 0.031447, 0.008704, 0.044401, 0.089408, 
    0.014725, -0.081619, -0.032246, 0.037093, 0.127881, 0.017139, -0.065379, 0.118773, 
    -0.073268, 0.049669, -0.067297, 0.030459, -0.065920, -0.115215, 0.093138, -0.060827, 
    0.071398, -0.069008, -0.007004, -0.058868, -0.009230, 0.085892, -0.073772, 0.110971, 
    0.063657, 0.043652, 0.098885, 0.058371, -0.023804, 0.117254, -0.069922, 0.026208, 
    -0.027000, 0.029141, -0.020566, -0.173780, -0.140055, -0.114248, 0.064140, 0.138682, 
    0.141962, -0.197095, -0.073979, 0.112301, 0.004764, -0.204073, -0.070154, -0.019221, 
    -0.103849, 0.128754, -0.156824, 0.102685, -0.048709, 0.048386, 0.067648, -0.043781, 
    -0.125130, -0.011610, 0.082475, -0.059309, -0.088393, -0.085617, -0.108882, -0.013352, 
    -0.103650, -0.104504, -0.158485, -0.107466, -0.038248, -0.005076, -0.002686, 0.095439, 
    -0.097065, 0.088086, 0.108618, 0.130661, -0.026241, 0.011471, 0.036781, 0.048944, 
    -0.028218, 0.013963, -0.017199, -0.065016, 0.068897, -0.047670, 0.036789, -0.085090, 
    -0.014141, -0.066980, -0.053028, -0.070096, 0.069611, -0.005851, 0.064320, -0.102852, 
    0.030818, -0.032392, 0.126444, 0.007317, -0.026010, 0.066581, -0.077894, 0.052777, 
    0.036917, 0.027916, -0.105069, -0.000432, -0.011839, -0.016875, 0.048265, 0.023650, 
    -0.005400, -0.099147, 0.050452, 0.031780, 0.074627, 0.054755, -0.067173, 0.055937, 
    -0.014174, 0.020527, -0.008305, -0.028605, 0.064183, 0.014031, -0.004777, -0.030826, 
    -0.014315, -0.087570, 0.017597, 0.023015, -0.027886, -0.034676, -0.000658, 0.065860, 
    0.066054, -0.054690, 0.027165, 0.090712, -0.052172, -0.101699, -0.006313, -0.055946, 
    0.050492, 0.050488, 0.105943, 0.081622, -0.092515, 0.016972, 0.016333, -0.045100, 
    -0.038304, 0.027097, -0.080009, 0.070910, -0.003924, 0.037322, 0.038493, -0.062944, 
    -0.042500, -0.032499, -0.061881, -0.017464, -0.085093, -0.015855, 0.067770, 0.078451, 
    0.004932, -0.145598, 0.081717, -0.137716, 0.054840, -0.129525, 0.078737, -0.068868, 
    0.066524, -0.039535, -0.014324, -0.018390, -0.010711, -0.161887, -0.019496, 0.032099, 
    0.071671, 0.062949, 0.005658, 0.027433, -0.218701, 0.018450, -0.088975, -0.029707, 
    -0.091620, 0.025241, 0.073057, -0.044095, -0.194134, 0.095138, 0.050010, 0.047720, 
    -0.026868, -0.071660, 0.033964, -0.027422, 0.112399, -0.006697, 0.011389, -0.106792, 
    -0.032126, -0.143707, -0.006007, 0.007995, -0.005105, 0.004515, -0.078090, 0.057160, 
    0.011026, -0.033353, 0.085943, -0.028160, -0.003048, 0.089113, -0.047668, -0.053161, 
    -0.034862, 0.100470, -0.064449, -0.056139, 0.095831, 0.023884, -0.110406, -0.015379, 
    -0.059615, 0.043842, -0.093889, 0.071737, 0.085808, -0.101613, -0.067578, 0.018648, 
    0.120244, 0.039307, 0.078744, 0.125761, 0.055173, 0.084803, 0.034799, -0.030165, 
    -0.001218, 0.014497, -0.020883, -0.010818, 0.023254, 0.066942, -0.079086, -0.099848, 
    -0.080697, -0.134148, -0.095603, 0.016841, 0.061475, -0.067150, 0.005320, 0.055307, 
    -0.048443, 0.116585, -0.178830, 0.027080, -0.052355, -0.080813, -0.092124, 0.081783, 
    0.039745, -0.064451, 0.035258, 0.088891, -0.058688, 0.001701, -0.010842, 0.021521, 
    -0.040377, 0.036241, -0.125165, -0.058317, 0.016396, 0.097493, 0.073715, 0.020441, 
    -0.014668, -0.023880, -0.073060, -0.095776, -0.042854, -0.051826, 0.050561, -0.063261, 
    0.069922, 0.043051, 0.057125, -0.104595, 0.062420, 0.060594, 0.099636, 0.026525, 
    -0.095896, 0.093579, -0.031942, 0.024960, -0.002032, 0.075358, 0.061554, -0.000623, 
    0.042830, 0.096947, 0.025395, 0.044872, -0.004437, 0.101468, 0.075478, -0.047902, 
    0.072741, 0.022565, 0.051007, 0.017773, -0.053043, 0.071474, 0.102886, 0.062569, 
    0.035425, -0.077667, 0.003570, 0.065571, -0.044806, -0.093682, -0.054251, 0.067754, 
    -0.098135, 0.026904, -0.031584, -0.021254, -0.100564, -0.019914, -0.077449, 0.029056, 
    0.014179, 0.077145, -0.096585, -0.073173, -0.077925, 0.017015, -0.067105, -0.003764, 
    0.089128, 0.056218, -0.016011, 0.012441, 0.086501, -0.069940, -0.033907, 0.040159, 
    -0.093661, -0.050690, 0.049496, -0.007102, -0.030581, -0.070020, 0.105570, 0.016345, 
    -0.003818, 0.045422, 0.043205, -0.015805, -0.038643, -0.103558, -0.027256, -0.020066, 
    -0.024111, 0.034060, 0.094004, 0.007478, -0.022946, -0.053499, -0.061761, 0.019657, 
    -0.144686, -0.025703, 0.012171, -0.008542, 0.079073, -0.035781, 0.105284, 0.095412, 
    0.099570, 0.113157, 0.018834, -0.004057, 0.015554, -0.024799, 0.079023, 0.106809, 
    0.078434, -0.063399, -0.165126, 0.058076, -0.007484, -0.112787, -0.023579, -0.049308, 
    -0.166208, -0.093417, -0.057592, -0.022003, 0.010538, 0.000156, -0.010632, -0.044896, 
    -0.086751, 0.071804, 0.002034, 0.020043, -0.084863, -0.003163, 0.166059, 0.064892, 
    -0.042583, 0.071880, -0.059681, 0.035624, 0.083761, 0.039808, -0.002949, -0.136338, 
    -0.040324, -0.052011, 0.011558, -0.069855, 0.086655, 0.042513, 0.001254, -0.075457, 
    0.034030, 0.067684, 0.076585, 0.086314, 0.029214, -0.030951, -0.186046, 0.050816, 
    0.075719, -0.099657, -0.034479, -0.104725, 0.000527, -0.031984, 0.006728, -0.058766, 
    -0.090746, -0.036070, -0.007898, 0.066490, 0.049169, -0.033578, -0.059742, 0.049187, 
    -0.007251, -0.090144, -0.088218, -0.084001, -0.041460, -0.081935, -0.000624, -0.012012, 
    -0.041010, -0.075844, 0.004776, -0.041185, 0.025326, -0.041565, -0.089704, 0.019871, 
    -0.079445, -0.039104, 0.034143, 0.018868, -0.011661, 0.125417, -0.049228, -0.006520, 
    -0.078120, -0.086756, -0.094082, 0.009661, -0.047854, 0.006093, 0.053110, 0.001170, 
    0.080279, 0.010708, -0.062962, 0.008034, -0.058843, -0.103212, 0.007425, -0.065386, 
    0.018518, -0.056573, -0.087754, 0.031636, -0.084102, -0.090923, 0.020439, -0.060796, 
    -0.069977, 0.009846, -0.069248, -0.012070, 0.058898, 0.060794, 0.101822, -0.006833, 
    0.051340, 0.076300, 0.060604, 0.037826, 0.047467, 0.051506, 0.021991, 0.082438, 
    0.034495, 0.046864, -0.005335, -0.067400, -0.070894, 0.065054, 0.031568, -0.033031, 
    0.055874, 0.130432, -0.019403, -0.110003, -0.047278, -0.120244, -0.079095, -0.009048, 
    -0.085573, -0.120373, -0.011740, -0.078238, 0.011937, -0.009158, -0.054981, -0.107442, 
    0.072522, 0.035868, 0.044022, 0.010743, 0.017912, -0.031888, 0.025316, 0.098536, 
    0.064339, -0.102930, 0.070572, 0.065293, -0.067328, 0.071776, 0.063596, 0.071972, 
    0.016547, 0.031048, 0.139784, -0.046828, 0.081905, -0.069845, 0.061599, -0.091226, 
    -0.047197, -0.122954, -0.127234, 0.080207, -0.042260, 0.153159, -0.186336, -0.001940, 
    -0.053581, 0.029675, 0.029632, -0.002189, -0.005313, 0.037356, -0.085022, 0.072664, 
    -0.066107, 0.093743, 0.095342, 0.012572, 0.001468, -0.012230, -0.083393, 0.073621, 
    0.007053, 0.040432, -0.055956, -0.031458, -0.083662, -0.028914, -0.068767, 0.053290, 
    0.056622, 0.047409, 0.012796, -0.025307, -0.007269, 0.054890, -0.014423, -0.065365, 
    -0.100952, 0.015925, -0.038870, 0.079217, -0.070425, -0.072758, -0.085770, 0.062891, 
    -0.053008, 0.084692, 0.093631, -0.005898, 0.035800, 0.012911, -0.001383, 0.143083, 
    -0.005442, -0.044786, -0.110265, -0.082837, -0.099080, -0.070416, 0.079580, 0.060997, 
    -0.087602, -0.118658, -0.071541, -0.124751, 0.058887, -0.025339, -0.084690, -0.001244, 
    -0.087461, -0.101423, 0.017176, -0.103602, -0.067736, -0.088633, 0.098839, -0.229821, 
    0.006835, -0.007220, -0.001700, -0.115082, -0.014012, -0.116778, 0.042964, -0.072779, 
    -0.212821, 0.067338, -0.075356, -0.158956, -0.008167, -0.019904, -0.069151, -0.034768, 
    0.038560, -0.093608, -0.011923, 0.053100, 0.070165, 0.022839, -0.024044, 0.093002, 
    -0.026645, 0.031326, -0.043329, 0.082453, -0.014099, 0.046025, 0.039201, 0.077786, 
    0.080677, 0.004072, -0.064278, -0.079269, -0.090745, -0.081233, 0.030477, 0.042828, 
    -0.051441, -0.054619, -0.044204, -0.122382, 0.080013, -0.094803, -0.050234, 0.016964, 
    -0.037953, 0.009339, -0.088134, 0.055237, -0.070655, 0.039314, -0.059467, 0.055630, 
    0.064230, 0.024396, 0.065653, 0.039004, -0.080755, -0.166573, 0.021844, 0.021423, 
    -0.093024, 0.020533, -0.102982, 0.023828, 0.021650, 0.035087, -0.032775, -0.052327, 
    -0.054626, -0.076331, 0.068007, 0.079917, 0.076419, 0.027453, 0.111790, 0.060460, 
    0.094305, -0.110173, 0.171250, -0.033124, -0.110245, -0.078382, 0.059949, -0.116162, 
    0.055157, -0.042156, -0.052954, -0.106400, -0.089946, -0.050404, 0.027642, 0.045414, 
    0.157416, 0.072711, -0.093984, -0.105103, 0.031741, 0.045344, 0.084590, 0.102140, 
    0.051998, 0.021657, -0.010461, -0.053410, -0.010283, 0.014227, -0.096113, 0.031922, 
    0.031583, -0.061019, -0.073258, 0.058301, 0.082376, -0.086263, -0.089377, -0.088715, 
    -0.121612, -0.052999, 0.056497, 0.068476, -0.007928, -0.050760, 0.014159, -0.003072, 
    0.121154, -0.018316, 0.072516, 0.063050, -0.062860, -0.069159, -0.024865, -0.039224, 
    -0.028685, -0.050975, 0.053239, 0.053911, -0.009291, 0.011354, -0.013564, -0.085864, 
    -0.000726, -0.053053, -0.032298, -0.162932, -0.114181, -0.014515, 0.058342, 0.045263, 
    0.101422, -0.040168, -0.017023, 0.011647, 0.101928, 0.042824, 0.138532, 0.125966, 
    -0.068422, -0.114386, 0.048525, 0.141862, -0.113206, -0.069923, -0.004682, -0.034329, 
    -0.083875, -0.120156, -0.103429, 0.153147, 0.000826, 0.024273, -0.040736, 0.074001, 
    -0.144104, -0.013019, 0.049222, -0.009407, -0.055700, -0.025113, -0.148700, -0.120867, 
    0.019925, -0.102557, 0.049992, -0.035449, 0.038144, 0.054271, 0.056161, -0.020446, 
    0.087500, -0.028586, -0.045508, -0.070826, -0.069605, -0.020355, -0.109297, -0.091961, 
    0.074544, -0.062097, 0.014183, 0.076690, -0.095770, 0.004947, 0.115910, 0.002119, 
    0.073232, 0.019003, 0.076676, 0.042428, -0.083733, -0.041726, 0.028099, -0.023454, 
    0.081233, -0.077400, -0.061579, 0.062903, 0.118844, -0.070398, -0.084008, -0.097656, 
    0.014246, 0.058989, -0.118482, 0.029427, -0.127617, -0.082913, 0.083411, -0.008414, 
    0.067981, -0.000960, 0.010882, -0.011743, 0.033982, 0.054046, 0.009949, -0.062005, 
    0.010349, 0.075460, -0.072022, -0.055633, 0.033835, -0.112438, 0.111215, 0.101875, 
    -0.129200, -0.011408, -0.030452, -0.009987, -0.020265, 0.020622, 0.116627, -0.079925, 
    0.012132, -0.120060, 0.008945, -0.009635, -0.056377, -0.136657, 0.034615, -0.111084, 
    0.113351, 0.095283, -0.028775, -0.099478, 0.118163, 0.078198, 0.025172, 0.063947, 
    0.075933, -0.011829, 0.070178, -0.086609, 0.078620, 0.036716, 0.031164, -0.029899, 
    0.026617, -0.075212, 0.009283, 0.055372, 0.036920, 0.032406, 0.087495, 0.083924, 
    0.012034, 0.020147, -0.110372, -0.009408, -0.087328, -0.072929, -0.006664, -0.008859, 
    0.104933, 0.064497, -0.058129, 0.110046, -0.085578, 0.073638, -0.090384, -0.034375, 
    0.040053, 0.059407, -0.195071, 0.014672, 0.070085, 0.069903, -0.059037, 0.025077, 
    -0.038381, -0.087661, 0.014635, 0.023364, 0.024366, -0.108543, -0.083194, -0.014723, 
    -0.033445, -0.095761, -0.004470, -0.125844, -0.011659, 0.029751, 0.072291, 0.063715, 
    0.000200, -0.023827, -0.173155, 0.033920, 0.043227, -0.063576, 0.103750, -0.101392, 
    0.026105, 0.009105, -0.021010, 0.050053, 0.127967, 0.057392, 0.068516, 0.099310, 
    0.123020, 0.044296, 0.070474, -0.095311, 0.026424, 0.093025, 0.084844, 0.080299, 
    -0.050690, -0.122831, 0.004067, -0.069090, 0.030620, 0.080663, -0.002454, 0.052925, 
    0.035981, 0.046375, 0.079001, 0.043277, 0.021963, -0.055229, 0.080722, -0.023589, 
    0.055385, -0.074793, 0.097137, 0.112186, -0.083846, 0.016216, 0.089206, -0.005575, 
    -0.072185, 0.083396, 0.095668, -0.068917, 0.008849, 0.027087, -0.074306, -0.039164, 
    0.029620, -0.044471, -0.105810, -0.042939, -0.050543, 0.077413, -0.032379, 0.097514, 
    0.064729, 0.104675, -0.019390, -0.098896, -0.028143, 0.058063, 0.035346, -0.137615, 
    -0.051841, -0.160318, -0.117728, -0.108250, 0.069540, 0.071868, 0.021579, -0.234046, 
    -0.081192, 0.063426, -0.109847, 0.012269, 0.081673, -0.037639, -0.163844, -0.122020, 
    -0.059904, -0.009534, -0.057257, -0.084297, -0.132055, -0.172961, -0.198390, -0.141213, 
    0.004944, -0.140496, -0.151197, 0.048765, -0.166108, -0.032484, -0.074719, -0.169764, 
    -0.162357, 0.041781, -0.134538, -0.114959, -0.091660, 0.023919, -0.000236, 0.034384, 
    -0.106918, -0.108593, -0.191912, -0.074563, -0.005760, -0.025537, 0.055590, 0.058794, 
    -0.047715, -0.018783, 0.006164, 0.032282, 0.017144, -0.033065, 0.017936, -0.102302, 
    0.012698, 0.068707, -0.079266, 0.092921, -0.047625, 0.088458, -0.002596, 0.104960, 
    -0.042294, -0.014487, -0.065942, 0.050772, -0.040140, -0.039624, 0.075559, 0.023954, 
    -0.037181, 0.043423, 0.011479, 0.087220, -0.067472, -0.093303, -0.101547, 0.007098, 
    0.087815, 0.006021, -0.075836, -0.024531, 0.022781, -0.051231, -0.104125, -0.015969, 
    0.053230, 0.120857, 0.065349, 0.007631, 0.084323, 0.117961, 0.049867, 0.084266, 
    -0.007694, -0.001610, -0.038097, 0.008539, -0.070643, -0.054167, 0.112870, 0.102570, 
    -0.051313, -0.080489, -0.051859, -0.111712, -0.102934, 0.013413, 0.014649, 0.020648, 
    -0.030961, -0.010431, -0.138606, 0.009597, -0.040490, -0.145440, -0.109544, 0.038165, 
    0.003599, 0.053978, -0.010572, 0.053215, -0.023483, 0.096302, -0.017428, 0.096728, 
    -0.104197, -0.110000, 0.091602, -0.079958, -0.081522, -0.005947, -0.060783, 0.081746, 
    -0.064424, -0.005862, 0.059399, -0.080850, 0.012801, 0.087773, 0.084819, 0.039546, 
    0.066866, -0.101688, 0.072236, -0.067943, 0.097118, 0.077638, 0.100563, 0.067836, 
    0.078039, -0.013054, 0.059032, 0.066134, -0.069520, 0.053918, -0.016127, 0.006174, 
    -0.081953, -0.089076, -0.091625, 0.030590, 0.025218, -0.039664, 0.027096, 0.043470, 
    -0.006744, -0.050359, -0.080534, 0.063932, -0.049939, 0.131771, -0.065988, 0.075314, 
    -0.054768, 0.067016, -0.075355, -0.108982, -0.068825, 0.002138, 0.047262, -0.010525, 
    -0.021832, 0.054637, 0.096988, -0.020388, 0.040608, -0.013990, 0.028974, -0.028786, 
    -0.037336, -0.116516, 0.010911, 0.111832, -0.079571, -0.076719, -0.040828, 0.008616, 
    -0.064710, 0.022054, -0.044935, 0.049264, -0.068273, -0.049286, 0.037760, -0.012636, 
    -0.065612, -0.096517, 0.048419, -0.024825, -0.005916, -0.118217, -0.027928, -0.066595, 
    0.036174, 0.090533, 0.013217, -0.021951, 0.093804, 0.103137, -0.060842, 0.039902, 
    0.078770, -0.029017, 0.084346, -0.083320, -0.003590, -0.099482, 0.044834, -0.057033, 
    0.093358, -0.028993, -0.001750, 0.029008, 0.097808, -0.056554, -0.138649, -0.053540, 
    -0.043159, 0.071240, 0.071991, -0.045523, -0.095424, -0.002876, -0.097361, -0.016598, 
    0.086161, 0.017448, 0.039749, 0.034767, -0.008354, 0.077247, 0.007518, 0.098537, 
    0.058013, 0.075432, -0.040238, 0.033764, -0.087969, -0.015820, -0.075973, 0.003992, 
    0.081793, 0.046300, 0.089765, -0.075805, 0.005709, -0.083764, 0.075723, 0.013678, 
    -0.033363, 0.013937, -0.046946, -0.060241, 0.041300, 0.060219, 0.082478, 0.095141, 
    0.001366, 0.008156, 0.076225, 0.067782, -0.026062, 0.018804, 0.012503, -0.004729, 
    -0.101924, 0.006465, -0.065787, -0.031100, -0.036530, -0.038482, 0.000611, -0.045916, 
    0.084051, -0.015100, 0.003832, -0.067744, 0.097537, 0.093986, -0.029788, -0.035460, 
    0.051237, 0.103423, -0.011881, -0.065861, -0.042814, -0.095105, 0.018856, 0.076918, 
    0.027142, 0.037360, 0.051166, -0.007949, 0.013430, 0.014056, 0.053089, -0.097756, 
    -0.022882, 0.073640, 0.054089, 0.056677, 0.108709, -0.093335, 0.012075, -0.074431, 
    0.089455, -0.038069, 0.007303, 0.068376, -0.097748, 0.013084, -0.090694, -0.031316, 
    -0.015830, 0.036513, 0.103495, 0.073421, -0.065720, -0.086757, -0.093425, -0.009606, 
    0.104294, -0.039567, 0.028964, -0.085104, -0.035256, 0.044548, 0.079395, -0.023257, 
    -0.020649, 0.020930, 0.074738, -0.014611, -0.045073, 0.038597, 0.059243, -0.019117, 
    0.065967, 0.097960, 0.017027, 0.016224, -0.048965, 0.035556, -0.004426, -0.047943, 
    0.074967, 0.006034, 0.076962, 0.010526, -0.053109, 0.010182, 0.088151, -0.005194, 
    -0.071128, -0.013872, 0.008848, -0.075158, -0.089889, -0.086330, 0.081721, 0.085891, 
    -0.036277, 0.065989, 0.093337, -0.061450, -0.022858, 0.015675, -0.017260, 0.035294, 
    0.077455, -0.094265, -0.069082, -0.052189, 0.042045, -0.022021, -0.100653, -0.071627, 
    -0.029711, 0.002938, -0.084457, 0.073212, 0.006083, 0.029566, -0.031773, -0.090224, 
    0.060338, 0.003951, 0.018453, -0.066513, 0.064884, -0.110338, 0.039393, -0.029615, 
    0.041937, 0.076621, 0.022955, 0.097969, -0.024428, -0.046226, -0.090015, -0.012628, 
    0.064141, -0.058246, 0.056609, 0.016208, 0.049776, 0.007682, 0.032016, -0.097925, 
    0.069874, -0.056434, -0.079728, -0.038836, 0.013828, -0.119229, -0.070137, -0.093876, 
    0.004844, 0.015150, -0.115728, 0.071867, -0.046281, 0.031474, 0.177671, -0.080033, 
    -0.029823, -0.083573, -0.084548, -0.137036, 0.004936, 0.011832, -0.019553, -0.086029, 
    -0.074826, -0.016715, -0.131269, -0.031690, 0.014096, 0.060886, -0.054901, -0.072441, 
    0.057710, -0.127766, -0.032634, -0.056337, -0.064315, 0.153569, 0.015915, -0.067252, 
    0.001304, 0.041661, -0.100477, -0.042577, -0.075536, -0.020052, -0.099324, -0.110485, 
    0.147831, 0.047920, 0.020532, -0.010017, 0.032767, -0.022742, 0.095172, 0.075488, 
    -0.078587, -0.088421, -0.040219, 0.041789, -0.025181, -0.072066, 0.141524, -0.022491, 
    -0.002275, -0.088280, -0.111413, 0.089921, -0.011524, 0.032221, -0.021195, -0.039601, 
    -0.012510, -0.052060, -0.002917, 0.086934, 0.037623, 0.045578, 0.141602, 0.016149, 
    -0.078183, -0.047750, 0.056349, 0.071350, 0.056121, -0.003770, 0.027671, -0.033230, 
    -0.034365, -0.073273, 0.013245, -0.050814, 0.078986, 0.000215, -0.091949, 0.088215, 
    0.054679, 0.095982, -0.085114, 0.046744, 0.075521, -0.042879, 0.025352, 0.045554, 
    0.055884, -0.089138, 0.070076, 0.028872, 0.060927, -0.102930, 0.058952, 0.005353, 
    -0.043841, 0.081775, 0.020384, 0.102837, -0.096643, -0.099157, 0.094191, -0.062042, 
    -0.075512, -0.059196, 0.056803, -0.064349, -0.076094, 0.054807, 0.015444, -0.031456, 
    -0.019890, -0.043883, -0.008264, 0.069412, -0.055749, -0.076530, 0.112906, -0.050539, 
    0.000446, 0.057585, -0.005486, 0.079642, -0.077381, -0.032361, -0.078743, 0.079226, 
    -0.008097, 0.078219, 0.004890, -0.093300, -0.108471, -0.076210, -0.009052, -0.029175, 
    -0.131305, -0.036066, -0.024840, -0.061545, 0.079700, 0.124235, 0.031287, -0.069952, 
    -0.008332, 0.094474, 0.087634, -0.072757, -0.032147, -0.003570, -0.053625, 0.044098, 
    0.065362, 0.018440, -0.027331, -0.044862, -0.084688, -0.078188, 0.069758, -0.001966, 
    0.002409, -0.007756, -0.047171, 0.059331, 0.062129, -0.016649, 0.059841, 0.100372, 
    0.079427, -0.077742, -0.000339, 0.025018, 0.074458, -0.041171, -0.022838, 0.024144, 
    -0.037849, -0.173045, 0.025057, -0.097908, -0.063943, 0.080358, 0.086316, -0.081464, 
    -0.082128, -0.073887, 0.045177, 0.134753, -0.085819, 0.086561, -0.031334, 0.069584, 
    0.052937, 0.027621, -0.017589, -0.027496, -0.001708, -0.013379, -0.034215, -0.034463, 
    0.017124, -0.016440, 0.103735, -0.010007, -0.074217, -0.059750, 0.069114, 0.065510, 
    0.106288, -0.047103, 0.030876, 0.072456, 0.072309, -0.020132, -0.087954, 0.017073, 
    -0.049263, 0.040938, -0.046437, -0.114795, 0.088270, 0.084823, -0.029101, 0.002950, 
    -0.001777, -0.061475, -0.115572, 0.080492, -0.129923, -0.061863, -0.145057, 0.019162, 
    -0.069706, 0.016883, -0.051581, -0.036570, 0.098915, 0.045465, 0.033628, -0.009935, 
    -0.103321, -0.019951, -0.060094, -0.004714, -0.089794, 0.010903, -0.028658, -0.093438, 
    -0.025993, -0.010442, -0.063814, -0.145260, 0.070994, 0.006721, 0.007180, 0.078258, 
    -0.067208, -0.030821, -0.094685, 0.011400, 0.097057, -0.026902, 0.065672, 0.057085, 
    0.127157, 0.087595, 0.003234, -0.038887, -0.031778, 0.005642, 0.016830, 0.122639, 
    -0.088544, -0.069751, 0.092692, 0.053093, 0.066027, -0.118637, -0.018614, 0.024478, 
    0.039009, 0.042157, -0.043561, 0.024372, 0.009233, 0.023594, -0.024688, 0.093318, 
    -0.137391, -0.123668, 0.076295, -0.057996, -0.005200, 0.014121, -0.077937, 0.030349, 
    -0.000465, -0.020751, 0.089167, -0.025813, 0.059558, 0.109734, -0.094971, -0.021924, 
    0.031424, 0.058672, -0.147753, 0.062410, 0.031324, -0.093028, -0.069791, -0.037881, 
    0.138711, 0.089767, -0.094785, -0.040580, 0.071965, -0.059175, 0.086530, -0.108184, 
    -0.007387, -0.127299, 0.094156, -0.082755, 0.008037, 0.018860, -0.082337, -0.000930, 
    0.088177, 0.022103, 0.070500, 0.011351, 0.080870, 0.193524, 0.093786, 0.000163, 
    0.058739, -0.085184, 0.088286, -0.017873, -0.086221, -0.073234, 0.059718, 0.034867, 
    -0.075682, -0.060337, -0.082077, 0.063881, -0.109996, 0.099705, -0.007359, -0.049494, 
    0.085590, -0.056259, -0.030644, 0.044791, 0.056259, -0.030799, 0.075071, 0.088963, 
    -0.071327, -0.078057, 0.003533, -0.070832, -0.025977, -0.069183, 0.095656, 0.103469, 
    -0.021985, -0.075650, -0.002298, -0.052819, -0.089748, 0.119267, -0.131035, 0.089550, 
    0.095114, 0.001764, -0.048443, -0.169478, 0.056586, -0.029177, -0.023601, 0.042406, 
    0.115114, 0.032148, -0.161927, -0.104652, -0.084386, -0.070541, -0.086568, -0.081263, 
    -0.069355, -0.021951, 0.033527, 0.082798, -0.136191, -0.011231, -0.053729, 0.129108, 
    0.055403, 0.047272, -0.045809, 0.004569, -0.007009, 0.029129, -0.117347, -0.161958, 
    0.099549, -0.014397, -0.175416, 0.034042, 0.082113, 0.087011, -0.050090, 0.089650, 
    -0.054417, 0.043608, 0.085764, -0.120597, -0.079855, 0.078340, -0.044854, -0.044533, 
    0.070108, -0.129141, -0.082693, 0.097229, -0.038770, 0.027599, 0.096438, 0.024431, 
    -0.100044, 0.056023, 0.079421, -0.059166, -0.010619, -0.018284, 0.035996, 0.093422, 
    0.106365, -0.000977, 0.000079, -0.000131, 0.016824, -0.017788, 0.037405, 0.036864, 
    -0.069405, -0.035537, -0.018551, 0.112554, -0.084645, 0.007436, -0.065299, -0.168306, 
    0.048862, -0.085640, -0.030763, 0.119615, -0.045391, 0.020705, -0.104937, -0.100007, 
    0.046257, 0.070116, -0.108586, 0.088737, 0.010547, 0.026767, 0.084009, 0.077212, 
    0.071654, 0.015638, 0.066981, 0.044685, -0.020239, -0.048308, -0.016611, 0.060161, 
    -0.021546, 0.057779, 0.006586, -0.101636, 0.064559, 0.100371, -0.022946, -0.054336, 
    0.096378, -0.078947, -0.098663, 0.120047, 0.004813, 0.104163, 0.055393, -0.032076, 
    0.020836, 0.076103, 0.076061, -0.128775, -0.040524, -0.053987, 0.003349, 0.009724, 
    -0.016230, -0.076724, 0.058032, 0.029896, -0.061016, -0.020455, -0.107802, 0.013665, 
    0.105784, -0.073679, 0.003794, 0.023704, 0.076422, 0.019690, -0.199256, -0.062929, 
    -0.037433, -0.058825, 0.002812, 0.139191, -0.010569, 0.078447, -0.139783, 0.033598, 
    0.003358, -0.077072, 0.061029, -0.049869, -0.048419, -0.102678, -0.089563, 0.094862, 
    -0.019241, 0.100683, 0.047711, 0.041978, -0.168214, -0.007248, -0.043129, 0.052680, 
    0.003444, -0.109081, 0.054647, -0.113074, -0.019057, -0.035092, 0.004274, 0.000922, 
    -0.137508, -0.035512, -0.114285, 0.013882, -0.076081, 0.060894, 0.151257, -0.145992, 
    -0.092014, -0.052715, -0.010191, -0.102418, 0.060812, 0.131797, -0.014522, 0.029056, 
    0.036988, -0.081935, -0.045969, -0.124328, -0.057035, 0.026192, 0.065466, 0.012788, 
    -0.065440, -0.031649, -0.090762, -0.065462, -0.018494, -0.093519, 0.132120, 0.065388, 
    -0.095783, -0.088762, 0.067043, -0.034802, 0.019026, -0.052781, -0.031574, -0.055629, 
    0.029451, 0.035188, 0.095308, 0.078799, -0.014760, 0.088383, 0.061912, 0.070193, 
    0.094831, 0.078077, 0.022941, -0.056620, -0.115197, 0.014899, -0.042343, 0.131843, 
    -0.033529, -0.122698, -0.002326, -0.044821, -0.059597, 0.037324, 0.102915, -0.009943, 
    -0.089207, 0.033531, -0.085451, -0.018973, 0.087317, 0.096362, -0.111459, -0.087786, 
    -0.074271, -0.079144, 0.070607, -0.058544, -0.026151, -0.069627, 0.003571, -0.080322, 
    -0.059331, -0.045175, -0.000522, -0.042526, 0.025168, 0.057295, -0.046437, 0.040362, 
    -0.010106, 0.031435, -0.121243, -0.152152, -0.003249, 0.080832, 0.006470, 0.020429, 
    0.039800, 0.105817, 0.049521, -0.016584, -0.059562, 0.094112, 0.044490, -0.027474, 
    -0.004169, -0.022056, 0.116518, 0.036943, 0.115312, -0.081361, 0.046901, 0.018992, 
    -0.076603, -0.154932, 0.103386, -0.027116, 0.075562, 0.060135, -0.119395, -0.076898, 
    -0.090553, 0.095566, -0.097632, -0.004440, -0.059766, 0.082737, -0.037186, 0.002423, 
    -0.034172, 0.006604, 0.097533, 0.031271, 0.025196, 0.020635, -0.022116, 0.019105, 
    -0.015413, 0.012726, 0.064542, 0.128905, -0.006800, -0.068976, -0.074932, 0.050175, 
    0.059020, -0.079858, 0.017788, -0.030453, 0.096605, 0.027268, 0.015472, 0.030328, 
    0.056684, -0.144497, -0.049892, -0.057890, 0.043228, 0.031569, 0.065888, -0.014388, 
    -0.079650, -0.121792, 0.078699, -0.091500, -0.053366, -0.049696, -0.053429, -0.069010, 
    -0.046288, 0.012371, 0.014652, -0.030750, 0.043725, 0.096351, -0.012142, 0.067664, 
    -0.035805, -0.081014, -0.025429, 0.075144, -0.016901, 0.046292, 0.005752, 0.039214, 
    0.075535, 0.090902, 0.056058, -0.075042, -0.076560, 0.014175, 0.112731, -0.081628, 
    0.076274, -0.109486, 0.024404, -0.050028, -0.050340, 0.018443, -0.079733, -0.051336, 
    -0.033186, -0.071271, 0.031725, -0.029352, 0.080932, -0.120193, 0.037544, 0.045779, 
    0.077079, -0.071594, 0.037362, 0.131565, -0.026833, -0.090850, -0.094001, 0.112924, 
    -0.070287, 0.081389, -0.048991, 0.100018, 0.062798, -0.004713, 0.066318, 0.040014, 
    -0.070323, -0.032671, 0.001503, -0.044643, -0.074877, -0.106318, -0.079458, 0.051602, 
    -0.054091, 0.063311, -0.057802, -0.098635, 0.014260, 0.030935, -0.030507, -0.130049, 
    0.076027, -0.112680, -0.210784, -0.084474, -0.108216, -0.028753, 0.036260, 0.046293, 
    0.054285, -0.021773, 0.066316, -0.090226, 0.048586, 0.047352, 0.103757, 0.006608, 
    -0.100340, -0.029959, 0.069570, -0.096915, 0.040662, -0.085556, -0.059519, -0.067399, 
    -0.045866, 0.002775, -0.003979, -0.018676, -0.010223, -0.043195, -0.062657, 0.075529, 
    -0.081108, 0.092688, 0.093360, -0.066606, -0.018660, 0.050367, -0.031059, -0.087820, 
    0.049440, 0.078195, -0.006745, 0.071037, -0.041679, -0.015237, 0.085148, -0.010852, 
    0.093339, -0.009457, 0.094552, -0.098310, -0.067729, 0.052465, -0.043209, -0.051872, 
    -0.007879, 0.044333, 0.003683, -0.089483, -0.099893, -0.116547, 0.092589, 0.044939, 
    0.085140, 0.062713, 0.026165, -0.135419, -0.058431, 0.105992, -0.032088, -0.001578, 
    0.087448, -0.064048, 0.049061, 0.066468, 0.033615, -0.010207, -0.060555, -0.005894, 
    -0.040385, -0.002316, -0.036828, 0.007206, -0.056273, -0.054836, -0.008228, -0.042200, 
    -0.087212, -0.025940, -0.038046, -0.077412, 0.087353, 0.127642, 0.052533, -0.003949, 
    0.080598, -0.047955, 0.089321, -0.037400, -0.080626, 0.007552, -0.026776, 0.070308, 
    -0.110962, 0.092309, 0.082849, 0.009052, 0.077224, 0.129813, 0.077306, 0.141323, 
    -0.067788, 0.109369, -0.018091, 0.003763, 0.074557, -0.066317, 0.015522, -0.060630, 
    -0.078911, -0.072188, -0.094222, -0.068381, 0.006338, -0.067995, 0.085279, 0.049762, 
    -0.040711, -0.050388, -0.070847, 0.020999, -0.061302, -0.009254, 0.066018, -0.090201, 
    0.042659, -0.070274, -0.025577, 0.072791, 0.130584, -0.114866, 0.040854, 0.017673, 
    -0.055846, -0.090389, 0.036345, -0.017545, 0.070109, 0.065732, 0.069979, -0.056831, 
    0.069871, 0.035142, -0.021613, -0.141877, 0.076203, 0.066776, -0.078208, -0.031374, 
    0.104242, -0.062525, -0.042782, -0.109921, -0.035075, 0.090987, 0.102863, 0.085900, 
    -0.047883, 0.028915, 0.048872, -0.024101, 0.020156, -0.087414, -0.066916, 0.068982, 
    -0.066948, 0.028861, 0.114692, -0.034297, -0.031588, -0.041042, 0.082723, 0.078426, 
    0.061249, -0.062589, -0.131444, -0.076576, -0.035570, 0.091001, 0.087489, 0.112401, 
    0.018925, 0.017601, -0.007583, 0.027651, 0.065566, 0.003956, -0.070277, 0.104058, 
    -0.096090, 0.093144, -0.011279, 0.090454, 0.070921, -0.062207, 0.064257, 0.079207, 
    0.033198, -0.093861, 0.043473, -0.064292, -0.046277, 0.081744, 0.116202, 0.009188, 
    0.035768, -0.017231, -0.093050, 0.077466, 0.073511, 0.079283, 0.024014, 0.028349, 
    -0.042360, 0.027079, 0.058998, 0.008174, 0.017073, -0.179789, 0.072362, -0.103112, 
    0.033475, 0.106550, 0.068382, -0.064800, -0.050155, 0.022732, 0.004128, -0.042809, 
    -0.039034, 0.090880, -0.091445, -0.151924, 0.023195, 0.054504, -0.091439, -0.005614, 
    0.084621, -0.107099, 0.081801, -0.078726, 0.019877, 0.005123, -0.008460, -0.002608, 
    0.062224, -0.092314, -0.056069, -0.078273, 0.012775, -0.071131, -0.044886, 0.077676, 
    0.029433, 0.114464, -0.035505, -0.094400, 0.093857, 0.031682, -0.078458, -0.009013, 
    -0.012920, -0.013564, 0.007368, 0.085558, 0.080013, -0.069246, -0.076848, 0.027136, 
    -0.114795, -0.152117, -0.060369, -0.035579, -0.032799, 0.014904, -0.035103, 0.033982, 
    0.021424, 0.062845, 0.024868, -0.107534, -0.048520, 0.094574, 0.026797, -0.075798, 
    0.019302, -0.060398, -0.048859, 0.116200, -0.013747, 0.041620, 0.049556, 0.055362, 
    0.022173, 0.110035, 0.095531, 0.018763, 0.045844, 0.006812, 0.022189, 0.025433, 
    0.020443, -0.042742, -0.030649, -0.038299, 0.062883, -0.014339, -0.145199, -0.005733, 
    -0.024656, 0.004093, -0.093971, -0.006660, 0.073358, 0.014490, 0.024648, -0.100656, 
    0.024217, -0.118914, 0.032926, 0.041502, 0.036089, -0.129727, -0.048613, -0.000676, 
    -0.106283, 0.032632, 0.032676, -0.041237, -0.137025, -0.018107, -0.098554, -0.007133, 
    -0.117234, -0.168683, 0.046177, 0.104501, -0.070538, -0.039167, -0.095223, -0.118421, 
    -0.035640, 0.014107, -0.050798, -0.100963, -0.051725, -0.036203, 0.090083, 0.000309, 
    -0.056591, 0.076181, -0.052072, -0.007164, 0.048026, 0.106085, 0.038149, 0.052744, 
    0.091771, -0.041189, -0.024781, 0.065159, 0.048956, -0.090901, 0.068430, 0.067327, 
    0.095277, 0.050358, -0.046695, 0.010897, 0.093473, 0.002388, -0.102918, 0.005484, 
    -0.028493, 0.024049, -0.001308, -0.045101, 0.052897, -0.017478, 0.101594, -0.072473, 
    -0.048750, -0.046117, -0.015496, -0.043582, -0.037098, 0.053957, -0.037607, -0.133079, 
    0.058420, -0.158018, 0.024897, -0.033612, -0.008338, 0.060690, 0.088138, -0.092721, 
    0.099441, -0.004393, -0.009535, -0.104786, 0.026958, -0.052156, -0.076347, 0.019734, 
    -0.042393, -0.064717, 0.021404, -0.085591, -0.117819, 0.139656, -0.095109, -0.071682, 
    0.099089, -0.063242, 0.021582, 0.007209, -0.034590, -0.187290, 0.108114, -0.094261, 
    0.017048, 0.024089, 0.050025, -0.051097, -0.014899, -0.102427, -0.016073, -0.037256, 
    -0.046065, -0.035175, 0.081387, 0.067218, -0.072375, 0.023922, -0.047636, -0.092840, 
    0.070776, -0.073943, 0.053578, 0.125376, -0.046680, 0.135033, 0.037572, -0.000828, 
    -0.037973, -0.104439, -0.083196, -0.042719, 0.099569, 0.023225, -0.053750, -0.129100, 
    0.011175, 0.050970, -0.111610, 0.014051, 0.038670, -0.107139, -0.061286, -0.127597, 
    0.117901, -0.006273, 0.083531, 0.036558, 0.027996, -0.082676, 0.008236, -0.095042, 
    -0.008225, 0.086775, -0.023584, 0.003374, 0.036989, 0.004023, -0.019753, -0.042602, 
    0.055713, 0.017490, 0.046410, 0.002070, -0.054780, -0.072128, 0.039787, -0.080499, 
    -0.004581, -0.043972, 0.104841, 0.021880, -0.110133, 0.001177, -0.045054, 0.021132, 
    -0.030174, -0.115990, -0.106831, 0.056323, -0.071633, -0.002683, 0.036967, 0.001839, 
    -0.046606, -0.073683, 0.078090, -0.007364, 0.067271, 0.051422, 0.007176, 0.088045, 
    0.000740, 0.127171, 0.130780, -0.001230, 0.018587, -0.012739, 0.037118, 0.018965, 
    -0.096727, -0.045109, -0.035857, 0.008698, -0.043169, 0.008800, 0.083449, 0.048734, 
    -0.005380, 0.012916, -0.085810, -0.016920, -0.003407, 0.029126, -0.085411, 0.021162, 
    0.029039, -0.023752, 0.021594, 0.110552, 0.102668, -0.068340, 0.062033, -0.078555, 
    -0.044967, -0.022077, -0.027770, 0.062115, -0.060745, 0.008973, -0.028715, 0.085355, 
    -0.083494, 0.111372, -0.085920, 0.072024, -0.047585, -0.013286, -0.066170, -0.090498, 
    -0.042153, -0.071148, 0.144457, -0.109394, 0.043998, -0.054900, 0.076487, -0.028253, 
    -0.092168, 0.122656, 0.049306, -0.020459, 0.097742, 0.037175, 0.082739, -0.013580, 
    0.063832, 0.053979, -0.063346, 0.016136, 0.025671, 0.026684, -0.011323, -0.148144, 
    0.027091, 0.118243, -0.082387, -0.056619, -0.022203, 0.147550, 0.075797, 0.066654, 
    0.092162, -0.015051, 0.050066, -0.064565, -0.038958, 0.043047, -0.066730, -0.117654, 
