float weights_layer_9_biases[] = {

    -0.028641, -0.041471, -0.036941, 0.104495, 0.120251, 0.158967, 0.198628, 0.080254, 
    0.012231, 0.117927, 0.072227, -0.003273, 0.014639, 0.067701, -0.024047, 0.095468, 
    0.130498, 0.053952, 0.082629, -0.027203, 0.029431, 0.149828, 0.062581, 0.095548, 
    0.067076, -0.015196, -0.003121, -0.020015, 0.105521, 0.027576, 0.015377, -0.036782, 
    0.078588, -0.008269, 0.041357, 0.032818, -0.008689, -0.007471, 0.046888, 0.038175, 
    -0.004926, 0.023335, 0.051572, 0.076050, 0.008707, -0.002066, 0.058910, -0.017428, 
    0.002574, 0.035979, -0.025669, -0.016995, 0.136039, 0.068079, 0.152029, -0.017164, 
    0.077202, 0.144327, -0.002019, -0.040053, 0.020405, -0.067807, 0.028069, 0.147483, 
    0.054632, -0.021691, 0.087863, -0.008555, 0.001385, 0.015440, 0.083237, 0.084769, 
    0.050275, -0.006765, 0.070741, -0.014401, 0.027397, 0.031432, 0.013218, 0.205072, 
    0.016502, 0.103482, -0.016397, 0.023280, -0.004498, 0.015590, -0.003910, -0.012058, 
    0.058659, 0.037099, -0.020678, 0.026187, 0.044801, -0.006898, 0.114703, 0.093532, 
    0.072033, 0.041807, 0.006413, 0.045302, -0.006720, -0.023799, -0.006348, 0.074987, 
    0.061363, -0.021993, -0.015695, 0.168095, -0.001368, -0.005578, 0.050352, 0.071131, 
    0.002855, -0.036159, 0.163635, -0.014199, 0.040231, -0.003654, 0.057942, 0.084851, 
    -0.048073, 0.037464, 0.124451, 0.187215, -0.007204, 0.137523, -0.010513, 0.013346, 
    0.091362, 0.138622, 0.008229, 0.018384, 0.081747, 0.091745, -0.004392, 0.203321, 
    -0.017652, -0.013185, 0.008372, 0.058425, 0.146473, 0.049599, 0.021500, -0.042993, 
    0.112944, -0.010422, -0.045974, -0.001911, 0.015040, -0.004486, 0.040496, 0.081896, 
    -0.007166, 0.040062, 0.034940, 0.044046, 0.019878, 0.085700, 0.010979, 0.026716, 
    -0.022910, -0.030613, 0.005777, 0.044128, 0.002024, 0.097812, 0.044044, -0.036405, 
    0.074629, -0.005779, -0.005545, 0.002908, -0.028365, 0.041728, 0.126453, -0.005294, 
    0.044203, 0.009114, 0.066455, -0.026722, 0.029086, 0.053662, 0.167627, 0.073975, 
    0.088194, 0.015080, 0.036459, 0.058334, 0.102505, -0.005803, 0.000439, 0.063797, 
    -0.006624, 0.065554, -0.038523, 0.159879, -0.036997, 0.093788, -0.003370, -0.010666, 
    0.009172, -0.036876, 0.070421, 0.022285, -0.007451, 0.162274, -0.013318, 0.181787, 
    -0.035867, 0.042283, 0.018024, 0.104142, 0.046538, 0.088890, 0.080691, -0.004501, 
    0.008051, 0.053625, 0.050351, 0.068475, 0.050449, -0.002300, 0.077853, 0.005528, 
    0.135724, 0.027839, 0.002792, -0.006845, 0.009628, 0.003196, 0.045614, 0.015491, 
    -0.017417, -0.002936, 0.013799, -0.011569, -0.009519, 0.088048, -0.057765, 0.076525, 
    -0.058596, -0.015753, -0.015652, -0.020923, -0.000846, 0.015296, 0.055142, 0.128673, 
    -0.026681, 0.025906, 0.043329, 0.031455, 0.005538, 0.001718, 0.143811, 0.067782, 
    0.053496, 0.057220, 0.104467, 0.042502, 0.058754, 0.099977, -0.014561, -0.019710, 
    0.086442, -0.007662, 0.043863, -0.014703, 0.013771, -0.055621, 0.129103, 0.036570, 
    0.036674, 0.024461, 0.069520, 0.132218, -0.032217, 0.042595, 0.009752, 0.113144, 
    0.061753, -0.020430, 0.047659, -0.017723, -0.034040, 0.074134, -0.011293, 0.101016, 
    -0.001904, -0.015909, -0.014542, -0.033201, 0.038551, 0.061591, 0.014766, 0.000434, 
    -0.029565, 0.027804, 0.044344, -0.050711, -0.015013, 0.064864, 0.011069, 0.080883, 
    0.002276, 0.026305, -0.002388, -0.003606, 0.068038, 0.063252, -0.006310, 0.134894, 
    -0.018817, 0.089498, -0.013387, -0.009236, 0.042953, 0.186731, 0.019645, 0.062417, 
    0.102935, 0.085391, -0.038191, 0.030734, 0.051132, -0.021343, -0.068535, 0.012647, 
    0.081033, -0.003045, 0.087626, -0.014386, -0.000621, 0.162031, -0.010935, 0.017963, 
    -0.003899, 0.040390, 0.018368, -0.041567, 0.088321, -0.001002, 0.037116, -0.010024, 
    0.039296, 0.010320, -0.006733, 0.045024, 0.011125, 0.010632, 0.065984, 0.030034, 
    0.130869, 0.050868, -0.018517, 0.014276, 0.005104, 0.073336, -0.013859, 0.029847, 
    0.006813, -0.006448, 0.024737, 0.140307, -0.048995, 0.008034, 0.005890, 0.036105, 
    -0.015847, -0.024440, 0.013837, -0.008077, 0.057024, -0.016022, -0.046397, -0.059826, 
    0.005418, -0.017780, 0.005714, 0.002395, -0.016990, 0.104788, -0.011590, 0.019292, 
    -0.033812, 0.091420, 0.122200, 0.092677, 0.063979, -0.044011, 0.169947, 0.012311, 
    0.060079, -0.057045, 0.086453, -0.009823, -0.000492, -0.026870, -0.019936, -0.007527, 
    0.112237, -0.013021, 0.124622, 0.005913, 0.021876, -0.009862, -0.037987, 0.004466, 
    0.045220, -0.008472, 0.138745, -0.017738, 0.076398, 0.020070, 0.065980, -0.037571, 
    0.017640, 0.100181, 0.087680, -0.018964, -0.018255, 0.006556, -0.011438, 0.172612, 
    0.026080, -0.008977, 0.074740, 0.108922, 0.093705, 0.101367, 0.038765, 0.029531, 
    -0.023067, 0.012152, -0.027177, 0.115455, -0.017910, 0.115152, 0.062346, 0.002362, 
    -0.005507, 0.023933, 0.148207, 0.070820, 0.093686, 0.018246, 0.019977, 0.010242, 
    0.027283, -0.031818, -0.056305, 0.052454, 0.076882, -0.016433, -0.005681, 0.058212, 
    -0.003375, -0.001908, 0.041572, 0.008049, 0.129727, -0.015093, 0.048741, -0.054707, 
    -0.039769, 0.042446, 0.039639, 0.015826, 0.017852, -0.019717, 0.030060, 0.032229, 
    -0.022962, -0.016927, 0.038250, -0.019973, 0.111467, 0.058176, -0.016159, -0.018956, 
    0.053174, 0.011962, 0.175629, 0.026956, 0.088728, 0.013204, 0.051870, 0.098310, 
    -0.027302, 0.029056, 0.089551, 0.016696, 0.056767, 0.041376, 0.185161, 0.062435, 
    0.015531, -0.016628, 0.174489, -0.023077, -0.015353, -0.019255, 0.088577, -0.052256, 
    0.095218, 0.048079, 0.152487, 0.095694, -0.043690, 0.018802, 0.017376, 0.085530, 
};
