float weights_layer_4_weights[] = {

    -0.009632, 0.045918, -0.049518, -0.059185, 0.010149, 0.022905, 0.035237, 0.031617, 
    0.042964, -0.052672, -0.052693, 0.031022, -0.051590, -0.062113, -0.063690, -0.055657, 
    0.020916, 0.038882, -0.018521, -0.035387, 0.047905, 0.029776, -0.054791, 0.043888, 
    0.027265, -0.054165, 0.014000, -0.030242, 0.043811, 0.022604, 0.013504, 0.008898, 
    0.049891, 0.045898, -0.016275, -0.056221, -0.024681, -0.030745, -0.000850, 0.034120, 
    -0.002089, -0.006385, 0.028202, 0.003200, -0.016593, -0.067391, -0.021298, -0.025948, 
    -0.010381, -0.024302, 0.045910, -0.055182, -0.002671, 0.013630, -0.015718, -0.025609, 
    -0.040432, -0.031124, -0.009751, 0.030065, 0.017546, 0.026542, 0.009257, 0.021036, 
    0.036923, -0.046857, 0.048131, -0.030392, 0.002013, -0.033236, -0.039868, 0.026850, 
    -0.034237, 0.015558, 0.030804, -0.029672, 0.017062, -0.023961, 0.002044, 0.001318, 
    -0.048354, 0.040584, -0.068371, -0.046996, 0.002418, -0.016918, 0.010359, -0.002340, 
    -0.021119, -0.050128, 0.015467, -0.063212, -0.085224, 0.023546, 0.008161, -0.001073, 
    0.029143, 0.040854, 0.048349, 0.043100, -0.023655, 0.047370, 0.023289, 0.022388, 
    -0.008608, -0.004941, 0.009399, 0.000773, -0.033698, -0.033084, -0.055905, -0.017423, 
    -0.018652, -0.018771, -0.027513, -0.039303, -0.003358, -0.052564, 0.054060, -0.023332, 
    0.016978, -0.031833, 0.030590, 0.042830, 0.010902, -0.062078, -0.017266, -0.034079, 
    -0.053010, 0.036852, 0.016596, -0.015938, -0.064205, 0.019884, -0.067644, 0.020287, 
    0.003815, 0.047380, -0.044001, 0.049255, -0.027118, 0.076772, -0.087952, -0.037056, 
    -0.033255, -0.006517, -0.041149, -0.034611, 0.046835, -0.088566, -0.053524, 0.052768, 
    0.000271, -0.066357, 0.028600, -0.023914, 0.032529, -0.008968, 0.052752, -0.065059, 
    0.012545, 0.066626, -0.037948, 0.017454, -0.023422, -0.050179, -0.018201, -0.012000, 
    -0.068634, -0.139421, -0.090899, -0.026453, 0.048671, 0.095745, -0.015370, -0.005978, 
    0.059294, -0.016578, -0.071691, -0.004578, -0.001326, -0.004708, 0.073797, 0.056688, 
    0.018533, -0.029833, -0.123283, -0.002307, -0.003622, -0.084920, -0.035485, 0.011962, 
    -0.015251, -0.063117, 0.036886, 0.063309, 0.043429, -0.039619, -0.069339, -0.023882, 
    -0.038822, -0.026819, -0.016205, -0.030334, 0.060577, 0.029722, 0.009625, -0.060734, 
    0.035928, 0.021977, -0.068401, 0.058246, -0.047623, -0.072703, 0.056342, 0.044985, 
    -0.036169, -0.032285, -0.087574, -0.018256, 0.036161, 0.048731, -0.126077, -0.094747, 
    -0.073034, 0.023457, -0.092121, 0.013107, -0.095928, -0.021894, -0.063724, 0.030596, 
    0.058925, -0.073294, 0.027810, -0.043328, -0.001974, -0.010475, -0.005696, 0.004226, 
    -0.093104, -0.070058, 0.032125, 0.001494, 0.017563, -0.125820, -0.022654, -0.041222, 
    0.056540, 0.036724, -0.033875, -0.078383, -0.040523, 0.057162, -0.009846, -0.067754, 
    0.017718, 0.001118, 0.042747, 0.011560, -0.065256, 0.044154, 0.049781, -0.053718, 
    0.001355, 0.034026, 0.026768, 0.027225, -0.016700, -0.039041, -0.076001, 0.046425, 
    -0.064548, -0.011819, 0.020582, -0.042123, -0.038918, -0.039219, -0.004821, -0.008065, 
    -0.047819, -0.044757, -0.041156, -0.040211, 0.008194, 0.017567, -0.055425, 0.031716, 
    -0.011197, -0.014510, -0.030892, 0.041984, 0.008744, -0.056577, -0.045565, 0.041278, 
    0.046783, 0.038342, -0.001494, -0.002075, -0.034450, 0.010970, -0.027952, -0.024780, 
    -0.003612, 0.008437, -0.041618, 0.007571, -0.045136, 0.007373, -0.051702, -0.046058, 
    -0.063136, -0.004260, -0.005581, 0.011697, -0.031599, 0.009926, 0.037181, -0.033860, 
    -0.037849, 0.040507, 0.062488, -0.035100, -0.009455, -0.031626, 0.055213, -0.038931, 
    0.000275, -0.029548, 0.000657, 0.009959, 0.046314, -0.039664, 0.006170, -0.020489, 
    0.016508, 0.038068, 0.031668, 0.020867, 0.046285, -0.027449, 0.000618, 0.001443, 
    0.036161, 0.037266, 0.055433, 0.038453, -0.015672, 0.070026, -0.022404, -0.046802, 
    -0.032605, 0.005713, 0.016308, -0.015496, -0.038258, -0.060391, 0.032654, -0.033958, 
    -0.011256, 0.016771, 0.050728, 0.034327, -0.027646, -0.019083, -0.031527, -0.025132, 
    -0.037436, -0.041315, -0.092730, 0.051870, -0.055091, 0.019566, 0.062059, -0.044138, 
    -0.024918, 0.052038, -0.024042, -0.054334, 0.002674, 0.042536, -0.028699, -0.010510, 
    -0.022461, -0.067103, -0.064397, 0.017453, -0.018289, -0.054062, 0.044345, 0.055460, 
    -0.017645, -0.064581, 0.052534, -0.051190, 0.022431, -0.067146, -0.015092, -0.034670, 
    -0.008662, -0.091999, -0.056908, -0.052366, -0.064055, 0.023729, -0.093476, -0.100738, 
    -0.034144, -0.081350, -0.048319, 0.026205, 0.034396, -0.022982, -0.056261, 0.025360, 
    -0.016271, -0.017691, -0.006125, -0.068974, -0.040206, -0.014259, -0.003017, -0.014986, 
    -0.055598, -0.049436, -0.068437, -0.024543, 0.003113, -0.042847, -0.036336, 0.005835, 
    -0.061184, -0.087947, -0.077780, 0.079373, -0.019795, -0.136458, -0.065900, 0.056362, 
    -0.037902, 0.017177, -0.029655, 0.009091, -0.065961, -0.001630, 0.003725, -0.081678, 
    -0.039472, -0.043286, -0.059667, -0.126776, -0.046856, 0.014637, -0.106151, -0.097215, 
    0.004090, -0.081999, 0.032833, -0.073889, -0.033180, 0.000331, -0.156395, 0.012237, 
    0.017618, 0.005933, -0.042995, 0.012080, -0.069103, 0.024893, 0.000465, -0.042893, 
    -0.021368, 0.031925, -0.008291, 0.017085, 0.033505, -0.069726, -0.087646, 0.047091, 
    -0.078742, -0.108061, -0.030168, 0.021937, 0.054324, 0.071398, -0.067703, 0.025157, 
    0.015520, -0.043798, -0.045157, 0.002006, 0.015179, -0.001937, -0.019400, -0.020594, 
    -0.029567, -0.059821, -0.011624, 0.016001, 0.020620, 0.056858, -0.087004, -0.025045, 
    -0.012602, 0.051141, -0.102572, -0.114959, -0.039199, -0.015807, 0.001755, 0.027372, 
    0.014679, -0.036814, -0.012504, -0.032755, -0.020961, 0.037985, -0.054508, -0.038910, 
    -0.045631, -0.055740, -0.050589, -0.030294, 0.052205, 0.048747, -0.043909, 0.015265, 
    -0.033404, 0.038243, 0.016569, -0.019580, 0.019793, -0.021426, 0.024997, 0.047835, 
    0.008317, 0.034300, -0.004261, 0.008493, 0.067495, 0.018488, -0.040945, 0.085416, 
    -0.039599, -0.021343, -0.012054, 0.002098, -0.046729, 0.000216, -0.048692, -0.018703, 
    -0.048380, 0.026603, 0.016520, -0.011066, -0.043765, 0.045962, -0.028653, 0.022343, 
    -0.057597, 0.031591, -0.038280, -0.025423, 0.001887, 0.022973, 0.076596, 0.057585, 
    -0.055404, 0.015918, 0.042711, -0.036203, -0.013754, -0.013666, 0.054683, -0.010353, 
    0.023588, -0.020358, 0.042153, -0.024656, 0.007047, 0.010235, -0.008816, -0.019255, 
    0.023939, 0.010259, 0.010611, -0.026800, 0.001895, 0.018081, 0.060237, 0.031873, 
    -0.015709, 0.035723, -0.011905, 0.044691, -0.018769, -0.049681, -0.052424, -0.038803, 
    0.020894, 0.069734, 0.011831, -0.013683, -0.027152, 0.049183, 0.060418, -0.063359, 
    -0.024782, 0.026772, -0.013226, 0.009610, -0.021697, 0.035924, -0.016674, -0.025717, 
    -0.010996, 0.007653, -0.022795, 0.064618, 0.064597, 0.015919, -0.022836, -0.025075, 
    -0.035459, 0.055714, -0.072819, -0.035951, 0.055232, 0.035512, 0.054690, 0.048918, 
    -0.004027, 0.033222, -0.005794, -0.056160, 0.005476, -0.010656, -0.014255, -0.028986, 
    -0.089069, 0.048346, -0.017142, 0.011650, 0.049555, -0.073318, -0.011042, -0.018037, 
    -0.006273, -0.004725, -0.012868, 0.093755, 0.033942, 0.051952, -0.067682, -0.019067, 
    0.021581, 0.099013, 0.002451, -0.007203, -0.007477, 0.024310, 0.020960, 0.042382, 
    -0.018197, 0.032994, 0.075534, -0.071431, 0.015608, -0.074775, 0.024227, -0.011730, 
    0.029964, -0.060460, 0.078889, -0.013613, 0.060070, -0.029695, -0.097315, 0.004388, 
    -0.139194, 0.007535, 0.019371, -0.081349, -0.096511, -0.025838, -0.075313, -0.035558, 
    0.003102, -0.126260, 0.059490, 0.016785, -0.084466, 0.004933, -0.103510, -0.031752, 
    -0.052148, -0.029173, -0.014731, -0.048194, -0.001363, -0.071723, -0.085427, 0.019609, 
    0.047984, -0.045300, -0.045512, -0.028120, -0.020556, 0.011024, 0.027327, -0.007670, 
    0.012260, 0.020325, -0.091667, 0.046957, -0.051294, -0.023195, -0.021174, 0.114029, 
    0.007481, -0.092212, -0.016526, 0.084267, -0.033629, -0.088479, 0.025443, 0.022082, 
    0.026816, 0.094764, -0.103488, -0.006677, 0.038436, 0.026267, 0.029310, 0.089426, 
    -0.036274, -0.007384, 0.012612, -0.017446, -0.056081, -0.019186, -0.019140, -0.019835, 
    0.010565, 0.138861, 0.038375, 0.005871, -0.046967, -0.084404, -0.034649, -0.012106, 
    0.077378, -0.083783, 0.019632, 0.109577, -0.053719, 0.036147, -0.135814, 0.040735, 
    -0.153980, 0.148000, -0.069538, -0.029475, -0.044980, -0.057639, 0.026165, 0.089137, 
    -0.006402, -0.095923, 0.021477, -0.006928, 0.092894, -0.099760, 0.015386, -0.045626, 
    0.062557, -0.097348, 0.070877, 0.022536, -0.047092, -0.062674, 0.125513, 0.098415, 
    0.118939, 0.058747, 0.001283, -0.166823, 0.006238, 0.078077, -0.070402, -0.053751, 
    0.010955, -0.040943, -0.039218, -0.052513, 0.046962, 0.000978, -0.045566, -0.023681, 
    -0.042077, 0.069849, 0.062360, -0.036130, -0.102015, -0.049665, 0.038314, -0.030703, 
    0.056281, -0.015800, -0.017113, -0.070495, -0.032781, -0.086062, -0.069665, 0.014084, 
    -0.036663, 0.101500, 0.040947, -0.089143, -0.008629, 0.107371, 0.020634, 0.001334, 
    0.111500, -0.007078, 0.035570, 0.085264, -0.005800, -0.002096, -0.070628, 0.015407, 
    -0.020412, -0.095248, -0.000314, -0.020028, 0.114452, -0.010521, -0.017632, 0.079735, 
    0.012468, 0.068191, -0.069084, -0.053204, -0.023377, -0.014011, 0.025340, -0.070813, 
    -0.052142, 0.014890, 0.002821, -0.007850, -0.045903, 0.026143, 0.008420, -0.079517, 
    -0.031362, 0.066669, -0.068981, -0.061279, -0.025525, -0.017714, 0.045714, -0.062727, 
    -0.042102, 0.036139, -0.048914, 0.018255, 0.041036, -0.065896, 0.185134, 0.025877, 
    -0.023877, 0.006016, -0.045736, 0.097501, -0.044078, -0.012371, -0.095852, -0.023951, 
    -0.001394, 0.024218, 0.079644, 0.051402, 0.000223, -0.040901, 0.044661, -0.019599, 
    0.085776, -0.049723, 0.034632, 0.054153, 0.042922, -0.068124, 0.088745, -0.006731, 
    0.040835, 0.045191, -0.025321, -0.004668, -0.025281, -0.018812, -0.036853, -0.051754, 
    -0.015922, 0.005208, -0.096256, 0.050758, 0.013538, 0.033892, -0.007574, 0.016252, 
    -0.032299, -0.024961, -0.060580, 0.051319, -0.053981, 0.057481, 0.040296, -0.036543, 
    -0.051853, 0.036101, -0.042934, 0.043831, -0.010771, -0.000027, 0.020296, 0.008463, 
    0.040228, -0.020557, -0.086333, 0.032615, -0.042149, -0.002352, -0.019291, -0.044063, 
    -0.111642, -0.057478, -0.047702, -0.004398, -0.143387, -0.028940, -0.040474, -0.075565, 
    -0.027476, -0.126250, -0.044703, 0.018339, -0.104376, 0.062143, -0.105995, 0.007961, 
    0.034147, 0.017293, -0.019130, -0.064560, -0.176265, -0.044207, -0.076902, 0.109595, 
    -0.008029, 0.058866, 0.071460, -0.022937, 0.029081, 0.008191, -0.030728, 0.061306, 
    0.087862, -0.065649, -0.035667, -0.051337, -0.018148, 0.055780, -0.033077, -0.076779, 
    -0.104492, -0.017171, -0.075537, 0.044547, 0.009214, -0.060660, 0.101842, -0.055027, 
    -0.067216, 0.040187, 0.023981, -0.045460, 0.007354, -0.078891, 0.037758, 0.040479, 
    -0.115462, -0.046480, -0.003564, -0.099537, -0.062010, 0.012748, 0.038448, -0.033560, 
    0.061204, 0.098552, -0.068365, -0.110188, 0.025879, -0.055305, -0.014667, 0.020075, 
    0.001142, 0.040954, 0.042461, 0.019130, -0.072360, 0.051515, -0.078742, 0.031124, 
    -0.035497, 0.000303, -0.092183, 0.011669, -0.026055, -0.077938, 0.099753, 0.048356, 
    0.030906, 0.001041, -0.025914, -0.051079, 0.053980, 0.037300, -0.060086, 0.014077, 
    0.055712, -0.036773, -0.060446, 0.013916, -0.045353, -0.071290, -0.064954, -0.034818, 
    -0.061519, -0.055966, 0.014285, -0.026894, 0.053431, 0.016023, -0.014325, -0.047998, 
    -0.051359, -0.039096, -0.066648, 0.049654, -0.004404, 0.011075, 0.003659, 0.036742, 
    0.024782, 0.020360, -0.001376, -0.028042, -0.091075, 0.097556, 0.008338, 0.022656, 
    -0.028378, 0.073460, -0.055713, 0.004123, -0.008720, -0.114417, -0.044773, -0.084725, 
    -0.035116, -0.043094, 0.034152, -0.072096, 0.005188, -0.001029, -0.026032, 0.026267, 
    0.051036, 0.004817, -0.011110, -0.067465, -0.050362, -0.005828, 0.053089, -0.027183, 
    0.003442, 0.000757, 0.045027, 0.084007, 0.008510, 0.023318, 0.011804, 0.045456, 
    -0.023320, -0.023180, 0.047306, -0.011139, 0.068674, 0.003820, -0.081194, -0.005391, 
    0.022653, 0.036184, 0.003587, 0.014755, 0.002320, 0.014439, 0.019724, -0.043819, 
    0.032537, -0.002558, -0.076694, -0.021736, 0.036782, 0.009688, -0.068273, 0.042267, 
    -0.082500, 0.078617, 0.061623, -0.038844, 0.045901, -0.074221, 0.043251, 0.013347, 
    0.020421, -0.048105, -0.026833, 0.084115, 0.038138, -0.095584, 0.015245, -0.007888, 
    -0.033100, -0.034917, 0.013331, 0.014081, -0.001389, -0.001697, 0.022271, -0.042400, 
    -0.024614, -0.025213, -0.013682, -0.031938, -0.015030, 0.046044, -0.094720, -0.058502, 
    0.023671, -0.068366, 0.034986, -0.032150, -0.015362, 0.014468, 0.022004, -0.046100, 
    -0.037715, -0.055144, 0.003222, -0.045335, 0.031548, -0.012648, -0.043366, -0.037901, 
    -0.030553, -0.040430, 0.015108, 0.025349, 0.015754, 0.064677, 0.036289, 0.040628, 
    -0.054789, -0.029590, -0.056766, -0.038729, -0.021479, -0.055263, -0.055612, 0.040621, 
    -0.048198, 0.032918, 0.009867, -0.044184, 0.001695, -0.045361, -0.023762, -0.006230, 
    -0.032931, 0.036201, 0.048315, -0.014219, -0.043400, 0.057215, -0.033076, 0.000164, 
    -0.012796, -0.021639, 0.044536, -0.028377, 0.009318, -0.027032, -0.049679, -0.015292, 
    -0.021397, 0.038187, -0.078913, -0.043397, -0.034196, 0.021415, -0.021641, 0.047938, 
    -0.002197, -0.049658, 0.061365, -0.051995, 0.047696, 0.049860, -0.048264, -0.048372, 
    -0.034631, 0.053521, -0.028279, 0.038148, -0.043428, -0.008076, 0.011099, -0.026465, 
    -0.048975, -0.019441, -0.000166, -0.010341, -0.044837, -0.055070, 0.015502, 0.005089, 
    -0.011196, 0.041883, -0.021966, -0.039511, -0.001649, -0.043389, -0.023121, -0.004365, 
    -0.063544, -0.010109, 0.036331, -0.062754, -0.038531, 0.024952, 0.014471, 0.032735, 
    0.009016, 0.018561, -0.047230, 0.032569, -0.004757, -0.013428, 0.022760, -0.037241, 
    -0.021727, -0.028215, 0.009728, -0.002936, -0.010013, -0.028956, -0.009251, -0.012997, 
    0.039371, -0.049688, 0.025509, 0.004920, -0.039857, 0.023677, 0.025553, -0.013925, 
    0.020822, 0.053093, -0.015311, 0.003085, -0.071947, -0.035850, -0.015427, 0.005431, 
    0.121053, 0.000900, 0.113782, -0.002097, -0.018836, 0.003990, 0.012015, 0.015733, 
    -0.009213, 0.062292, 0.016635, -0.048047, -0.015511, 0.007768, -0.076410, 0.122076, 
    -0.007537, 0.046881, -0.009942, -0.043803, -0.050943, -0.050066, -0.004894, -0.001501, 
    0.089230, -0.013729, 0.019795, -0.007754, -0.048745, 0.055238, -0.029872, -0.039415, 
    0.040495, 0.033223, 0.019467, -0.017538, -0.032614, -0.045823, 0.071489, 0.033187, 
    0.033941, -0.005081, -0.054514, -0.094180, -0.008168, -0.001840, 0.051838, -0.025750, 
    -0.011658, -0.039182, 0.024180, 0.053277, -0.026302, 0.146093, 0.022165, 0.036875, 
    0.001600, -0.040067, 0.009173, 0.051383, 0.051038, -0.042061, -0.062123, -0.011549, 
    0.064039, 0.025798, 0.018094, -0.056012, 0.012714, 0.050721, -0.003747, 0.010524, 
    -0.078643, -0.013818, -0.023212, 0.012871, -0.052321, 0.065994, 0.007989, -0.005197, 
    0.033186, -0.055754, 0.061884, 0.096013, 0.035024, -0.038301, 0.021137, 0.044529, 
    -0.004437, 0.008550, 0.002669, -0.013948, -0.047598, 0.001627, -0.034950, 0.022340, 
    0.001942, 0.020793, -0.037750, 0.057446, 0.000405, 0.018893, -0.003659, -0.062799, 
    0.032731, -0.048047, 0.015553, 0.002888, -0.026649, -0.028988, -0.015997, 0.005749, 
    0.080414, 0.085048, 0.047408, 0.042359, -0.018236, -0.033198, -0.010827, 0.036923, 
    -0.056742, 0.058261, -0.048131, -0.013288, -0.010715, 0.009954, -0.003210, 0.035115, 
    -0.050255, -0.046756, -0.034010, -0.038595, -0.026044, -0.186801, -0.026668, -0.025734, 
    -0.165117, -0.057816, 0.021161, -0.044794, -0.109780, -0.062638, 0.015942, 0.048759, 
    0.005556, -0.012546, -0.059638, -0.048991, -0.034868, 0.039340, -0.040854, -0.066986, 
    -0.009058, -0.013478, -0.034068, 0.027346, -0.089689, -0.007116, 0.047399, 0.009072, 
    -0.007400, 0.075778, -0.173008, -0.026502, 0.014294, 0.008327, 0.002290, -0.019370, 
    -0.012438, 0.022136, 0.029994, 0.023942, 0.017529, -0.063846, -0.024152, -0.055836, 
    -0.057028, 0.025041, -0.048175, 0.102133, 0.049134, -0.005428, -0.024933, -0.031691, 
    0.051669, -0.022202, -0.004731, -0.070069, 0.031595, -0.095094, 0.032399, -0.074634, 
    -0.072185, -0.064652, -0.054537, 0.009172, -0.004829, -0.044315, -0.005237, 0.039271, 
    0.003778, 0.032668, 0.001047, -0.115000, -0.057384, -0.058313, -0.011092, 0.036484, 
    -0.059334, -0.008769, -0.035726, 0.004950, -0.034066, -0.017985, -0.084649, -0.069187, 
    -0.040092, -0.066648, -0.038228, 0.060721, 0.028817, -0.004039, -0.010881, -0.026079, 
    0.071251, -0.050831, -0.008057, -0.018392, -0.034144, 0.014447, -0.009036, -0.078765, 
    -0.064102, -0.023877, 0.012665, -0.009322, 0.107582, -0.031783, -0.013673, -0.034357, 
    -0.075105, -0.040289, -0.096616, -0.058780, -0.097853, -0.027568, -0.131442, -0.006468, 
    -0.085923, -0.052624, 0.036266, -0.015537, -0.063751, -0.081084, -0.018754, 0.021506, 
    -0.036406, 0.044080, 0.093097, -0.073095, 0.032163, 0.005123, -0.000243, -0.001744, 
    0.007594, -0.008444, -0.003508, 0.008307, 0.044226, -0.037378, 0.055433, -0.000513, 
    0.006231, -0.000194, 0.022815, -0.000551, -0.106510, -0.085213, -0.033957, 0.035993, 
    -0.019216, -0.024790, -0.008341, -0.033950, 0.011122, -0.011206, -0.004443, 0.027247, 
    0.006573, -0.098526, -0.016524, -0.018690, -0.060433, -0.016708, 0.012332, 0.100110, 
    -0.091198, -0.034183, 0.071873, -0.079571, -0.008841, -0.020951, 0.012874, -0.054596, 
    0.010742, 0.064843, -0.079705, -0.112921, -0.037417, 0.017194, 0.008552, 0.035450, 
    -0.018911, 0.020288, -0.007696, -0.064154, 0.034947, -0.061191, 0.028142, 0.076523, 
    -0.002498, 0.003376, -0.010035, 0.038891, 0.046251, -0.032327, 0.045182, -0.067328, 
    -0.071185, -0.029459, -0.024507, -0.004062, -0.002577, -0.134677, 0.029613, -0.009524, 
    0.024057, 0.020326, -0.028914, -0.018454, 0.067268, -0.091756, -0.122408, -0.103186, 
    0.037722, -0.018482, 0.024625, -0.053376, -0.059063, -0.097622, -0.039407, 0.090296, 
    -0.054717, -0.070763, 0.031451, 0.037681, -0.015991, 0.018336, 0.029486, 0.060591, 
    0.017387, -0.008814, 0.054679, 0.058012, -0.053059, 0.022877, 0.030414, -0.027514, 
    0.047010, 0.040711, 0.030916, -0.067626, -0.014430, 0.061083, -0.056106, -0.063085, 
    -0.063397, 0.024342, -0.080858, 0.011506, -0.003242, 0.013677, 0.056604, -0.000356, 
    -0.075253, -0.014255, 0.053701, 0.010684, 0.052296, -0.011908, -0.022118, 0.000668, 
    0.069445, -0.050000, 0.014586, -0.011143, 0.027718, 0.001201, -0.055167, 0.027666, 
    0.022244, 0.053444, -0.066969, 0.033799, 0.024068, 0.019336, -0.014035, 0.030702, 
    -0.040052, -0.027664, 0.040813, 0.047126, -0.057756, 0.011476, 0.035508, 0.021380, 
    0.028428, -0.035204, -0.010446, -0.003919, -0.037035, -0.016174, -0.063807, 0.003471, 
    0.012291, -0.022534, 0.014630, 0.035791, -0.025968, 0.049812, 0.131599, 0.031003, 
    0.046521, 0.050279, -0.079206, -0.050158, 0.058671, 0.062149, -0.041854, -0.016018, 
    -0.028004, 0.004566, 0.026729, 0.029844, -0.027773, -0.012733, 0.014606, -0.041894, 
    0.025468, 0.015042, 0.038239, 0.000246, -0.060281, 0.003725, -0.001337, -0.046912, 
    -0.003376, 0.033500, 0.002670, 0.025399, -0.015316, -0.004118, 0.038771, 0.051177, 
    0.025858, -0.004864, 0.068642, -0.021379, -0.002881, 0.035314, 0.022286, 0.062893, 
    0.013681, 0.023330, -0.031803, -0.043164, -0.063036, 0.001241, -0.018154, -0.064978, 
    0.063740, -0.062481, -0.083577, -0.012870, 0.047507, 0.045658, -0.044468, 0.023542, 
    -0.071031, 0.053576, -0.063869, 0.009681, -0.037458, 0.003532, -0.057909, -0.042174, 
    0.013450, -0.047193, 0.019620, 0.045541, -0.065100, 0.022461, 0.040022, 0.029168, 
    -0.056392, -0.057085, 0.000877, -0.020724, -0.063256, -0.009889, 0.037211, 0.061952, 
    -0.008827, -0.023308, -0.053536, 0.032535, 0.007345, -0.014398, 0.016723, -0.025425, 
    0.005763, 0.043426, -0.009237, -0.049474, -0.052206, 0.033002, -0.054098, 0.067659, 
    0.031497, 0.011599, 0.013799, -0.012283, 0.038122, 0.055309, -0.008045, 0.052581, 
    0.063459, -0.031917, -0.057086, -0.004339, -0.024668, 0.029265, 0.011663, -0.034816, 
    0.012439, 0.027131, 0.064218, 0.004301, 0.022762, 0.020705, 0.021786, -0.022195, 
    -0.023345, -0.009702, -0.010254, -0.011818, 0.034334, -0.051695, -0.004776, 0.006091, 
    -0.048516, -0.031639, -0.030537, 0.064171, -0.027687, 0.050735, -0.046370, 0.043965, 
    0.031498, 0.034907, 0.057895, -0.010193, -0.042082, 0.024454, 0.001370, 0.057520, 
    -0.020691, -0.040888, -0.054612, 0.014082, 0.061910, -0.015614, 0.000397, -0.003885, 
    -0.001036, 0.008497, 0.001593, 0.092579, -0.065718, -0.037293, -0.011196, -0.037636, 
    -0.035968, 0.015521, 0.036569, 0.010630, -0.004224, -0.034421, 0.027425, -0.019278, 
    -0.011046, -0.077645, -0.054283, -0.012224, -0.002062, 0.037768, -0.033531, 0.009837, 
    -0.023946, -0.013380, 0.032912, -0.030266, -0.062086, 0.005745, -0.016945, -0.009716, 
    -0.014608, 0.068385, 0.037290, 0.026474, -0.003763, -0.010987, 0.028552, -0.008120, 
    -0.001404, -0.006209, 0.054012, 0.048280, 0.020234, 0.001929, 0.063833, 0.044683, 
    0.024195, -0.037870, -0.066741, -0.012453, 0.050987, 0.032559, 0.017556, -0.061716, 
    -0.010197, 0.042882, 0.022538, -0.012533, 0.018629, 0.054281, 0.043365, 0.002430, 
    -0.040823, 0.004406, -0.027027, 0.020552, -0.013129, -0.045107, 0.033388, -0.047052, 
    0.022198, -0.053022, 0.020945, -0.028070, -0.023449, 0.027473, -0.018892, -0.018186, 
    0.037148, 0.034731, -0.032731, -0.017755, -0.024938, -0.008788, -0.051817, -0.001498, 
    0.047790, -0.059067, 0.053898, -0.031263, 0.039951, 0.014333, 0.017537, 0.012827, 
    -0.067333, 0.002135, -0.021151, -0.006492, 0.000329, -0.040561, 0.006256, -0.003489, 
    0.015252, -0.015432, 0.014172, -0.005412, 0.048140, -0.056951, -0.037364, -0.028238, 
    0.048526, -0.029248, 0.049561, -0.030779, -0.036236, 0.000905, -0.002019, 0.026582, 
    -0.002125, -0.041101, 0.048090, 0.001225, -0.017402, -0.001572, 0.023019, -0.020931, 
    0.040157, -0.012526, 0.031113, 0.054335, -0.040762, -0.025064, -0.032024, -0.045392, 
    -0.053060, -0.029221, -0.052266, 0.001356, -0.003300, -0.049880, -0.030283, -0.045229, 
    0.047649, 0.026397, 0.013167, -0.022936, -0.056592, 0.015885, 0.044211, 0.010345, 
    -0.065720, 0.050914, -0.018159, -0.056068, 0.006244, 0.057710, 0.035762, -0.038790, 
    -0.045633, -0.033251, 0.066266, 0.036829, -0.021628, -0.035869, 0.036316, -0.057780, 
    0.014949, -0.054900, -0.015677, -0.050779, 0.038690, 0.006275, 0.014410, 0.006942, 
    0.016100, 0.019680, 0.016382, 0.024568, -0.015726, 0.026567, -0.018248, 0.045535, 
    -0.030241, -0.048866, -0.054437, -0.044273, 0.007511, 0.043591, 0.047703, 0.013963, 
    -0.048743, 0.043751, 0.040625, 0.031820, 0.000764, 0.000267, 0.010318, -0.047697, 
    -0.061418, -0.039579, -0.055372, 0.044856, -0.048246, -0.034916, -0.027552, 0.043477, 
    -0.022065, 0.042173, -0.064265, 0.003021, -0.004431, -0.002439, -0.025011, 0.048382, 
    -0.029779, -0.049998, 0.014863, 0.015232, 0.037830, -0.008989, -0.039467, -0.006696, 
    0.035566, 0.022569, 0.026134, 0.053251, -0.047387, 0.036944, 0.017680, 0.020602, 
    0.048804, 0.017008, -0.011598, 0.038924, -0.040376, 0.023702, 0.032274, -0.066465, 
    0.009651, -0.045144, -0.033424, -0.050227, 0.040656, 0.015105, 0.002786, -0.019922, 
    0.029014, 0.012638, -0.002357, 0.033011, -0.028920, 0.016092, -0.015154, -0.012228, 
    -0.027346, -0.057264, -0.028538, 0.025179, 0.015908, -0.019011, 0.013944, 0.007524, 
    -0.052306, 0.020802, -0.051395, -0.042372, 0.052896, 0.016712, -0.004071, 0.024713, 
    0.012557, 0.049749, -0.022478, 0.051512, 0.003336, 0.040246, -0.020751, -0.043398, 
    0.045896, -0.044940, -0.001585, 0.047723, -0.017567, 0.014654, -0.048752, -0.010262, 
    -0.045145, 0.017351, -0.000138, 0.027437, 0.033670, 0.032655, 0.040222, -0.016462, 
    0.040344, 0.000405, -0.010397, 0.047312, -0.030234, -0.042383, -0.063448, -0.063584, 
    0.024054, -0.040222, 0.025594, -0.018260, -0.039469, 0.012668, -0.058760, -0.029895, 
    0.021970, -0.062253, -0.042826, 0.020325, -0.019540, -0.012729, -0.057426, 0.010954, 
    0.032523, -0.003620, -0.003528, -0.005551, 0.022890, -0.037310, 0.046476, -0.023247, 
    -0.010974, -0.014622, -0.034955, 0.038080, 0.006682, -0.025304, -0.020087, -0.059940, 
    -0.061971, -0.001680, 0.043340, -0.008237, 0.028230, 0.027181, -0.020587, -0.037222, 
    0.041425, -0.023649, -0.029838, 0.053041, -0.024328, 0.060159, 0.040672, 0.038251, 
    0.029159, 0.004508, 0.002895, -0.007839, -0.000820, -0.033651, -0.031580, 0.002672, 
    0.016904, -0.061234, -0.054967, 0.029839, -0.058015, -0.053950, 0.051440, -0.064911, 
    -0.053979, 0.030356, 0.048228, -0.040858, 0.002001, 0.064422, 0.002024, 0.052348, 
    0.028469, 0.011490, 0.027295, -0.014119, -0.007678, -0.022891, -0.059984, -0.068006, 
    -0.022464, 0.036592, -0.060375, 0.019760, -0.010271, 0.017245, -0.025999, -0.015665, 
    -0.040596, -0.043138, -0.066657, 0.052068, 0.064579, -0.047015, -0.034957, 0.080588, 
    0.007906, -0.053410, 0.031678, -0.063509, 0.018905, 0.059563, 0.064698, 0.036779, 
    0.038102, -0.014911, -0.009601, 0.049380, -0.008041, -0.013586, -0.051486, 0.058351, 
    0.039941, -0.033144, 0.072155, -0.062368, -0.038066, -0.036375, 0.012956, -0.004514, 
    -0.028679, -0.043011, 0.002489, -0.054751, -0.027371, 0.037388, 0.041178, 0.027124, 
    -0.008445, -0.046398, -0.000547, -0.016952, -0.002464, -0.026764, -0.060602, 0.001733, 
    0.041923, 0.053917, -0.005976, -0.053137, -0.048217, 0.003715, -0.033271, 0.036635, 
    0.022680, -0.020350, 0.033997, -0.017865, 0.007318, -0.016391, -0.058171, 0.001362, 
    0.024639, -0.074781, -0.024453, 0.008405, 0.011215, -0.022335, 0.017933, -0.033832, 
    -0.037824, 0.008213, -0.003267, -0.021342, -0.054467, 0.017112, -0.034671, 0.004910, 
    0.039300, -0.005700, 0.049482, -0.049194, 0.021796, -0.000594, -0.023273, -0.000498, 
    0.044823, 0.043785, 0.007664, 0.048658, 0.007405, -0.053211, 0.020886, 0.027797, 
    -0.045546, 0.049774, 0.041032, 0.025863, -0.010869, 0.037780, -0.009858, -0.065656, 
    -0.064290, -0.052966, -0.057943, -0.026844, -0.027062, 0.034796, -0.020508, -0.022620, 
    -0.025346, 0.006641, -0.027748, 0.045648, -0.030141, 0.048426, -0.019351, 0.022960, 
    -0.059358, -0.021105, 0.029475, -0.005263, 0.009456, -0.022843, 0.010527, 0.049944, 
    -0.017974, 0.069305, -0.025055, -0.011478, -0.023974, 0.036608, -0.029390, -0.047823, 
    -0.016353, 0.033471, 0.020088, 0.017946, -0.031035, -0.025272, 0.035582, 0.042131, 
    -0.021223, -0.004203, -0.054879, -0.054753, 0.046522, -0.014247, 0.055167, 0.002675, 
    0.041524, -0.023250, 0.032638, -0.008041, -0.029645, 0.006676, -0.042631, 0.028217, 
    -0.048414, -0.053890, -0.016545, 0.023444, -0.065187, 0.024496, -0.016581, 0.007600, 
    -0.001007, -0.026297, -0.058394, 0.036703, 0.018584, -0.018410, 0.071583, -0.043305, 
    -0.029108, -0.073484, 0.005765, 0.025925, -0.018427, -0.042797, 0.052348, -0.063548, 
    0.003386, -0.030544, -0.039384, -0.025851, 0.028858, -0.033806, 0.038727, -0.040039, 
    0.019412, 0.001763, -0.048022, 0.002286, 0.049073, -0.002313, -0.029924, 0.056024, 
    0.018124, -0.018868, -0.046228, -0.006641, -0.046850, -0.066831, 0.026611, -0.047236, 
    0.028629, -0.057913, 0.039970, 0.061154, 0.007755, -0.014457, -0.020702, 0.043633, 
    -0.058392, -0.021219, 0.032332, -0.028055, -0.046759, -0.013985, -0.012524, 0.040875, 
    -0.031278, 0.021127, -0.011683, -0.020780, 0.008059, -0.020027, 0.060324, -0.033025, 
    0.048195, 0.038715, 0.038419, -0.016386, -0.046373, 0.044480, -0.019526, -0.042117, 
    -0.057018, 0.052915, -0.013616, 0.011471, 0.037488, 0.050448, -0.002400, 0.007475, 
    0.019990, 0.014892, 0.053243, 0.041937, -0.039148, -0.058970, 0.022614, 0.054054, 
    0.028534, -0.067028, -0.034298, -0.055239, 0.002586, 0.018920, -0.028745, 0.009854, 
    -0.029868, -0.044212, 0.034966, -0.036616, 0.040500, -0.017206, 0.007587, -0.045742, 
    0.010557, -0.023002, -0.020850, -0.030575, -0.021738, 0.030468, 0.009370, -0.039379, 
    0.026078, -0.036566, -0.014219, 0.000575, -0.006146, 0.041971, -0.008382, -0.078022, 
    -0.031762, 0.048861, 0.036894, -0.014082, -0.022345, -0.028008, -0.002155, -0.050643, 
    0.006474, -0.014543, 0.069043, -0.038206, -0.055113, 0.008660, -0.036106, -0.106954, 
    -0.029073, -0.023493, -0.005572, 0.069271, -0.063203, -0.001916, 0.078448, 0.003673, 
    0.052410, 0.026288, -0.059453, -0.034401, 0.056353, 0.008564, 0.024669, -0.129500, 
    0.032028, -0.085682, -0.071139, -0.078439, 0.015382, -0.052008, -0.008302, 0.006985, 
    0.018900, 0.001686, -0.085714, 0.051186, 0.002554, -0.053483, 0.014632, -0.003159, 
    -0.017313, 0.058938, -0.007970, -0.100232, -0.042704, -0.028900, -0.032826, 0.026705, 
    -0.041235, -0.064978, 0.023585, -0.050232, -0.042482, -0.007155, -0.047027, 0.063184, 
    -0.106129, 0.004692, -0.071953, -0.011247, 0.060634, -0.049578, -0.085751, -0.042319, 
    -0.045348, 0.022551, 0.055896, -0.030663, -0.049018, 0.094941, -0.103493, 0.107572, 
    0.034494, -0.031173, -0.029742, 0.059899, -0.078758, -0.060776, -0.042975, 0.036007, 
    -0.165617, -0.005367, -0.090120, 0.007372, -0.017264, 0.015244, 0.030021, -0.023263, 
    -0.019455, 0.046238, 0.006071, -0.010314, -0.018982, -0.060513, -0.096502, 0.008458, 
    -0.075022, 0.026548, 0.002661, 0.061258, 0.028573, -0.023265, 0.081299, 0.015312, 
    0.067085, 0.025789, 0.049680, 0.029562, 0.001865, 0.037361, 0.001751, -0.014280, 
    -0.074699, 0.047793, 0.034093, 0.046742, 0.056649, -0.033385, -0.061230, -0.080986, 
    -0.012943, 0.002427, 0.081713, 0.008223, 0.045238, 0.000367, 0.037872, -0.042021, 
    -0.039909, -0.027521, 0.080750, -0.022862, -0.020404, 0.038295, 0.007385, -0.012889, 
    -0.066844, -0.043783, 0.016845, 0.013038, 0.023432, 0.008243, -0.056140, -0.005596, 
    0.049125, -0.011906, -0.064286, -0.039420, -0.012130, -0.025420, -0.038911, -0.086699, 
    -0.026638, -0.015476, -0.066036, -0.028290, -0.028415, -0.054943, -0.038583, -0.051809, 
    -0.052098, -0.013846, 0.019382, 0.001088, 0.011228, -0.044109, -0.010645, 0.009551, 
    -0.037323, 0.023475, 0.062766, -0.045502, 0.020164, -0.082295, 0.029006, -0.007015, 
    -0.033091, -0.021040, -0.037143, 0.084528, -0.029904, -0.019285, 0.020624, 0.030294, 
    0.059867, 0.044124, 0.007026, -0.004832, -0.055427, -0.083059, -0.056046, -0.031906, 
    0.026408, 0.012147, -0.044986, -0.087911, -0.074569, 0.053471, 0.010890, 0.025515, 
    -0.039841, 0.017569, 0.042891, -0.030171, 0.048147, -0.009230, -0.001767, -0.007570, 
    -0.042150, -0.030242, -0.050747, 0.036716, 0.021645, -0.005182, 0.003525, -0.058712, 
    -0.027552, 0.009381, 0.008699, -0.076924, 0.033865, 0.000999, 0.052734, -0.037306, 
    0.032266, -0.070358, -0.028524, -0.073860, -0.007206, -0.027534, -0.068281, 0.005990, 
    0.065400, 0.097734, 0.008445, -0.074362, 0.011133, 0.016759, -0.037700, 0.007371, 
    0.028935, -0.000851, -0.004291, 0.094485, -0.054049, 0.064318, -0.007289, 0.002190, 
    0.035229, -0.007775, 0.032885, -0.020297, -0.054421, 0.063938, 0.033007, 0.002113, 
    -0.052600, -0.049445, -0.024463, 0.063452, 0.004624, -0.013136, 0.030962, -0.014856, 
    0.026998, 0.029997, 0.021156, -0.037758, 0.005732, 0.081224, 0.065983, -0.015337, 
    0.035815, 0.025535, 0.018444, -0.032383, -0.007689, 0.092991, -0.015833, 0.083858, 
    0.030042, -0.048998, 0.008051, -0.048207, -0.023471, 0.023072, 0.071196, -0.009775, 
    0.052545, -0.020395, -0.072172, -0.043516, -0.050298, 0.012682, -0.088085, -0.030323, 
    0.097298, -0.034209, 0.091527, 0.008506, -0.038102, -0.010980, -0.023518, 0.038453, 
    0.050623, 0.013505, 0.024308, -0.024614, 0.087154, 0.061739, 0.042062, -0.043917, 
    0.008617, 0.021699, 0.069572, -0.006481, -0.044316, 0.077154, 0.006735, -0.044146, 
    -0.023424, -0.023098, -0.038953, 0.044140, -0.032555, -0.071822, 0.054914, -0.074883, 
    -0.030823, 0.009819, 0.041686, -0.007623, 0.046488, 0.146615, 0.034615, -0.042056, 
    -0.077873, -0.041980, 0.011229, -0.008042, -0.005361, 0.013234, -0.006745, -0.028173, 
    0.049891, -0.063368, 0.047237, 0.047925, 0.034783, 0.004021, 0.008808, 0.038723, 
    0.047663, -0.000208, -0.072530, -0.024353, -0.037131, -0.071193, -0.037765, 0.008147, 
    -0.050008, -0.021340, 0.022446, 0.010113, -0.016504, -0.029433, 0.002433, 0.040945, 
    0.039546, 0.049873, 0.008912, -0.023784, 0.020633, -0.014543, 0.027658, 0.045134, 
    0.036704, 0.018547, 0.061834, 0.035430, 0.014751, -0.027417, 0.059281, 0.028889, 
    0.034213, -0.040084, -0.000873, -0.035446, -0.012046, 0.007185, -0.064268, 0.052684, 
    -0.015556, 0.018165, -0.012784, -0.028885, 0.041103, 0.016874, -0.038703, -0.021225, 
    0.005243, -0.028822, 0.022536, -0.023745, -0.017953, -0.084563, 0.036826, 0.068926, 
    0.022937, 0.030424, -0.073424, -0.059142, 0.002711, -0.031430, -0.047127, 0.010525, 
    0.045603, 0.002633, 0.028328, -0.049723, 0.050057, -0.087751, -0.017468, -0.059476, 
    0.004187, 0.065823, -0.024565, 0.044482, 0.015391, -0.055625, 0.016020, -0.016701, 
    -0.039420, 0.050174, 0.023985, 0.030457, -0.008698, 0.015321, 0.027004, 0.035975, 
    0.029235, -0.045317, -0.083912, -0.043290, -0.001355, -0.054314, -0.018235, 0.067094, 
    -0.013183, 0.003526, -0.066928, 0.047545, -0.002818, -0.022276, -0.057258, -0.054431, 
    -0.029941, -0.024420, 0.060397, 0.024174, -0.060494, -0.003734, -0.046569, -0.030288, 
    0.002871, 0.030559, 0.048349, -0.032896, 0.051915, -0.058665, 0.069021, 0.115101, 
    -0.020947, -0.079011, -0.009633, 0.043278, -0.002203, 0.029505, -0.008668, -0.019641, 
    0.026755, -0.026729, 0.023123, 0.012235, 0.021946, 0.043753, -0.035341, -0.036109, 
    -0.004858, -0.006121, 0.073272, 0.006726, -0.056744, -0.032592, -0.051207, 0.036832, 
    -0.055006, -0.006603, 0.005297, 0.006443, 0.000886, -0.010521, 0.092956, -0.025605, 
    0.011164, 0.053053, -0.023669, -0.025311, -0.044818, 0.033717, 0.060496, -0.017922, 
    0.034440, -0.024594, -0.045496, -0.021781, 0.050604, -0.030678, 0.099296, 0.000678, 
    -0.000865, 0.035653, -0.013570, -0.012966, -0.035478, -0.102961, 0.025686, -0.012337, 
    0.041487, 0.056892, 0.028849, -0.013789, 0.008432, -0.021526, -0.018107, 0.029681, 
    -0.026058, -0.045834, -0.039338, 0.033990, -0.055602, 0.021195, 0.003236, 0.008259, 
    -0.114269, -0.029595, -0.008311, -0.048686, -0.052931, -0.057425, -0.014836, -0.049251, 
    0.026425, -0.015368, 0.015185, -0.052691, 0.021033, 0.046203, -0.033323, 0.025022, 
    -0.102968, -0.026362, -0.002547, 0.009621, -0.062014, 0.017919, 0.062647, 0.039890, 
    -0.054872, 0.019709, 0.015525, 0.057179, 0.007828, -0.034505, -0.039969, -0.042032, 
    -0.048827, 0.044030, -0.075658, 0.002082, -0.012226, 0.068331, -0.004256, -0.006261, 
    -0.004609, -0.015502, -0.024539, -0.017970, -0.029773, -0.029991, 0.027542, 0.019383, 
    -0.041668, -0.002219, 0.041420, -0.004723, 0.041331, 0.001424, 0.012694, -0.016555, 
    -0.009570, 0.034597, -0.029163, 0.079189, 0.102027, -0.029802, 0.053749, 0.015761, 
    0.007996, -0.037492, -0.030540, 0.028430, 0.007783, -0.006042, 0.009513, 0.022234, 
    0.009827, 0.052348, -0.082058, 0.018896, 0.023695, -0.033169, 0.012239, 0.020012, 
    -0.018220, -0.007956, 0.041215, -0.032414, -0.009461, -0.062200, 0.036282, -0.020963, 
    -0.032643, 0.005463, -0.031853, 0.029931, -0.026490, -0.051786, -0.041200, -0.043377, 
    -0.030006, 0.020907, 0.057436, 0.008300, -0.055818, 0.013860, -0.043282, -0.034184, 
    -0.039293, -0.018017, 0.000323, -0.048574, 0.057382, 0.050833, -0.067217, -0.044494, 
    0.039919, 0.081957, -0.022468, 0.011654, 0.023421, 0.009230, -0.002155, -0.092793, 
    0.007374, -0.015991, -0.020419, -0.017034, 0.039921, -0.012384, -0.028207, -0.000238, 
    0.000696, 0.034755, -0.028461, 0.041562, -0.020501, -0.070644, -0.052090, 0.004666, 
    0.059338, -0.002728, -0.087127, -0.014824, -0.018847, 0.013768, -0.027604, -0.038950, 
    0.025933, 0.000574, 0.042084, -0.004925, -0.040648, -0.035996, -0.042191, 0.022386, 
    0.004048, -0.025821, 0.025468, -0.075947, -0.054177, -0.066034, -0.027448, 0.011239, 
    0.035644, 0.034535, -0.040491, 0.022516, 0.056096, 0.008575, 0.012101, -0.033988, 
    -0.069288, -0.068631, -0.045841, 0.008177, 0.049002, -0.068127, -0.010124, -0.075767, 
    -0.017022, 0.009738, -0.042890, -0.005123, -0.041166, -0.008964, 0.018096, -0.032087, 
    0.027481, 0.000654, -0.007439, 0.018269, 0.031960, -0.081423, -0.012377, -0.013997, 
    -0.068712, -0.016432, -0.039746, 0.018374, 0.003886, -0.051219, -0.026555, 0.001520, 
    0.022092, -0.032070, -0.068570, 0.006506, -0.035912, -0.062067, 0.006501, -0.048268, 
    -0.022790, 0.055575, 0.009016, 0.026938, -0.011187, 0.038001, 0.028876, -0.048594, 
    -0.056228, -0.053296, 0.027108, -0.000502, -0.094785, -0.024413, 0.011018, 0.050076, 
    -0.018111, 0.025443, 0.050018, 0.039090, -0.034221, -0.051239, -0.020169, -0.054867, 
    0.099730, 0.036383, 0.013061, 0.032373, -0.020435, -0.061249, 0.036500, 0.023236, 
    0.038420, -0.002902, 0.000237, 0.006025, 0.001732, 0.028342, -0.047281, 0.010993, 
    -0.038976, -0.065363, 0.029187, -0.026877, 0.083806, 0.014709, -0.002622, -0.078586, 
    0.020450, -0.006381, 0.013434, -0.033797, -0.034729, -0.024451, 0.032937, -0.062111, 
    -0.006635, -0.008101, -0.090476, -0.012419, -0.040937, 0.033339, 0.017752, -0.013406, 
    -0.008877, -0.112114, 0.028300, -0.028004, 0.021811, 0.030795, -0.012239, -0.017878, 
    -0.042131, 0.070648, -0.062567, -0.044263, -0.051373, -0.049382, 0.001502, -0.036051, 
    -0.072200, -0.025293, 0.057635, -0.008208, -0.010341, -0.064905, -0.094819, -0.001723, 
    0.003602, 0.036392, 0.001958, -0.033067, -0.039751, -0.015747, -0.019283, -0.052271, 
    -0.014159, -0.035170, -0.056794, -0.032522, 0.022757, 0.028875, 0.003136, 0.064914, 
    0.013906, 0.033370, 0.033803, 0.055146, 0.082972, 0.006026, -0.072271, -0.060315, 
    -0.044628, 0.039345, 0.006185, -0.023486, 0.023407, -0.056634, -0.016619, 0.011239, 
    -0.035182, 0.016712, 0.005107, -0.040390, 0.040726, -0.015741, -0.054011, -0.084660, 
    -0.038799, 0.031454, -0.033333, 0.033585, -0.062756, 0.030813, -0.061169, 0.028736, 
    0.012581, 0.007922, 0.031756, -0.025219, 0.114137, -0.064390, 0.024588, -0.049555, 
    -0.056788, 0.033790, 0.151547, -0.009881, 0.020005, 0.055432, -0.027236, -0.041221, 
    -0.089275, 0.003607, 0.035537, -0.075579, -0.025178, -0.051736, 0.052999, -0.059206, 
    0.056205, -0.015502, -0.067796, 0.064679, 0.094836, 0.008027, 0.047837, -0.056567, 
    0.082070, -0.079913, 0.017276, -0.046859, 0.058710, -0.015597, -0.035478, -0.010514, 
    -0.029508, 0.010455, -0.090966, 0.011608, 0.016523, 0.007132, 0.002880, 0.014702, 
    0.004871, -0.048849, 0.077065, -0.078433, 0.075396, -0.090553, -0.038044, 0.017067, 
    0.013038, 0.027903, -0.022239, 0.089653, -0.004981, -0.041380, 0.019391, -0.056641, 
    -0.064842, -0.061655, -0.021755, -0.001904, 0.034360, -0.103316, -0.050928, -0.068802, 
    -0.086947, 0.005677, 0.019523, -0.054908, 0.027144, 0.049777, -0.030201, -0.011548, 
    -0.074083, -0.063382, 0.039734, -0.059787, -0.068976, 0.070729, 0.016852, -0.024208, 
    -0.018521, -0.025343, 0.035285, 0.067328, 0.030064, -0.100828, -0.040188, 0.003185, 
    -0.057108, -0.021828, -0.143648, -0.068553, -0.080769, 0.001492, -0.122824, -0.052012, 
    0.017677, 0.010996, -0.034483, 0.068551, -0.046293, -0.012330, -0.058377, 0.066616, 
    -0.045923, 0.036804, -0.035292, -0.037219, -0.043013, -0.008009, -0.052609, 0.005397, 
    0.009777, -0.045365, 0.066852, 0.065682, -0.033154, 0.040559, -0.080120, -0.062819, 
    0.005820, 0.008727, -0.008817, -0.096803, 0.074011, -0.118168, -0.062277, -0.077324, 
    -0.010746, -0.004092, -0.008789, -0.043873, 0.010205, 0.058436, 0.024361, 0.018998, 
    0.057847, 0.010846, 0.002756, 0.032185, -0.047278, -0.025710, -0.056399, -0.051645, 
    -0.024702, 0.002651, -0.052984, -0.016685, 0.034659, -0.020241, 0.037386, -0.002621, 
    0.007328, 0.016652, -0.014855, 0.052671, 0.012697, 0.040445, 0.058376, -0.021323, 
    0.046414, -0.038034, 0.015447, -0.037015, 0.018857, -0.007406, 0.000230, -0.019410, 
    -0.015535, -0.039960, -0.001325, -0.024892, -0.024175, -0.038940, -0.016692, -0.029059, 
    -0.048660, -0.011312, 0.006031, 0.026154, 0.036829, 0.080176, -0.034023, -0.053774, 
    -0.035899, -0.008343, 0.052182, 0.085426, 0.004798, 0.003223, 0.001081, 0.046266, 
    -0.016986, -0.027076, -0.075167, 0.000844, -0.038130, 0.031050, -0.087756, -0.032723, 
    -0.041328, 0.042718, 0.048679, -0.023315, 0.011567, 0.038517, -0.013585, 0.014986, 
    -0.044861, 0.035800, -0.011463, -0.048343, -0.004996, -0.043813, 0.015700, 0.025836, 
    0.041561, 0.073875, 0.027945, 0.076546, 0.055187, -0.035227, 0.034688, 0.043357, 
    0.061063, -0.030570, 0.026812, 0.046257, 0.010649, -0.003440, -0.063690, -0.045198, 
    0.037962, -0.071912, 0.042908, -0.018299, 0.049417, -0.054418, 0.025048, 0.002136, 
    -0.040004, 0.031394, -0.090556, 0.072969, 0.050141, 0.022250, 0.033993, -0.013833, 
    0.005240, -0.011220, 0.034633, 0.001087, -0.048778, 0.046533, -0.011612, 0.007323, 
    0.009380, 0.077057, 0.068545, -0.013975, 0.045775, 0.063948, -0.023212, 0.022221, 
    0.081988, 0.033084, -0.074823, -0.046432, 0.037852, -0.026475, -0.042126, 0.055997, 
    -0.064685, -0.053104, -0.039132, 0.064606, 0.012521, 0.056629, -0.018265, 0.073506, 
    -0.006873, 0.064597, -0.034856, 0.050487, -0.051709, -0.060713, 0.054532, -0.113386, 
    -0.032578, 0.064506, -0.063727, -0.029572, 0.070865, -0.027796, -0.022522, -0.068471, 
    0.053892, 0.017422, -0.109771, -0.073775, -0.002786, 0.153100, -0.003388, 0.028480, 
    0.020602, -0.016892, -0.001116, 0.004221, -0.026552, 0.047258, 0.022580, 0.102909, 
    -0.054596, 0.015700, 0.012342, -0.009791, -0.184181, -0.043898, -0.013479, -0.014667, 
    -0.028649, -0.029829, 0.054373, 0.097137, -0.010488, -0.096570, -0.044898, -0.084790, 
    -0.010081, -0.047239, 0.009404, -0.044381, 0.057111, 0.017175, 0.007220, 0.057717, 
    0.045069, -0.031350, -0.030475, 0.070471, -0.124153, -0.115025, -0.000789, 0.062914, 
    -0.038331, -0.053317, -0.091307, 0.115728, 0.023844, -0.060420, -0.013905, -0.078703, 
    0.054800, 0.017994, -0.008184, -0.003236, -0.055336, 0.039125, -0.087713, 0.027178, 
    0.119154, 0.041018, -0.060490, -0.021418, -0.063908, -0.007485, -0.012503, -0.032551, 
    -0.018524, -0.050323, 0.057941, -0.004587, 0.054958, 0.016633, -0.007507, 0.030167, 
    -0.025325, -0.011336, 0.013968, -0.014676, -0.034777, 0.035158, -0.022830, 0.025982, 
    0.025782, 0.044010, -0.058011, -0.013652, -0.002086, -0.033032, -0.087809, 0.012898, 
    0.069868, 0.052242, 0.029461, -0.028253, -0.006552, 0.066442, 0.022369, 0.021416, 
    0.045625, -0.015783, 0.047617, -0.013426, 0.013956, 0.020251, 0.014026, 0.017369, 
    -0.009089, 0.042877, 0.025276, -0.047922, -0.019530, -0.052724, -0.007534, 0.016137, 
    0.053924, -0.038861, 0.047128, -0.050803, 0.023137, 0.040545, 0.037475, 0.024127, 
    -0.000965, 0.017464, 0.073000, -0.050328, -0.049719, -0.044524, -0.019080, 0.064231, 
    -0.052936, 0.029806, -0.014564, -0.005803, -0.020327, 0.005244, -0.016462, -0.057894, 
    0.038438, -0.015108, 0.001203, 0.014309, 0.026968, 0.037953, -0.013132, 0.023900, 
    -0.059126, -0.060525, 0.001187, 0.006404, 0.011226, -0.053922, 0.054582, 0.010628, 
    0.018960, -0.019542, -0.008569, 0.045679, 0.007557, 0.082644, 0.018974, -0.072693, 
    -0.029610, 0.031210, 0.051139, 0.047730, -0.018577, -0.061862, -0.058902, 0.093199, 
    -0.086200, -0.021484, -0.038834, -0.010758, 0.071980, -0.041234, 0.031347, -0.008398, 
    -0.065593, -0.012617, 0.006068, -0.054955, 0.032734, -0.011634, -0.048846, -0.019376, 
    -0.020389, -0.018659, 0.008879, 0.018691, -0.008642, 0.011714, 0.049649, -0.013675, 
    0.084177, 0.005945, -0.006913, 0.019695, 0.006699, 0.030645, -0.012808, -0.010011, 
    -0.009423, 0.085745, 0.003802, 0.036881, -0.071636, 0.004532, -0.001138, 0.021449, 
    -0.008190, 0.040781, -0.024406, -0.043331, 0.004870, 0.014275, 0.026477, 0.044315, 
    -0.019603, -0.007522, -0.058029, -0.065687, 0.005756, -0.017619, -0.045021, -0.006290, 
    0.005932, 0.013071, -0.012244, 0.041064, -0.043163, 0.029254, -0.039279, -0.060090, 
    -0.013771, 0.050870, 0.014054, 0.007306, -0.032086, 0.042790, -0.033495, 0.035185, 
    -0.117151, -0.038689, 0.022147, -0.014423, -0.047164, -0.016991, -0.014480, -0.033161, 
    -0.001559, -0.061041, 0.020759, -0.030858, -0.048239, 0.041528, 0.035114, -0.013184, 
    0.035332, 0.009087, 0.012968, -0.017224, 0.010263, 0.045308, -0.055295, -0.060676, 
    -0.056405, -0.017601, -0.004613, 0.008338, 0.002895, 0.013054, -0.052375, -0.017005, 
    -0.059907, -0.040564, 0.030208, -0.026797, 0.036617, -0.004693, -0.012952, -0.046304, 
    -0.032983, -0.036575, 0.027212, 0.035768, 0.002318, 0.038260, 0.052753, 0.020231, 
    -0.048108, -0.040358, 0.007263, 0.013987, 0.025778, 0.022112, -0.059766, 0.037708, 
    -0.007907, 0.028557, -0.064296, -0.033753, 0.013327, 0.001117, 0.048282, -0.006134, 
    -0.027046, 0.009111, 0.022317, -0.046855, 0.026076, -0.066192, 0.031256, 0.047390, 
    -0.032890, -0.054619, 0.046941, 0.024033, -0.026008, 0.034661, -0.051014, -0.028662, 
    0.004957, 0.036501, 0.045930, -0.030622, -0.012482, -0.020587, -0.054947, 0.040539, 
    -0.018717, -0.039481, -0.047621, 0.000753, 0.006652, -0.002853, 0.010891, -0.008502, 
    0.004616, -0.000541, -0.003766, 0.032815, 0.038489, -0.038975, 0.044445, 0.082258, 
    -0.074342, 0.044175, -0.011499, -0.028297, -0.039422, -0.007908, 0.000151, 0.024059, 
    -0.057897, -0.021712, 0.042600, 0.038011, -0.039436, 0.059046, 0.001301, 0.038283, 
    0.005950, -0.040999, 0.022304, 0.052322, 0.047427, -0.027253, 0.039422, -0.051011, 
    -0.060261, -0.003249, 0.016917, 0.035278, -0.063057, -0.006605, -0.062576, 0.022271, 
    -0.000469, 0.035437, 0.003626, -0.040923, -0.026251, -0.039166, 0.024650, 0.087068, 
    0.013728, 0.026011, -0.001474, -0.010770, 0.001385, -0.046658, 0.019642, -0.016036, 
    -0.027222, 0.010734, 0.064572, -0.038742, -0.000476, 0.044473, -0.037942, 0.034324, 
    -0.043835, -0.058952, 0.045610, 0.021798, -0.016517, -0.038740, 0.071626, 0.044155, 
    -0.004186, -0.029321, -0.000416, 0.036891, -0.009036, 0.013069, 0.030078, 0.021749, 
    -0.000456, -0.011135, -0.004914, -0.007310, 0.039600, 0.016726, 0.004003, 0.022125, 
    -0.000904, -0.075531, -0.060277, 0.018974, 0.072718, -0.039487, -0.017561, 0.028851, 
    0.044581, 0.040123, 0.044462, 0.030126, -0.018115, -0.041658, 0.019689, -0.030084, 
    0.006438, 0.013064, -0.006985, 0.019130, -0.024220, -0.019548, 0.023840, 0.026875, 
    0.046763, 0.059011, 0.075889, -0.030057, 0.039473, -0.037395, -0.021423, -0.022555, 
    0.040136, -0.045315, -0.022089, 0.052877, -0.082601, 0.000149, -0.029914, 0.033915, 
    -0.065801, 0.019900, -0.062025, -0.066362, -0.062742, 0.079933, -0.051018, -0.007234, 
    -0.004587, 0.070314, -0.000274, 0.034696, -0.035947, 0.033120, 0.047451, -0.032431, 
    -0.093143, -0.027163, 0.046705, 0.002077, 0.071905, 0.091381, 0.025019, 0.048430, 
    -0.001386, -0.053249, 0.021218, 0.014830, 0.024241, 0.051256, 0.060590, 0.009107, 
    0.014938, 0.063081, -0.087342, 0.066845, 0.005821, -0.011979, -0.036364, 0.041430, 
    -0.003260, -0.035070, -0.015500, 0.005978, 0.017742, 0.067370, 0.096411, -0.072922, 
    -0.013558, -0.047364, -0.012741, -0.105135, 0.058057, -0.025873, -0.064102, -0.052227, 
    -0.091095, -0.008429, -0.055175, 0.058293, -0.008352, -0.030841, -0.072974, 0.048440, 
    -0.015845, 0.051657, 0.027427, 0.040108, 0.001525, 0.040095, -0.009004, -0.083097, 
    0.022567, -0.039832, 0.039940, 0.042653, 0.010650, 0.020766, -0.039984, -0.005236, 
    0.040011, 0.039892, -0.064988, 0.037900, -0.056485, -0.064375, 0.020363, 0.029310, 
    -0.002118, 0.019742, 0.015908, 0.003284, 0.006568, 0.016149, -0.068963, -0.050425, 
    -0.055511, 0.033223, 0.000696, -0.005200, -0.000860, -0.081180, 0.018355, -0.004347, 
    0.086332, 0.070455, 0.011034, -0.006577, 0.054468, 0.022837, -0.015309, -0.074654, 
    0.004490, -0.070911, 0.056130, 0.036395, 0.013684, 0.005702, 0.000647, -0.010371, 
    0.031723, 0.053648, -0.031349, 0.011417, -0.027748, 0.010761, -0.061631, -0.007915, 
    -0.037943, -0.052437, -0.025687, -0.064599, -0.050845, -0.021111, -0.036036, 0.018941, 
    -0.002698, -0.053328, -0.046350, 0.012261, -0.024222, 0.003032, -0.020793, -0.020509, 
    -0.042122, -0.006443, -0.040460, 0.014149, 0.033997, -0.033614, 0.032771, 0.025919, 
    0.020757, 0.039436, -0.042627, -0.059404, -0.042885, -0.012164, 0.002249, -0.032585, 
    0.036439, 0.014073, 0.035754, -0.003477, -0.047357, 0.039639, 0.002520, 0.010547, 
    -0.013792, -0.031656, -0.044683, 0.014598, 0.034781, -0.015668, -0.010787, 0.079644, 
    -0.012232, -0.026761, 0.044728, -0.060099, -0.054244, -0.013833, 0.011776, 0.022359, 
    0.001534, -0.059609, -0.046449, 0.015253, -0.039720, 0.012560, -0.000097, 0.016146, 
    0.060139, -0.007493, -0.003713, 0.021951, 0.017123, 0.015897, -0.059736, -0.053942, 
    -0.028108, 0.009832, -0.042542, -0.048220, 0.007590, 0.015531, -0.048632, -0.040953, 
    -0.036064, -0.019704, 0.059476, 0.046283, 0.004120, -0.006222, -0.002438, -0.010967, 
    -0.031085, 0.012171, 0.087410, 0.012199, 0.075053, 0.048852, 0.028641, 0.007080, 
    -0.076679, -0.064840, 0.039765, -0.028047, -0.007142, -0.021507, 0.043597, 0.038145, 
    0.013614, -0.028800, -0.010578, -0.056732, 0.040791, 0.061252, -0.061008, -0.023296, 
    -0.046805, 0.037810, -0.026516, 0.048358, -0.037986, -0.074686, -0.058607, 0.023960, 
    0.021093, 0.008845, -0.052931, -0.008482, 0.027369, 0.044310, 0.060186, 0.016445, 
    -0.002315, 0.139997, 0.070057, -0.079983, 0.057949, -0.042502, 0.015499, 0.046305, 
    -0.003632, 0.060020, 0.056989, 0.092626, 0.044805, 0.040553, -0.065785, 0.070941, 
    0.013344, -0.029702, -0.066800, -0.051948, -0.000649, -0.006604, -0.006972, 0.107219, 
    0.045712, -0.055665, -0.026519, -0.017985, -0.035162, -0.078900, 0.020380, 0.080438, 
    -0.024047, 0.086461, -0.049102, -0.122790, 0.028449, -0.045555, 0.030308, 0.036649, 
    -0.023373, -0.138501, 0.043648, -0.028421, -0.003729, 0.049768, 0.097571, -0.013224, 
    0.178388, 0.027638, -0.050718, 0.051437, -0.048457, -0.004226, -0.025206, 0.056524, 
    0.044003, 0.081378, -0.019941, 0.070963, 0.039025, 0.075784, 0.020554, 0.005484, 
    -0.100175, -0.086833, -0.025826, 0.035607, 0.045426, 0.034190, 0.063402, 0.010758, 
    0.027881, -0.072660, 0.031994, 0.011637, 0.018653, 0.051489, -0.024975, 0.056524, 
    0.108071, -0.041677, -0.048538, 0.119642, -0.122888, -0.015305, 0.028641, -0.031256, 
    0.054730, 0.051632, -0.127338, 0.059144, -0.005817, -0.041649, -0.067563, 0.009171, 
    -0.097059, -0.114561, 0.001681, 0.046273, 0.060992, -0.030460, -0.053567, 0.046226, 
    -0.014114, -0.007301, 0.018370, 0.076735, 0.018865, 0.035507, 0.030375, -0.001019, 
    0.030789, -0.001225, -0.003126, 0.050726, 0.011481, -0.083636, -0.035937, 0.088335, 
    0.009658, 0.038450, 0.077949, -0.079126, -0.030700, 0.078917, -0.006524, 0.008317, 
    -0.046377, 0.014821, -0.025294, -0.041664, -0.055663, -0.041096, -0.045703, -0.041360, 
    -0.030027, 0.008491, -0.056224, 0.034761, 0.001273, -0.057088, -0.056624, -0.014116, 
    -0.039978, -0.002050, 0.027955, 0.015819, -0.041301, -0.029939, 0.013979, -0.033493, 
    0.032494, -0.031492, 0.048669, -0.016480, 0.039921, 0.031091, 0.012405, 0.030289, 
    -0.044244, -0.052118, 0.004001, -0.053259, 0.023835, 0.047650, 0.047273, 0.042951, 
    -0.050524, -0.008107, -0.015082, -0.012262, -0.042852, -0.028463, -0.043057, 0.003104, 
    -0.046173, -0.028222, 0.049304, -0.048629, -0.037441, 0.018110, 0.026164, 0.045657, 
    0.035083, -0.040445, -0.060476, 0.044622, 0.022609, -0.020537, 0.020913, -0.045525, 
    0.037111, -0.009232, -0.052699, -0.054880, -0.062799, -0.016002, -0.055359, -0.015232, 
    -0.019872, 0.045578, -0.017569, 0.030076, 0.045701, 0.019390, -0.031369, -0.043483, 
    -0.046316, 0.025091, 0.039554, 0.011570, 0.041951, -0.022983, 0.002432, 0.023448, 
    -0.049473, -0.048227, 0.008299, 0.009944, -0.060948, -0.021651, 0.005329, -0.004651, 
    0.018337, -0.016491, 0.006468, -0.030341, -0.005094, 0.033996, -0.033343, 0.016514, 
    0.037632, -0.018405, 0.037813, -0.045932, 0.031116, 0.011781, -0.033675, 0.045428, 
    0.023258, -0.037063, -0.023920, -0.030872, -0.005962, 0.015257, -0.064436, 0.044260, 
    0.038718, -0.018333, 0.006520, 0.031825, 0.047666, -0.044428, -0.008812, -0.021676, 
    -0.008821, 0.026903, 0.045299, 0.040483, -0.073116, -0.034638, -0.010237, 0.017866, 
    0.008329, 0.031035, -0.009399, -0.047815, -0.065147, -0.052873, -0.070714, -0.038501, 
    0.032913, -0.037628, 0.004060, -0.050793, -0.105034, -0.020724, 0.025776, -0.045736, 
    -0.057741, -0.036485, -0.067334, 0.048474, -0.072874, 0.048476, 0.023504, 0.015424, 
    -0.167062, -0.001931, -0.010328, -0.022213, -0.044279, 0.040325, 0.043357, -0.074284, 
    -0.018192, -0.026704, -0.038795, -0.132762, -0.030731, -0.018626, 0.017100, -0.077480, 
    0.037822, -0.020566, -0.029409, 0.030677, -0.030697, -0.016961, 0.004681, 0.047521, 
    -0.037371, -0.038942, -0.062451, -0.020419, 0.052925, 0.060882, -0.021186, 0.004448, 
    0.026455, -0.031424, -0.029909, -0.033951, 0.004969, -0.076424, 0.080073, -0.025020, 
    -0.126451, 0.052179, 0.061353, -0.034682, -0.015360, -0.076093, 0.090369, -0.028075, 
    -0.069482, 0.012587, -0.045888, -0.021075, -0.019421, 0.010565, 0.055124, -0.043373, 
    -0.028742, 0.002008, 0.033860, -0.021907, 0.011638, 0.033798, 0.010048, -0.018461, 
    0.011976, -0.054936, -0.082448, 0.040370, -0.030060, -0.074776, -0.040417, 0.040654, 
    -0.021239, -0.053989, -0.000197, -0.018994, 0.005845, 0.070269, 0.000697, -0.035153, 
    -0.048000, -0.048220, -0.018370, 0.009856, 0.004192, -0.046121, 0.071787, -0.028445, 
    -0.037240, 0.021703, -0.101205, 0.046979, -0.076280, -0.060494, -0.044411, -0.069145, 
    -0.048743, -0.054480, -0.063560, -0.019092, 0.011605, 0.061937, 0.073050, -0.083057, 
    0.031291, 0.065170, 0.026173, -0.042414, -0.020464, 0.015780, -0.024893, 0.038605, 
    -0.085115, 0.056510, -0.021733, 0.026067, 0.008016, 0.010741, -0.042847, -0.019175, 
    0.056401, -0.012381, 0.050695, -0.031460, 0.014129, 0.058332, 0.054595, -0.012852, 
    0.006968, -0.008625, -0.018820, 0.073527, -0.053663, 0.063215, 0.005513, -0.026098, 
    -0.030027, -0.046944, -0.008159, -0.015359, -0.043812, 0.022649, 0.027819, -0.014213, 
    -0.015650, 0.071707, -0.011577, 0.044191, -0.056747, -0.091185, 0.019483, -0.003275, 
    0.028518, 0.016361, -0.023968, 0.001793, 0.047968, -0.000800, 0.019200, 0.020803, 
    -0.030810, -0.006216, -0.062721, 0.038848, 0.004895, 0.007162, 0.037158, 0.020362, 
    -0.042634, -0.025440, -0.002147, -0.023518, -0.006669, -0.036915, 0.044686, 0.083633, 
    -0.011542, -0.024818, 0.045728, 0.003316, 0.019255, -0.034769, 0.075557, 0.043581, 
    0.046446, 0.026275, -0.015492, 0.030437, 0.021378, -0.047340, 0.026260, -0.038760, 
    -0.046755, -0.066942, -0.046195, 0.008355, 0.005446, -0.071866, -0.054982, -0.040499, 
    0.043470, -0.031509, 0.038056, -0.063385, 0.005489, -0.043806, 0.024873, -0.003930, 
    -0.001339, 0.002625, 0.066116, -0.052577, -0.055603, -0.033772, 0.047582, 0.021384, 
    0.023276, 0.020196, 0.001577, 0.032465, -0.019383, 0.028627, 0.004911, -0.081432, 
    -0.004282, -0.007542, 0.041289, 0.040361, 0.029058, -0.012131, -0.006805, 0.086242, 
    0.010149, -0.090303, 0.008447, 0.010028, -0.019097, 0.061248, 0.001968, 0.021578, 
    0.017671, 0.047289, -0.045708, 0.007594, -0.041592, 0.066281, 0.012528, 0.023292, 
    0.002320, -0.063807, -0.015799, -0.035024, 0.029518, -0.049891, -0.031509, 0.024430, 
    0.052397, 0.013771, -0.018797, -0.036740, 0.028247, -0.002080, 0.050946, 0.014617, 
    0.014934, -0.012652, -0.061478, -0.031696, -0.008571, -0.087244, -0.019980, -0.053883, 
    -0.026613, -0.023809, -0.008610, -0.002124, -0.002313, -0.073425, -0.070431, -0.048978, 
    -0.005957, 0.022378, -0.072215, -0.041408, 0.019210, 0.058335, -0.054250, -0.028114, 
    0.025100, -0.062888, 0.015762, 0.009792, 0.042468, 0.031568, -0.059200, 0.030060, 
    -0.031798, -0.071735, -0.044542, 0.020241, 0.003225, 0.003739, 0.032819, -0.001127, 
    0.006678, -0.042351, 0.049000, 0.020264, -0.001280, 0.042724, 0.001197, -0.040250, 
    0.045928, 0.027204, 0.067162, 0.060975, 0.024960, 0.017119, 0.049944, 0.046775, 
    -0.023620, 0.016983, -0.027782, 0.003932, -0.040938, -0.007455, 0.053326, 0.043750, 
    -0.030358, -0.045324, -0.061532, 0.027067, 0.044237, 0.058365, 0.036600, -0.097918, 
    0.053348, -0.015053, -0.036278, -0.038486, 0.024460, 0.071030, -0.006287, -0.043637, 
    -0.006639, 0.044302, -0.044430, 0.026875, -0.012421, 0.011232, -0.109121, -0.030629, 
    -0.025325, -0.026459, -0.015048, 0.040923, -0.018628, 0.015142, -0.008187, -0.001015, 
    0.000634, -0.047233, -0.032784, 0.025526, 0.017110, -0.015234, 0.043132, 0.024445, 
    0.049597, 0.044254, -0.065531, 0.002975, 0.017155, 0.001523, -0.010736, -0.036574, 
    -0.007742, -0.054872, -0.034191, -0.003106, -0.035350, -0.005178, -0.014632, -0.057420, 
    -0.006512, -0.056720, -0.015788, 0.001965, -0.026484, -0.059332, 0.036179, 0.037037, 
    0.010956, 0.032506, 0.046367, 0.023226, 0.017912, 0.047246, 0.047489, 0.032609, 
    -0.025583, 0.000717, 0.032249, -0.037673, -0.048810, 0.051830, 0.028124, 0.019025, 
    -0.051880, -0.031212, 0.044975, 0.043116, -0.000926, 0.044981, 0.032814, -0.020840, 
    0.007452, -0.058781, -0.027083, -0.057198, -0.059827, 0.043222, -0.021410, 0.020455, 
    0.031450, 0.010954, 0.056802, 0.021014, -0.050183, 0.033985, 0.045458, -0.018430, 
    0.000738, 0.032251, -0.019762, 0.039420, -0.031932, -0.050856, -0.020779, -0.007468, 
    -0.046501, 0.029233, 0.023718, 0.032341, 0.017649, 0.039350, -0.013692, -0.016541, 
    -0.016691, -0.011293, -0.054807, -0.071077, 0.045939, -0.016961, -0.037164, -0.032108, 
    -0.030100, 0.019821, 0.038073, 0.027039, -0.050736, 0.020409, 0.012712, 0.018174, 
    0.012648, -0.038279, -0.008553, -0.060421, 0.030759, -0.032385, 0.046127, 0.004287, 
    -0.040630, -0.034855, 0.027451, 0.021056, -0.057450, -0.008417, -0.034077, -0.054423, 
    -0.042805, 0.026566, 0.004656, -0.004155, -0.034651, 0.045961, 0.062762, 0.041389, 
    0.036142, -0.057557, 0.011790, 0.004698, 0.044848, -0.046567, -0.018515, 0.035656, 
    -0.010033, 0.062867, -0.007652, 0.042561, -0.014979, -0.011515, -0.007475, 0.006294, 
    -0.042093, -0.049015, -0.057817, 0.015584, -0.017074, 0.051153, 0.022624, 0.015118, 
    0.046226, -0.043872, 0.007919, 0.004187, -0.049483, 0.056768, -0.023448, 0.032277, 
    0.029412, -0.017612, 0.028678, 0.031476, 0.014050, -0.048847, 0.005770, -0.065857, 
    -0.036505, -0.020183, 0.015214, -0.027825, 0.041609, 0.048513, -0.055219, 0.012676, 
    0.003036, -0.023328, 0.033054, -0.020354, -0.037906, -0.009966, 0.006523, -0.044041, 
    -0.007367, 0.034204, 0.037931, 0.019790, -0.050122, 0.028386, 0.086429, 0.042207, 
    -0.051845, 0.002758, -0.031495, -0.014771, 0.011001, 0.000802, 0.034031, 0.049989, 
    0.035450, -0.010685, -0.023512, 0.034510, -0.013100, 0.050957, 0.035240, 0.027171, 
    -0.001944, 0.032635, 0.011291, -0.021300, -0.006460, 0.070085, -0.001220, 0.048347, 
    0.047438, -0.005819, -0.052407, 0.013200, -0.055769, 0.034728, -0.054758, -0.063456, 
    -0.040135, -0.045384, 0.036555, 0.047099, 0.026663, -0.010981, -0.032344, 0.036104, 
    -0.045680, -0.039952, 0.003664, -0.006732, -0.043590, 0.035236, -0.014329, -0.051673, 
    0.050887, 0.047584, -0.047754, 0.048524, -0.009883, -0.037630, -0.065214, 0.040434, 
    0.034304, 0.035872, 0.044465, 0.035410, 0.013956, -0.022913, 0.022292, -0.038141, 
    -0.041920, 0.045679, -0.041143, -0.046576, -0.027955, -0.012774, 0.017168, 0.037592, 
    0.014377, -0.039841, 0.034182, 0.046035, 0.039935, -0.008890, 0.024038, -0.012797, 
    0.033031, 0.006216, 0.040001, -0.036748, 0.037870, 0.035386, 0.035380, -0.012583, 
    -0.028298, -0.007409, -0.052512, -0.005281, 0.032284, -0.061172, -0.003446, 0.055067, 
    0.025867, -0.049565, 0.007765, 0.011459, -0.012519, -0.030169, -0.036256, -0.059033, 
    -0.044696, -0.016228, 0.040602, -0.044302, -0.001538, -0.018656, -0.029010, -0.027836, 
    0.038074, -0.066795, -0.022567, -0.001193, 0.061472, 0.019769, 0.038770, 0.047500, 
    -0.047161, 0.006285, -0.069072, -0.006935, -0.039097, 0.023943, 0.050760, 0.046843, 
    0.005866, 0.024422, -0.013584, 0.003310, 0.007549, 0.039113, -0.023656, -0.010253, 
    0.020100, 0.018767, -0.025460, -0.030256, 0.006277, 0.025410, -0.053257, -0.036846, 
    -0.047964, 0.004381, 0.010116, 0.009203, 0.005531, -0.043792, 0.006353, -0.023690, 
    0.049935, -0.013516, -0.037548, -0.008823, 0.009460, 0.038255, 0.021769, -0.053725, 
    0.038901, -0.028435, 0.016374, -0.037421, -0.002776, 0.038861, -0.012084, -0.003569, 
    0.000011, -0.003058, -0.042798, 0.012434, -0.009053, -0.056692, -0.025790, 0.001077, 
    0.034044, 0.000091, -0.009167, 0.048719, -0.065412, -0.056235, 0.005826, -0.042544, 
    0.046344, -0.062047, -0.010837, 0.024426, 0.019284, 0.013652, -0.079044, -0.047797, 
    -0.044341, 0.040862, -0.026558, -0.060282, 0.039600, -0.005244, 0.047294, 0.039438, 
    0.020888, 0.018177, -0.021771, 0.022763, -0.011016, -0.025239, -0.054722, 0.010316, 
    0.001817, -0.026815, 0.043511, -0.036555, 0.049791, -0.059662, 0.041150, -0.062845, 
    -0.006051, -0.052166, 0.003041, -0.051480, -0.038734, -0.006040, 0.008682, -0.002569, 
    -0.056037, -0.064240, 0.053493, 0.026094, 0.017721, -0.048089, 0.045263, 0.040001, 
    -0.007886, -0.025863, -0.065188, 0.033813, -0.042900, -0.027806, 0.009571, -0.010285, 
    -0.047608, -0.013848, 0.034365, -0.005321, -0.000007, 0.050465, 0.008984, 0.021869, 
    -0.011250, -0.041551, 0.018990, 0.018204, 0.047340, -0.017482, -0.020756, 0.023126, 
    0.010095, 0.025304, 0.014521, 0.030982, 0.040583, 0.036786, 0.035289, -0.003875, 
    0.040686, 0.021414, -0.066370, -0.046121, -0.021369, -0.023353, -0.043325, 0.022211, 
    -0.056230, 0.038209, -0.058496, 0.062778, -0.051170, -0.058097, -0.016822, 0.006583, 
    -0.032517, -0.060624, 0.050988, -0.064889, -0.063272, -0.021519, 0.003012, 0.025705, 
    0.048271, -0.035085, -0.051732, 0.035863, -0.052942, -0.039533, -0.046912, 0.024237, 
    -0.032040, 0.007458, 0.070019, -0.020017, 0.006464, -0.006931, 0.061500, -0.024017, 
    -0.025836, 0.059339, 0.029660, 0.007134, -0.032820, 0.018070, -0.022457, 0.049107, 
    0.035575, -0.010231, 0.056045, -0.062352, 0.036803, -0.032179, -0.028485, -0.026764, 
    0.012336, -0.043758, -0.117157, 0.029801, -0.040272, -0.023840, 0.012679, -0.044503, 
    -0.052674, -0.069110, -0.033858, -0.019532, -0.030723, -0.010285, -0.029232, 0.041438, 
    -0.036730, -0.034208, -0.009680, -0.004227, 0.003227, 0.025171, -0.065433, -0.029036, 
    0.101873, 0.062232, 0.046369, 0.004921, 0.000681, 0.044111, -0.026048, 0.009231, 
    0.027999, 0.031330, -0.002733, 0.023947, -0.071650, -0.004549, -0.086866, -0.016095, 
    -0.075303, -0.048327, -0.049557, -0.055737, -0.044862, -0.033855, -0.002710, 0.008836, 
    0.012145, 0.000450, 0.083044, -0.002716, -0.014641, -0.108311, 0.000747, -0.060890, 
    -0.003436, -0.008819, -0.014085, -0.088792, -0.028628, 0.039887, -0.031368, 0.000286, 
    0.058457, 0.006318, 0.047787, 0.039295, -0.006984, 0.032429, -0.029518, -0.017512, 
    0.034281, 0.004899, 0.037022, 0.048401, -0.027455, 0.026599, 0.000207, 0.027238, 
    0.016956, 0.043579, 0.045200, -0.039390, -0.056164, -0.071409, 0.033734, 0.011101, 
    -0.059328, 0.012299, -0.006223, 0.037183, 0.041970, -0.045880, 0.033397, -0.008841, 
    0.011683, -0.005058, 0.022245, 0.043540, -0.025905, -0.074846, -0.035669, 0.018888, 
    -0.093593, -0.055952, -0.035199, 0.054681, 0.030171, -0.023244, 0.027780, 0.013410, 
    0.003221, 0.052387, -0.040532, -0.039400, -0.073917, 0.007932, -0.077119, -0.057936, 
    0.053094, -0.043717, -0.055409, -0.020841, -0.032951, -0.062261, 0.060372, -0.050258, 
    0.043943, -0.026067, 0.000074, -0.033517, 0.027119, 0.064525, 0.050875, 0.026046, 
    0.017557, -0.047277, -0.002905, -0.004685, 0.040712, 0.001685, -0.028582, 0.021496, 
    0.052810, 0.050546, 0.042316, 0.056296, 0.010060, -0.031997, 0.036353, 0.016319, 
    0.012192, 0.023776, -0.040454, -0.009905, 0.019548, -0.035083, -0.031276, -0.024467, 
    -0.013734, -0.024615, -0.039944, -0.026674, -0.036665, 0.050143, 0.010893, -0.064975, 
    0.014826, -0.010019, 0.049985, -0.033025, 0.045336, 0.064376, -0.034609, -0.039145, 
    -0.017268, -0.066257, 0.036305, -0.074310, -0.056765, -0.004427, 0.024498, 0.039869, 
    0.054241, -0.006111, 0.060421, -0.036064, 0.057160, -0.025791, 0.061769, -0.020321, 
    0.000759, 0.046555, 0.013778, 0.067801, -0.039561, -0.013177, 0.017032, -0.011978, 
    0.005436, 0.018071, -0.034401, -0.012469, -0.018744, -0.007983, -0.012088, -0.025944, 
    -0.049901, -0.019777, 0.008012, 0.001543, 0.086875, -0.046008, -0.001514, -0.012546, 
    0.014632, -0.024511, -0.015628, 0.012102, 0.012813, 0.012905, 0.003654, -0.011920, 
    -0.026244, 0.021090, -0.013118, -0.025834, 0.051699, 0.025854, -0.038333, -0.025423, 
    0.025773, 0.017109, -0.001767, -0.064724, 0.018393, 0.028763, -0.000043, 0.053424, 
    -0.022758, -0.063263, 0.052706, -0.002473, 0.054940, 0.031938, 0.046448, 0.035947, 
    0.031477, 0.021488, -0.043407, -0.021664, 0.013133, 0.049539, 0.004543, 0.031112, 
    0.016207, -0.018736, 0.048604, -0.038020, -0.000298, -0.008920, -0.046610, 0.003406, 
    -0.059517, 0.022647, 0.021535, -0.031362, 0.057812, 0.016328, 0.045582, -0.004344, 
    -0.002323, 0.043905, 0.004276, -0.027295, -0.054018, 0.017397, -0.041939, -0.030819, 
    0.017822, -0.021121, 0.006175, -0.035170, 0.037146, 0.045816, 0.002669, 0.058930, 
    0.021007, -0.014695, -0.015656, -0.002470, -0.018880, 0.041127, 0.030869, -0.021988, 
    0.038793, -0.015317, -0.025898, 0.042247, 0.043778, 0.001816, 0.015051, -0.032855, 
    -0.004271, -0.047901, -0.037416, -0.045899, 0.002288, -0.013290, 0.032765, -0.049548, 
    -0.057497, 0.002048, -0.011245, -0.057216, -0.005847, 0.022701, 0.019682, -0.009112, 
    0.053924, 0.008562, -0.033713, 0.034196, 0.024538, 0.033256, 0.042598, -0.055087, 
    -0.034942, -0.066479, 0.040088, 0.048108, -0.061721, 0.027312, -0.057537, 0.002833, 
    0.015779, 0.005769, 0.028833, -0.027866, 0.032224, -0.048704, 0.047994, 0.020259, 
    -0.041560, -0.018246, 0.024745, -0.038774, 0.004731, -0.014103, -0.031096, 0.003755, 
    -0.039876, -0.064543, -0.061186, -0.017567, 0.016810, 0.004905, -0.035658, -0.000109, 
    0.007181, 0.044761, 0.091140, 0.017115, -0.036440, -0.003431, 0.036439, 0.040213, 
    0.027939, -0.047738, -0.000570, -0.045686, -0.048823, -0.051128, -0.025291, -0.057922, 
    0.089388, 0.045612, -0.061086, 0.022506, 0.052196, 0.038081, -0.006141, -0.053389, 
    0.023275, 0.046512, 0.000396, 0.021838, 0.040393, 0.045630, 0.034149, -0.024362, 
    -0.091652, 0.003296, -0.031015, -0.038764, 0.040188, 0.005105, 0.000358, 0.026948, 
    0.001767, -0.014144, 0.062487, 0.037050, -0.026123, 0.007233, 0.040661, -0.095620, 
    -0.055516, -0.015763, -0.041754, -0.025615, 0.076920, 0.050002, 0.019974, 0.050669, 
    -0.090176, 0.021173, 0.008072, -0.058367, 0.009898, 0.039536, 0.037022, 0.020772, 
    0.023221, 0.050178, -0.051504, -0.023461, 0.102154, -0.015422, 0.003826, -0.031189, 
    0.030246, -0.046643, -0.059786, 0.064626, 0.053367, -0.009135, -0.065015, -0.012589, 
    -0.017847, 0.016254, 0.032194, 0.025935, 0.056518, -0.061482, -0.019566, 0.091553, 
    0.087902, -0.069744, 0.012903, -0.010165, 0.034284, 0.035655, 0.060055, -0.026677, 
    -0.058228, 0.043885, -0.054151, -0.038237, -0.035496, -0.002495, -0.065992, -0.007520, 
    -0.016676, 0.011811, -0.005771, -0.002995, 0.056551, -0.040449, 0.042113, -0.107458, 
    -0.013432, -0.048031, 0.022406, -0.034226, -0.029329, -0.029327, -0.014103, 0.015009, 
    -0.045989, 0.010596, 0.005124, -0.043611, -0.048295, -0.046032, -0.068381, 0.005447, 
    -0.020867, -0.062022, -0.029945, 0.001505, -0.023310, 0.003314, -0.016402, -0.001459, 
    -0.050293, -0.029681, -0.015821, -0.030903, -0.026200, -0.045324, -0.040879, -0.008536, 
    -0.085310, -0.020654, -0.019512, -0.017346, -0.049216, 0.054520, -0.038510, -0.001451, 
    0.020460, 0.024296, -0.057745, 0.011117, -0.033913, -0.022709, -0.023094, 0.012563, 
    -0.077275, 0.009225, -0.039576, 0.042502, 0.059021, -0.028188, 0.062485, 0.046953, 
    -0.098807, -0.015128, 0.021498, 0.069041, -0.000812, -0.009252, -0.065958, -0.046654, 
    0.040857, 0.004418, -0.070340, -0.069102, -0.011345, -0.044727, 0.073334, 0.023324, 
    0.025350, 0.010993, -0.066871, -0.034901, -0.076415, -0.007809, -0.073090, 0.023583, 
    0.010724, 0.012050, -0.058964, -0.109170, 0.038276, -0.036048, -0.021548, -0.050471, 
    -0.011228, -0.089608, 0.040333, -0.066910, -0.104078, -0.081846, -0.013679, -0.068852, 
    0.043619, -0.059779, -0.052901, -0.021451, 0.058223, 0.007690, 0.039347, -0.060096, 
    -0.068428, 0.004293, 0.039054, 0.052416, 0.030555, 0.036492, -0.031768, 0.031736, 
    -0.029635, -0.092182, -0.082039, 0.026619, -0.073340, -0.097523, 0.070274, 0.007724, 
    -0.061906, -0.046748, -0.106227, -0.010234, 0.005500, 0.026635, -0.100762, -0.010202, 
    -0.026160, 0.038346, 0.007629, -0.027315, -0.035956, -0.026866, -0.057885, -0.010390, 
    0.057233, 0.033788, 0.001106, -0.036201, -0.025805, -0.080807, 0.027444, -0.072819, 
    0.016346, -0.047866, 0.040137, -0.036570, 0.090801, 0.046152, 0.040927, 0.003132, 
    0.018892, 0.024176, -0.053742, 0.027269, -0.011951, -0.000144, -0.124810, -0.066328, 
    0.002017, 0.036297, 0.072544, 0.044361, -0.034779, -0.036446, 0.062580, -0.035536, 
    -0.067923, 0.034169, 0.036809, 0.031414, -0.023758, -0.071163, -0.017426, 0.015285, 
    -0.063075, -0.058644, -0.005045, -0.009805, -0.018246, 0.064175, 0.031276, -0.089778, 
    0.045090, 0.052493, 0.049725, -0.001568, 0.027870, -0.023696, 0.042144, -0.006120, 
    -0.076825, 0.006283, -0.014036, -0.026824, -0.047822, -0.060574, -0.041665, -0.004494, 
    0.043804, 0.003626, 0.012164, -0.023990, -0.006988, -0.085877, -0.059831, -0.131823, 
    0.034598, -0.054759, -0.059430, -0.025994, -0.066836, -0.025808, -0.033954, 0.028529, 
    -0.025707, 0.018739, -0.028318, -0.019862, -0.007636, -0.049753, -0.030375, 0.017882, 
    0.025591, 0.017161, 0.032011, -0.033239, -0.022968, -0.005971, 0.043877, -0.026814, 
    0.027404, 0.027113, -0.036573, 0.013104, 0.115156, -0.060224, 0.084318, 0.040928, 
    -0.045627, -0.010156, 0.024322, 0.046676, 0.017185, 0.036094, -0.021199, 0.015574, 
    0.003604, 0.073379, 0.027754, -0.014605, -0.006279, -0.070941, -0.051778, 0.020738, 
    0.026690, -0.065117, -0.008301, 0.046340, 0.011293, 0.010093, -0.014644, 0.054438, 
    0.045786, 0.034551, -0.097317, -0.002398, 0.027993, -0.052155, -0.047201, 0.053928, 
    -0.048271, 0.013688, 0.072994, 0.072752, -0.044924, -0.037302, -0.039679, 0.011161, 
    -0.095521, 0.107556, -0.001255, 0.013528, -0.017053, 0.040982, -0.016094, 0.026888, 
    0.014880, -0.041592, -0.027757, -0.026090, 0.021555, -0.029984, 0.007669, 0.008243, 
    0.044633, 0.013469, -0.017326, 0.009017, -0.022413, -0.059174, 0.003945, 0.015051, 
    -0.032946, 0.037663, 0.009516, -0.004394, 0.063230, -0.035542, -0.001789, 0.016901, 
    -0.004589, 0.015508, 0.052010, 0.014823, 0.027199, -0.043524, 0.038683, -0.010467, 
    -0.002670, -0.025317, 0.032277, -0.034825, 0.051392, 0.009566, -0.056226, 0.045111, 
    -0.016818, -0.044750, -0.009548, -0.009261, 0.035372, -0.063303, -0.029838, -0.004296, 
    -0.029104, -0.003597, -0.043279, -0.002840, -0.022378, -0.053195, 0.015449, -0.047115, 
    0.012046, 0.032065, 0.065979, -0.051748, -0.017589, -0.043235, -0.032793, 0.029017, 
    0.016261, 0.052353, 0.028640, 0.047729, -0.032601, -0.014930, 0.050886, -0.050355, 
    0.023653, 0.042506, 0.013459, 0.016411, -0.059589, 0.019833, 0.024825, 0.045645, 
    0.002835, 0.059553, -0.012865, -0.036341, -0.046120, -0.049416, -0.010466, -0.083272, 
    -0.003602, 0.018438, 0.011269, -0.010623, 0.042386, -0.030157, -0.031526, 0.018259, 
    -0.019975, -0.025127, -0.001750, -0.047250, 0.048064, -0.048215, 0.062303, 0.005740, 
    -0.005911, 0.007973, -0.040015, 0.042154, 0.050860, 0.043683, 0.034368, -0.010858, 
    0.005947, -0.052750, 0.045426, 0.034899, -0.007652, 0.042676, -0.051224, -0.021007, 
    -0.067196, 0.004077, -0.014049, 0.021829, -0.062110, 0.013691, 0.011937, 0.000852, 
    -0.066821, -0.000854, 0.011601, -0.023440, -0.001427, -0.034022, 0.042295, 0.010168, 
    -0.044274, 0.022575, 0.029538, 0.037702, 0.018212, -0.052227, -0.017894, -0.045227, 
    -0.035592, 0.009396, -0.014692, -0.058116, -0.033578, -0.056412, -0.008161, -0.023277, 
    0.046297, -0.045376, -0.042089, 0.042492, 0.037860, -0.031352, 0.015836, -0.023656, 
    0.036452, 0.052248, 0.041029, -0.049100, -0.051209, -0.013392, -0.025325, -0.053483, 
    -0.027499, -0.023572, 0.030856, -0.016960, -0.009409, -0.021092, -0.022436, -0.038248, 
    -0.006561, -0.041589, 0.042954, 0.039527, 0.047748, -0.037897, -0.038822, -0.035139, 
    -0.054627, -0.067104, -0.062041, -0.055254, -0.016120, -0.024358, 0.024674, -0.034508, 
    0.021564, -0.022222, 0.002483, 0.024428, -0.005465, 0.048785, -0.025216, -0.034777, 
    -0.056773, -0.053722, -0.036240, -0.055955, -0.010484, 0.049205, 0.021549, 0.052410, 
    -0.032151, -0.027706, -0.041692, -0.042646, -0.056789, 0.003705, -0.060056, 0.055494, 
    -0.015012, 0.062216, 0.048321, -0.037391, 0.016556, 0.000688, 0.029299, 0.041408, 
    -0.017220, -0.009137, -0.008911, -0.009299, 0.010199, -0.001090, 0.026292, 0.014092, 
    -0.049882, -0.053702, -0.014265, 0.035848, -0.022267, 0.044017, -0.012500, -0.049974, 
    -0.048142, -0.006078, -0.034794, 0.013324, -0.008947, 0.035246, 0.052216, -0.023203, 
    -0.046780, -0.025830, 0.043662, -0.018070, 0.048701, -0.003912, -0.024594, -0.063995, 
    0.085979, -0.082272, 0.024685, -0.051782, 0.011370, -0.034510, -0.022725, -0.014753, 
    -0.046982, -0.031589, -0.058195, -0.007647, -0.028810, 0.053064, 0.055691, -0.069427, 
    0.032538, 0.024233, 0.023224, -0.057202, 0.051724, -0.003492, -0.006819, 0.004631, 
    -0.037565, 0.021076, 0.041167, 0.014673, -0.025989, -0.046306, -0.061675, 0.018351, 
    -0.003602, -0.065820, 0.003825, -0.042000, -0.046109, -0.048508, -0.050004, 0.022118, 
    -0.003069, 0.033558, 0.079205, 0.039007, -0.019416, -0.034534, -0.003915, -0.022501, 
    0.014081, -0.037057, 0.022674, 0.007129, -0.002054, 0.056131, 0.002100, -0.005519, 
    -0.079627, 0.065633, 0.088807, 0.028087, -0.058630, 0.061534, 0.061589, 0.000675, 
    0.059201, -0.010808, 0.052578, -0.043065, -0.044938, -0.048979, -0.004146, -0.004391, 
    0.050123, -0.024185, 0.029465, -0.031175, -0.003846, -0.056953, 0.009218, -0.046183, 
    0.021903, -0.045621, 0.078312, 0.067947, -0.023226, -0.016361, -0.016879, 0.012338, 
    -0.033468, -0.013127, -0.068921, 0.034600, -0.016816, -0.035468, 0.001953, 0.002243, 
    -0.044697, -0.005379, -0.061501, -0.028436, -0.072433, -0.033884, 0.068778, -0.028101, 
    -0.022167, 0.016955, -0.037445, -0.004566, -0.033689, 0.028396, -0.051110, -0.000332, 
    -0.027570, -0.060607, -0.012935, 0.076468, -0.013649, 0.011205, -0.062659, 0.029246, 
    0.022410, 0.034784, 0.042650, -0.019336, 0.025076, -0.027506, -0.020709, -0.022989, 
    -0.007916, 0.032539, -0.043443, 0.024251, 0.054310, 0.025220, 0.042485, 0.052852, 
    -0.039891, -0.006805, 0.011929, 0.055571, 0.006346, -0.000639, 0.036121, -0.023291, 
    -0.053917, 0.016059, -0.005754, 0.044445, 0.055065, 0.044548, -0.039948, -0.079370, 
    -0.034765, 0.064165, -0.046181, -0.027218, 0.010041, -0.069370, -0.033377, -0.005020, 
    0.113390, 0.059826, 0.000390, 0.041522, 0.032622, -0.023858, -0.044781, 0.048975, 
    -0.024241, -0.010899, 0.001839, 0.008407, -0.055455, -0.045400, 0.032651, -0.047302, 
    0.002633, -0.016916, -0.059740, -0.033391, -0.068547, -0.009729, 0.041682, -0.050927, 
    -0.035390, -0.062770, -0.042475, 0.011770, 0.028340, -0.025503, 0.029831, 0.042280, 
    0.033245, -0.012969, -0.002468, 0.021400, 0.034517, -0.054243, -0.032834, -0.045037, 
    -0.003541, 0.047343, -0.018249, 0.034914, 0.042532, -0.052644, -0.036137, 0.005812, 
    0.053080, 0.010352, 0.017794, -0.024423, -0.036427, -0.004168, -0.065044, 0.010373, 
    -0.049980, -0.103039, -0.049145, 0.035125, 0.038546, -0.016708, -0.007471, -0.010228, 
    0.029983, 0.044355, -0.038304, -0.034789, 0.051979, -0.014380, -0.044608, -0.058923, 
    -0.053215, -0.037703, 0.032955, 0.015252, 0.044313, -0.065881, 0.013380, -0.023472, 
    -0.037014, 0.055111, 0.006980, -0.009028, -0.045146, -0.033521, -0.052894, 0.000432, 
    0.094693, 0.011206, 0.068588, -0.049607, -0.034901, 0.028590, 0.024843, -0.002549, 
    -0.022147, 0.037542, -0.009152, -0.033299, 0.012445, -0.027220, 0.053602, 0.053874, 
    -0.007407, -0.014570, -0.004369, 0.025188, 0.041372, -0.037589, -0.005772, 0.027410, 
    0.038087, -0.033244, -0.022063, -0.042335, 0.016629, 0.005314, -0.027361, -0.041611, 
    -0.001238, -0.001009, -0.010509, 0.022037, 0.025982, -0.014501, 0.045294, -0.060036, 
    -0.042981, -0.050289, 0.003502, -0.002678, -0.006305, -0.003618, -0.027750, 0.033860, 
    -0.033819, -0.011601, 0.027119, 0.034833, -0.053937, 0.004812, 0.057816, -0.038342, 
    0.037690, 0.036019, 0.036606, -0.008360, 0.051036, 0.023288, 0.031999, -0.044756, 
    -0.019210, -0.017531, -0.023488, 0.049168, 0.016182, 0.075174, -0.004143, 0.000240, 
    0.047518, -0.022352, 0.015566, 0.001275, 0.035404, -0.034100, -0.021037, -0.050383, 
    -0.063529, -0.059988, -0.004456, -0.038562, 0.046967, -0.053255, -0.027858, 0.050569, 
    0.009164, 0.033758, 0.021278, -0.011311, -0.049345, 0.009028, 0.015110, 0.038545, 
    -0.059465, 0.033050, -0.026125, -0.062773, -0.074552, 0.016063, -0.004298, -0.042826, 
    0.027367, 0.022896, 0.009238, -0.007397, 0.018781, 0.013923, 0.037803, -0.000423, 
    -0.055997, -0.057748, 0.056549, -0.028986, 0.024993, -0.013977, 0.041883, -0.032340, 
    -0.013393, 0.047380, -0.019498, -0.033260, 0.016971, 0.002599, 0.012121, -0.017023, 
    -0.054092, -0.001993, 0.042734, 0.050873, -0.075026, -0.019800, -0.025336, -0.016966, 
    0.012552, -0.059324, 0.016704, -0.035202, -0.018540, 0.017166, 0.076785, 0.020726, 
    0.019257, 0.049427, 0.043725, 0.018197, -0.050540, 0.015684, 0.019373, 0.001387, 
    0.015675, 0.006298, 0.049014, -0.010707, -0.002262, 0.016489, 0.016798, -0.035918, 
    0.047509, -0.004402, -0.010467, -0.037818, 0.035840, -0.002652, -0.064313, -0.009114, 
    -0.019939, -0.050949, 0.003406, 0.019926, -0.068304, 0.044035, 0.007427, -0.019226, 
    0.021533, -0.066276, 0.012787, 0.011978, 0.023093, 0.014804, -0.008308, -0.056806, 
    -0.035364, -0.010755, 0.016103, -0.043162, -0.021551, -0.016008, 0.031232, 0.016125, 
    0.008970, -0.007758, -0.023965, -0.049599, 0.059649, -0.055652, -0.061970, -0.004085, 
    0.027195, -0.041013, -0.007228, 0.012577, 0.033018, -0.008193, -0.029733, 0.026731, 
    0.020211, -0.046103, -0.013233, 0.045376, -0.039617, 0.020334, -0.022061, 0.060096, 
    0.040483, -0.044113, 0.000296, -0.005393, 0.000970, -0.032487, 0.020522, -0.022440, 
    -0.009237, -0.034303, 0.026178, -0.077349, -0.050566, 0.023498, -0.037888, -0.078114, 
    0.025038, 0.050603, -0.032894, -0.004174, -0.010684, -0.006059, -0.052518, -0.050245, 
    -0.053146, 0.051011, 0.031555, -0.014011, 0.028042, 0.011504, -0.041541, 0.006303, 
    -0.012981, 0.025489, -0.005517, 0.013068, 0.011568, -0.043195, 0.004960, -0.008631, 
    0.012990, 0.056248, 0.003121, -0.060925, -0.047751, -0.010531, 0.033537, -0.060264, 
    0.025231, -0.006669, -0.072554, -0.028859, 0.072358, 0.007515, -0.040726, 0.050644, 
    -0.029019, 0.017944, -0.072587, 0.067994, -0.062424, -0.001355, -0.085038, -0.020952, 
    0.022903, -0.013417, 0.019697, 0.001698, -0.009505, 0.042770, -0.039463, -0.013572, 
    -0.003474, 0.100209, -0.025174, -0.001859, 0.069686, 0.034043, 0.040736, -0.054476, 
    0.043497, 0.078847, 0.024574, -0.052020, -0.004037, -0.043818, 0.067008, 0.054071, 
    -0.000863, 0.063219, 0.050018, 0.006947, -0.059109, -0.020730, 0.053959, 0.004210, 
    0.002383, -0.013239, 0.001645, -0.018837, -0.001307, -0.032951, 0.026701, 0.090442, 
    -0.026937, 0.021624, -0.030621, 0.029876, -0.051636, 0.027056, -0.017253, 0.004087, 
    -0.013098, -0.021942, 0.042318, -0.047360, -0.033336, -0.004082, -0.026025, 0.042524, 
    -0.005794, -0.019638, 0.007928, 0.087949, 0.023864, 0.057316, 0.026516, 0.041500, 
    0.078155, -0.051387, -0.060642, 0.071096, 0.095378, 0.057053, -0.037218, 0.059942, 
    -0.067388, 0.020866, -0.014642, 0.058249, -0.041173, -0.061887, -0.069102, -0.021727, 
    0.040572, 0.020685, -0.066753, 0.013934, -0.044187, 0.044476, -0.048570, 0.003208, 
    0.031351, -0.052091, 0.024270, 0.007998, -0.010010, 0.020756, 0.003359, -0.031110, 
    0.065271, 0.054294, 0.007307, -0.055112, 0.009985, -0.055713, 0.067219, 0.070462, 
    0.082208, 0.090153, 0.032829, 0.001697, 0.039452, 0.000879, -0.047894, -0.010560, 
    -0.054920, -0.037050, -0.042644, 0.022328, -0.012845, -0.017222, -0.008934, -0.048281, 
    -0.035330, -0.019453, -0.030237, -0.044040, 0.052472, 0.046105, -0.048537, -0.016854, 
    -0.016290, 0.021998, 0.005183, 0.022651, 0.055607, 0.007928, 0.018357, 0.039736, 
    0.043674, 0.031983, 0.040938, -0.002052, -0.009873, -0.013604, 0.049341, 0.055934, 
    -0.048838, -0.010536, 0.013108, 0.013640, 0.007825, -0.017318, 0.047359, 0.011876, 
    -0.057320, 0.020711, 0.000848, 0.007191, -0.035611, 0.010999, 0.004031, -0.045076, 
    0.023061, -0.021649, -0.033006, -0.023006, -0.011961, -0.019748, -0.042796, -0.014677, 
    -0.060702, 0.029345, -0.052919, 0.008928, 0.013272, 0.064261, 0.024280, 0.020925, 
    0.033658, 0.022712, 0.050192, 0.012008, 0.009203, 0.000490, -0.014773, -0.015803, 
    -0.024838, 0.050497, 0.014460, -0.005298, -0.025842, 0.008749, -0.066236, -0.001898, 
    0.015385, -0.032843, 0.016891, 0.058046, -0.032064, 0.013915, -0.055689, 0.033491, 
    -0.031292, -0.012415, -0.060435, 0.106133, -0.083227, -0.040758, 0.044204, 0.020374, 
    -0.021014, -0.001974, -0.060320, -0.020790, -0.021448, -0.060486, 0.026326, -0.053399, 
    0.011444, -0.040024, 0.049202, 0.009306, 0.025087, 0.019966, 0.032670, 0.025752, 
    0.016090, -0.015723, -0.048897, -0.022518, -0.011364, 0.029912, 0.008109, 0.019744, 
    0.032333, 0.046084, 0.029388, -0.010918, -0.027146, 0.031720, -0.005178, 0.020135, 
    0.005365, 0.049458, -0.056867, 0.050455, -0.027145, -0.017924, -0.012912, 0.045011, 
    0.042955, -0.055794, -0.069669, -0.043518, 0.028388, 0.005579, 0.006044, -0.037557, 
    0.057454, -0.041845, 0.018160, 0.056241, 0.031616, -0.025612, -0.026807, -0.050167, 
    0.033760, -0.013353, 0.003788, -0.040726, 0.003136, 0.025077, 0.023566, -0.059757, 
    -0.008472, -0.055363, 0.046705, 0.051688, 0.030207, 0.030282, -0.013156, 0.020822, 
    0.033670, -0.022324, 0.056124, -0.038745, 0.010949, 0.010242, -0.012568, 0.023849, 
    -0.050357, -0.011067, -0.029763, 0.013170, -0.009197, 0.050923, -0.020300, -0.009899, 
    -0.025078, 0.011549, 0.004796, -0.041666, -0.004959, 0.012249, 0.030978, 0.045537, 
    -0.016004, 0.024726, -0.040665, 0.027437, 0.025466, -0.036266, 0.023770, 0.023601, 
    0.025608, -0.031272, -0.014822, -0.013402, 0.047005, 0.026766, 0.013641, -0.048834, 
    -0.051813, 0.034784, 0.011527, -0.013876, -0.038682, 0.056917, 0.010815, 0.063259, 
    -0.047445, 0.022141, 0.047450, -0.007223, 0.039633, 0.000782, 0.036628, -0.019226, 
    0.013706, -0.056311, 0.040857, 0.002986, 0.016270, 0.008292, -0.056915, -0.058988, 
    -0.027115, -0.058978, 0.048157, 0.000347, -0.041900, -0.051642, 0.062256, -0.041019, 
    -0.035111, -0.058991, -0.001445, -0.009588, 0.045463, -0.010085, -0.010577, 0.013653, 
    -0.013760, -0.009258, -0.031445, 0.005680, -0.006345, 0.048652, 0.043637, 0.022916, 
    0.033434, -0.015098, 0.076795, 0.012568, 0.030187, -0.032239, -0.054028, 0.012483, 
    0.020819, 0.047283, 0.029385, -0.025584, 0.061604, 0.020732, -0.035147, 0.044348, 
    0.046381, 0.052047, -0.068006, -0.045842, -0.060466, 0.066297, 0.046318, 0.050010, 
    0.046978, -0.037643, 0.007880, 0.043797, -0.091592, -0.000288, 0.008215, -0.016810, 
    -0.033668, 0.041268, -0.036711, 0.002991, 0.004870, -0.145376, -0.043008, 0.017995, 
    0.013208, -0.096324, 0.064167, -0.031002, 0.033156, 0.018140, -0.070615, -0.070907, 
    0.072286, -0.001588, -0.043270, -0.012788, -0.079241, 0.025840, -0.017555, 0.071898, 
    0.028512, -0.028592, -0.087382, -0.020174, 0.041775, 0.015066, -0.017632, -0.022614, 
    -0.054240, -0.016402, -0.018022, -0.038920, 0.023962, -0.016972, 0.061338, 0.025050, 
    0.029833, -0.087862, -0.038231, -0.004630, 0.024816, -0.001827, 0.023677, 0.007749, 
    -0.044176, -0.031275, -0.003283, 0.024471, 0.028977, 0.007003, 0.039919, -0.071907, 
    -0.026159, 0.089079, -0.073434, -0.039423, -0.140213, 0.010186, 0.008921, -0.090174, 
    -0.045781, -0.055072, 0.024197, 0.001587, 0.010354, -0.034318, 0.044605, 0.049162, 
    0.038558, -0.050332, -0.027450, -0.003720, -0.056640, -0.020078, 0.027392, 0.042707, 
    -0.064735, 0.036094, 0.106492, -0.022535, -0.029476, -0.014039, -0.086849, 0.038561, 
    -0.077295, -0.080641, -0.011637, -0.013130, -0.103005, -0.026482, 0.004896, 0.032839, 
    -0.013166, -0.099352, -0.009206, -0.035117, -0.011241, 0.022859, 0.027023, -0.005607, 
    0.081023, 0.056793, 0.046716, 0.019100, -0.014537, 0.083534, -0.023250, -0.059915, 
    -0.083614, -0.001286, -0.059102, 0.019527, 0.004835, -0.075194, -0.022485, 0.027274, 
    0.064357, 0.001000, 0.035548, 0.025557, 0.028288, 0.020938, -0.045369, 0.010299, 
    -0.037265, 0.013108, 0.034248, -0.033975, -0.042719, -0.019451, -0.127205, 0.023359, 
    -0.024143, -0.069728, 0.028196, -0.031344, -0.038219, -0.040223, 0.047105, 0.047633, 
    -0.023617, 0.045348, 0.038821, 0.090462, -0.037101, -0.024338, 0.015856, -0.027899, 
    -0.039238, 0.005920, 0.059276, -0.098425, -0.081100, -0.126078, 0.051603, 0.078642, 
    -0.079329, 0.033630, 0.037841, 0.004468, -0.116188, 0.013942, 0.077470, -0.014822, 
    0.042562, -0.030780, -0.045087, 0.018533, -0.075864, -0.048335, -0.006820, 0.041649, 
    -0.012826, -0.004448, 0.036147, 0.025018, -0.031282, -0.005538, -0.021472, 0.045573, 
    -0.016874, -0.118073, -0.057895, -0.070712, 0.030478, 0.032200, 0.089321, -0.042330, 
    -0.070960, 0.092210, -0.049062, -0.013849, -0.068797, 0.036852, -0.026763, -0.002133, 
    0.041365, -0.039139, 0.055370, -0.074823, -0.008698, 0.041465, 0.020577, -0.068819, 
    0.037512, 0.034596, 0.059699, -0.025028, 0.036882, -0.075717, 0.048056, -0.068404, 
    0.001315, -0.062385, -0.046051, -0.090705, -0.011946, -0.052445, -0.003470, 0.073243, 
    -0.035574, -0.025316, -0.059635, 0.038897, -0.013197, 0.018013, -0.012858, -0.014027, 
    -0.008339, -0.043166, -0.040441, -0.056412, -0.019102, 0.023801, -0.033901, -0.047273, 
    -0.014173, -0.053981, -0.041478, 0.002312, -0.032375, 0.002149, -0.019674, 0.022564, 
    0.015054, 0.040370, 0.014939, -0.061525, -0.036698, -0.014517, -0.031833, -0.061894, 
    -0.039043, 0.013326, -0.056285, -0.018308, 0.061580, -0.021634, 0.021844, -0.015525, 
    0.026576, -0.022178, 0.027066, -0.008122, -0.061177, -0.012940, 0.019442, -0.038194, 
    -0.066765, 0.015717, -0.032366, -0.016049, 0.046411, -0.032540, 0.095082, 0.022388, 
    -0.007309, -0.031429, 0.082328, -0.042565, 0.001128, 0.018514, -0.006764, -0.005076, 
    0.022091, 0.047872, -0.005116, 0.031815, -0.075818, 0.045110, -0.079841, -0.064043, 
    -0.015200, -0.092811, -0.015947, 0.001909, -0.007032, 0.052505, -0.008097, -0.037283, 
    0.016550, 0.029127, -0.014838, -0.041471, -0.002989, -0.024450, 0.022295, -0.021566, 
    -0.033833, -0.053764, -0.057390, -0.024640, -0.080296, -0.030566, -0.045766, -0.043096, 
    0.002386, -0.044805, -0.004497, 0.041415, -0.061595, -0.003954, 0.008470, -0.029868, 
    0.026003, 0.024108, -0.004721, 0.003334, -0.059837, 0.036299, -0.013526, -0.007670, 
    -0.091880, 0.032652, -0.049876, -0.016347, -0.020439, -0.036332, 0.008372, 0.030993, 
    -0.001175, -0.013761, -0.012155, -0.020888, 0.004376, -0.027401, -0.058745, -0.034065, 
    -0.089215, 0.047416, -0.028776, -0.085070, 0.115326, 0.005315, -0.081078, 0.038475, 
    0.044109, 0.018691, 0.033944, -0.017299, -0.006537, 0.070292, 0.007195, -0.078428, 
    0.040887, -0.038976, -0.045774, -0.013838, -0.059068, 0.024413, 0.051017, 0.063276, 
    -0.018762, -0.007937, 0.059437, 0.086515, -0.050430, 0.046018, 0.101146, -0.038777, 
    -0.039028, 0.049949, -0.059066, 0.001846, -0.098647, -0.043339, 0.036726, -0.058368, 
    0.002061, 0.023369, -0.014195, -0.055923, -0.006512, -0.025937, -0.095918, -0.005442, 
    0.024812, 0.032383, 0.012909, -0.028780, -0.038370, -0.005536, -0.058637, -0.038158, 
    -0.013033, 0.022801, -0.032207, 0.008846, -0.114825, 0.036562, -0.072852, 0.020718, 
    0.069231, 0.037499, -0.032724, -0.019218, 0.023611, 0.007920, -0.072986, -0.017829, 
    0.106536, -0.088859, 0.004262, 0.004048, -0.020975, -0.011667, -0.001577, -0.030659, 
    -0.088492, 0.043304, -0.040940, 0.015571, 0.033805, 0.037719, 0.060100, 0.062414, 
    -0.033983, 0.003638, 0.017125, 0.012612, 0.041084, -0.068105, -0.010960, 0.049610, 
    -0.056403, 0.011210, -0.001839, 0.012780, 0.017995, -0.038715, 0.027314, -0.054133, 
    0.013106, 0.009435, -0.058621, -0.061002, -0.049025, -0.017132, -0.092350, -0.113568, 
    -0.050378, -0.034724, 0.042431, 0.035663, 0.032525, 0.046537, -0.008795, 0.093097, 
    -0.014908, -0.030167, 0.003287, -0.112003, -0.053724, 0.009914, 0.018557, -0.049179, 
    0.047548, 0.040399, 0.031358, 0.003813, -0.030556, 0.033837, -0.013240, 0.009101, 
    0.026996, 0.002749, 0.026772, 0.000104, -0.041070, 0.050059, 0.036531, 0.034288, 
    0.058341, 0.001890, -0.002946, 0.020712, -0.045465, -0.001802, -0.008176, -0.021593, 
    0.040269, 0.006160, 0.044177, -0.007939, 0.053495, -0.047452, 0.000209, 0.064125, 
    -0.040502, -0.055283, -0.013744, -0.034074, -0.048093, 0.028073, -0.018084, 0.016036, 
    0.041387, -0.012273, 0.033525, -0.055450, -0.065206, -0.017392, 0.033678, -0.045496, 
    0.049881, 0.010967, 0.038190, 0.030495, -0.001585, 0.007521, -0.065979, -0.035035, 
    0.044303, 0.044415, 0.005144, 0.036140, -0.013727, -0.014722, -0.029692, 0.038972, 
    0.046256, 0.049183, 0.032116, -0.011550, 0.009992, 0.044336, 0.042683, 0.049464, 
    0.043576, -0.011214, -0.050021, 0.018635, 0.018752, 0.020442, -0.027911, 0.009328, 
    0.030794, -0.023364, -0.036783, -0.020017, 0.030539, -0.021488, -0.017041, -0.064680, 
    0.047173, 0.013708, 0.005524, 0.004991, -0.000315, 0.005199, 0.050864, -0.009545, 
    0.022637, 0.006720, -0.042142, -0.009540, -0.017286, -0.060619, -0.030030, -0.022270, 
    -0.015267, -0.043465, -0.023460, -0.000219, -0.039253, -0.050489, -0.044337, -0.014562, 
    -0.017250, 0.007278, 0.031335, 0.048409, -0.033131, 0.044312, -0.025600, 0.045752, 
    0.024662, -0.010220, 0.032957, -0.047829, 0.046589, -0.013198, -0.043978, -0.045028, 
    -0.018048, -0.031061, -0.024994, 0.022250, 0.046510, 0.016529, -0.036717, -0.042661, 
    -0.000834, -0.035932, -0.025718, 0.007580, 0.031255, -0.033175, -0.003761, 0.002141, 
    -0.007915, -0.007927, 0.000471, -0.013275, -0.038274, -0.020218, 0.020176, -0.038461, 
    0.023743, 0.025219, -0.014994, -0.059422, -0.045501, -0.026034, -0.029898, 0.033069, 
    -0.024980, 0.021618, 0.019675, -0.031543, 0.032918, -0.018512, 0.020652, 0.001276, 
    -0.019947, -0.022950, -0.042390, -0.006146, -0.016545, -0.034157, 0.014200, 0.047000, 
    0.034026, -0.061855, -0.001985, 0.036125, 0.025982, 0.036080, -0.012831, 0.009881, 
    0.046133, -0.062546, 0.077010, 0.039104, 0.033556, -0.045873, 0.047017, -0.016679, 
    -0.007096, 0.039831, 0.003028, -0.035347, 0.036521, -0.049153, 0.051858, 0.051464, 
    0.021932, -0.047190, 0.021073, 0.017589, -0.040653, -0.064821, 0.035906, 0.042599, 
    0.000633, 0.019428, -0.069336, -0.054816, 0.007719, 0.031470, -0.037741, -0.042341, 
    0.051613, 0.025181, -0.002669, -0.044551, -0.030098, -0.048892, -0.014127, -0.059610, 
    0.007386, -0.028726, -0.027810, 0.020674, -0.020907, -0.010788, 0.046393, -0.049190, 
    -0.000301, 0.033572, -0.012843, -0.058075, -0.000943, -0.021726, 0.033568, 0.019291, 
    -0.044409, -0.052321, 0.018367, -0.030424, -0.045501, 0.019480, 0.038129, 0.027245, 
    0.013599, 0.039176, -0.039982, 0.032190, 0.025261, -0.029032, -0.016060, 0.032482, 
    -0.020559, -0.091143, 0.071535, -0.032704, -0.083784, -0.027004, -0.089372, -0.081673, 
    -0.041968, -0.016358, 0.021299, 0.033028, 0.047011, 0.016145, -0.108174, -0.023985, 
    -0.033659, -0.038272, -0.058245, 0.001789, 0.031064, 0.050428, -0.011535, 0.052049, 
    -0.058847, -0.017252, 0.041322, 0.053738, 0.035124, -0.021400, 0.040627, -0.091296, 
    0.027186, 0.029912, -0.002620, -0.051393, 0.034996, -0.016956, -0.039910, 0.034566, 
    -0.017994, -0.098151, -0.146753, -0.018071, -0.060910, 0.016494, -0.021607, -0.106568, 
    -0.034420, -0.082646, -0.007850, -0.035586, -0.045777, -0.043149, 0.050304, -0.021004, 
    0.008588, -0.007420, -0.108506, -0.127105, -0.091280, -0.018124, -0.018432, -0.044880, 
    -0.073546, 0.066294, 0.008172, 0.018075, 0.019874, -0.041795, 0.049506, 0.003415, 
    -0.022073, -0.080975, 0.038209, -0.001639, -0.014868, -0.037181, -0.053600, -0.039919, 
    -0.027131, -0.022039, 0.063392, -0.025550, -0.022421, -0.052233, -0.052051, -0.001353, 
    -0.036047, 0.004900, -0.041214, -0.035997, -0.059435, -0.019444, -0.095251, -0.132464, 
    -0.040732, 0.030060, -0.022522, -0.031474, 0.002955, -0.049035, -0.043641, 0.061417, 
    -0.010444, -0.058618, -0.040924, -0.011900, 0.032112, -0.060624, 0.028325, -0.058056, 
    -0.087865, 0.067420, 0.051854, 0.016890, -0.051665, -0.010496, -0.095329, -0.096333, 
    -0.005126, 0.040956, -0.024845, -0.054279, -0.025881, 0.008049, -0.030857, 0.001524, 
    -0.011180, -0.015991, -0.001525, 0.051475, 0.042728, -0.017735, -0.004858, 0.060550, 
    0.019402, 0.039844, 0.070849, -0.012549, -0.046791, -0.057325, -0.067312, 0.001746, 
    0.012572, 0.032882, -0.016175, 0.019041, 0.008849, 0.022511, 0.016864, -0.066065, 
    -0.002743, -0.040510, -0.030716, 0.027817, -0.022358, 0.005934, -0.012885, -0.011595, 
    -0.042740, -0.022256, -0.033463, -0.056388, -0.046607, 0.039766, 0.025589, -0.038182, 
    -0.049264, -0.003936, 0.049190, 0.035026, 0.046715, 0.034322, 0.031709, 0.013119, 
    -0.029630, 0.000934, -0.043064, -0.010677, -0.033154, -0.031980, -0.027355, -0.046183, 
    -0.039054, 0.044071, -0.004458, -0.034001, -0.044825, 0.013134, -0.056724, -0.056160, 
    -0.017252, -0.006106, 0.040983, -0.051484, -0.030555, -0.019896, 0.008022, 0.035766, 
    -0.057194, 0.036674, -0.001525, -0.030579, -0.044193, -0.059652, 0.013296, 0.039925, 
    -0.047249, -0.045487, 0.039549, -0.010478, -0.037751, 0.028374, 0.009624, 0.006154, 
    -0.050954, 0.053487, -0.053268, -0.033722, -0.025603, -0.035036, -0.012470, -0.066240, 
    -0.012349, 0.033418, 0.019453, -0.035021, -0.025101, -0.034970, -0.050028, -0.049650, 
    -0.031913, 0.023795, -0.029063, 0.027627, 0.047429, 0.057099, -0.017524, -0.028034, 
    -0.055145, 0.012092, 0.019054, -0.037911, -0.058491, -0.049178, -0.013688, -0.035862, 
    0.032965, 0.020232, -0.013859, 0.034720, -0.029504, -0.001620, 0.013954, 0.032382, 
    -0.036592, -0.067929, -0.037539, 0.058665, -0.059713, -0.051599, -0.055897, 0.006122, 
    -0.082560, 0.010763, 0.071666, -0.001946, -0.034947, -0.058596, -0.028890, -0.034007, 
    -0.048897, -0.081112, -0.053556, -0.083523, -0.051706, -0.044973, -0.009886, -0.070413, 
    -0.058880, -0.011299, -0.105870, -0.019863, -0.007046, -0.042673, -0.076746, -0.074869, 
    0.042005, -0.000965, -0.005282, -0.005639, -0.055330, 0.002951, -0.001127, 0.052617, 
    0.039197, 0.022662, -0.099132, 0.006655, 0.040567, -0.078953, -0.032991, 0.053867, 
    -0.006793, -0.064560, -0.033642, -0.037613, -0.010177, -0.122655, -0.017311, -0.044881, 
    -0.026429, 0.070708, 0.041188, -0.063487, -0.077394, -0.044973, -0.035363, -0.015882, 
    -0.030811, -0.038430, 0.009836, -0.035204, 0.121448, -0.045217, 0.001648, -0.009592, 
    0.014117, -0.006015, -0.028196, -0.072544, -0.010058, -0.022022, 0.030699, -0.042448, 
    0.061287, -0.053277, -0.004487, -0.047458, 0.027871, -0.061241, -0.060778, -0.072995, 
    0.016497, -0.006250, 0.042390, -0.089921, -0.098817, -0.062139, -0.141059, -0.036793, 
    -0.089908, -0.018230, 0.020020, -0.025712, -0.005503, -0.060040, -0.033094, -0.021557, 
    0.021453, 0.009751, -0.002703, -0.006014, -0.024259, -0.056562, 0.020389, -0.054440, 
    0.011201, -0.028408, 0.061808, -0.046864, 0.050694, -0.022647, 0.046945, -0.084447, 
    0.086646, 0.039733, -0.038188, -0.003917, 0.064010, 0.010580, -0.013084, -0.025053, 
    0.025727, 0.016608, -0.025834, 0.031373, -0.056451, -0.065105, -0.005923, 0.020391, 
    0.063392, -0.050954, -0.042994, 0.048941, -0.002201, -0.040384, -0.011725, -0.012881, 
    0.038505, 0.011070, 0.032869, -0.040348, 0.037001, -0.016743, -0.007741, 0.007529, 
    0.022985, -0.012186, 0.047748, -0.020706, 0.014462, -0.036916, 0.021836, 0.013757, 
    0.043411, 0.015872, 0.029636, -0.053129, -0.018115, 0.001194, 0.052894, 0.003226, 
    -0.022074, 0.032422, 0.037952, 0.030382, 0.035831, -0.042895, -0.004402, 0.061140, 
    -0.013976, -0.048486, -0.010089, -0.020124, 0.040832, 0.029245, -0.031758, -0.057978, 
    -0.048936, 0.023695, -0.058698, 0.004607, 0.063974, 0.038609, 0.006793, -0.031500, 
    0.030262, 0.043472, 0.017607, 0.038051, -0.049250, 0.025271, -0.035447, 0.053680, 
    0.017797, 0.004678, -0.055994, 0.046774, -0.054873, 0.035676, 0.010875, -0.042097, 
    0.027957, -0.022966, -0.054476, -0.009830, 0.042129, -0.062001, 0.032620, -0.054907, 
    0.000710, -0.034430, 0.032552, -0.020503, 0.028673, 0.031413, 0.035149, 0.030950, 
    -0.006571, -0.053244, -0.000854, -0.034430, -0.040696, 0.051523, 0.049859, -0.057182, 
    -0.029336, -0.012565, -0.047649, 0.040356, 0.008739, -0.034968, -0.045802, 0.034389, 
    -0.024452, -0.027200, 0.003566, 0.052401, -0.064617, -0.035835, 0.039220, -0.049756, 
    -0.085877, 0.039447, -0.036785, -0.028969, -0.014328, -0.018967, 0.028103, 0.052331, 
    0.051275, 0.055508, 0.000366, 0.062083, -0.031108, 0.061316, -0.090104, -0.028182, 
    0.046874, 0.027700, -0.013451, 0.032417, -0.040892, -0.048228, 0.073530, 0.049961, 
